-0.000358 -0.000081 0.092093 0.008597 -0.094844 -0.002352 0.021973 0.074112 -0.000000 0.000000 0.082963 -0.029360 0.054849 0.128067 -0.119784 -0.067913 0.145726 0.017145 -0.000002 0.098530 0.000000 -0.102379 -0.001651 -0.000000 -0.002818 -0.006435 0.000417 -0.078922 0.000687 0.060751 0.000978 0.009687 0.000316 0.003973 0.011201 0.003933 0.000005 -0.000002 0.117429 0.208671 0.015220 0.079087 -0.189844 -0.000000 -0.000000 0.035275 0.110216 -0.016156 0.103588 0.208562
-0.074624 -0.067879 0.110379 0.055964 0.041972 -0.083898 0.084821 -0.048725 -0.092643 -0.216707 -0.047392 -0.300259 0.034422 -0.064665 -0.094381 0.048895 0.097982 -0.214262 -0.316048 0.004078 0.014195 -0.255732 -0.045974 -0.160335 -0.028663 0.020490 0.078081 -0.094743 0.100432 -0.012211 -0.056411 0.064691 -0.114347 0.079319 0.167974 -0.013715 -0.048514 0.018232 0.040379 0.004608 -0.233346 0.050081 0.028499 -0.081357 -0.116461 -0.106536 -0.049540 -0.026125 -0.110342 0.059862
-0.016888 0.029610 0.063640 0.012796 -0.002276 0.135826 0.077183 0.069872 0.000000 0.000003 -0.003773 -0.095743 0.035668 -0.106449 0.072738 -0.032311 -0.194756 -0.002527 0.046191 0.130752 -0.000477 -0.258752 -0.033861 -0.001763 -0.009676 0.079474 0.017840 0.296209 -0.011682 -0.048373 -0.012953 0.068502 -0.007941 -0.042532 -0.079088 -0.034107 0.068916 -0.044752 -0.142043 -0.274416 0.019830 0.128186 0.016101 -0.001432 0.002312 0.005981 0.023700 -0.052616 -0.052415 0.057716
0.109349 0.000221 0.036089 -0.000062 -0.000000 -0.000005 -0.072034 0.000001 0.000000 0.007054 -0.000000 0.070758 0.000000 0.070341 0.006832 0.116743 0.044422 -0.025229 0.004904 0.104672 -0.084438 0.028699 -0.000000 -0.000000 0.000000 0.000006 -0.000000 0.176335 0.000001 -0.020226 -0.000000 0.091428 -0.000000 0.000003 0.025773 -0.000137 -0.000001 0.000000 -0.006404 0.003839 0.000033 -0.089400 -0.098412 0.000000 0.000000 0.000000 -0.000001 0.024550 -0.205329 -0.018166
0.063045 -0.020654 0.010224 0.007648 -0.000017 0.023270 -0.052269 0.012095 0.000000 -0.000000 0.000211 0.041233 0.000322 -0.007407 0.134401 -0.000005 -0.133538 -0.143751 -0.000924 0.193724 0.004991 -0.123910 0.016251 0.004365 -0.000257 -0.006567 0.026938 -0.094691 -0.000506 0.014709 0.004622 0.000450 -0.002298 0.002300 -0.100573 0.021751 0.016549 0.000000 0.073040 0.011731 0.037197 -0.119049 -0.038888 -0.000033 -0.000000 0.000000 0.032533 0.025853 0.152243 -0.066634
-0.008802 0.052242 0.045983 -0.008009 0.007624 -0.029488 -0.118497 -0.040836 -0.000000 -0.000091 -0.004985 0.115551 0.021545 0.140502 0.059550 0.020575 0.183518 -0.097687 0.011865 0.031831 0.074018 -0.018831 0.097591 0.022063 0.047202 -0.034839 0.030021 -0.056339 0.035540 -0.023067 -0.010804 -0.109415 0.059295 0.099661 -0.100635 0.120717 0.099021 0.000243 0.074092 0.105467 0.076384 0.125899 0.086315 -0.006856 -0.000000 -0.005282 0.102501 0.000000 0.166678 0.146334
0.008258 -0.021065 0.036129 -0.091846 0.008789 -0.042592 0.059352 0.091460 0.000000 0.004322 -0.119626 0.036175 0.037881 0.129593 0.083679 -0.000214 -0.152413 0.158607 0.093692 0.075617 -0.016442 0.120222 0.056509 0.057685 0.024141 0.040383 0.042390 -0.165037 -0.016362 0.070751 -0.004678 -0.213583 -0.037775 0.047794 -0.106696 -0.048982 0.076829 0.001330 0.142059 -0.014450 0.166846 -0.138577 -0.150009 -0.036555 0.000004 -0.001161 0.013892 -0.028775 -0.187166 0.054109
-0.099611 0.103531 0.076686 -0.036570 -0.003533 0.252386 0.024965 0.025660 -0.000000 -0.000557 0.054340 0.238135 -0.029280 -0.152646 -0.006242 -0.000767 0.123818 0.051788 0.017355 0.012430 -0.050135 -0.121770 -0.045915 0.003148 -0.030158 -0.092039 -0.004972 -0.103413 -0.022223 0.076193 0.019003 0.067369 0.004854 -0.078257 0.109593 0.060372 0.086515 -0.000014 -0.048137 0.143366 -0.096524 -0.222733 0.037177 0.017074 -0.000088 -0.003578 -0.042297 0.056195 -0.084023 -0.136395
-0.040209 -0.031116 0.018098 -0.249883 -0.214220 -0.218661 -0.013720 0.003357 -0.032253 0.114872 -0.011005 -0.200259 -0.193707 -0.077980 0.104984 -0.165524 -0.092386 -0.192666 0.156820 -0.172198 -0.002529 0.051267 -0.049360 -0.073200 -0.008130 -0.267329 -0.131602 -0.116416 -0.172698 0.068450 -0.186525 -0.027821 -0.127309 -0.075637 -0.126764 -0.233720 -0.055867 -0.234948 0.046820 -0.246006 0.051510 -0.200330 -0.101959 0.062236 0.085941 -0.174924 -0.229295 -0.040909 -0.113137 -0.142009
0.127153 -0.015888 0.013959 0.161823 -0.076918 -0.107605 -0.249941 -0.090966 -0.000000 0.013889 0.033144 0.131086 0.167320 -0.029238 0.001690 -0.000263 -0.294840 0.034587 -0.017692 -0.009620 0.123034 -0.175340 -0.054072 -0.000031 0.045306 0.008060 -0.016383 -0.032862 0.006744 0.168639 -0.102531 0.241016 -0.081494 -0.052942 -0.186733 0.122510 -0.080418 -0.003117 -0.079391 0.018399 0.056594 0.193089 0.084996 -0.001023 0.000014 -0.007955 0.084677 -0.014082 -0.022035 -0.044897
0.071882 -0.215722 0.159637 -0.039984 0.004091 -0.062520 0.048359 -0.077817 0.048027 -0.074150 -0.089130 -0.121074 -0.046950 0.014642 0.153373 -0.032360 -0.046082 -0.126782 -0.144985 -0.160185 -0.024430 -0.047908 0.019638 -0.001729 0.022293 -0.029807 0.121343 0.174327 -0.040614 -0.110752 0.157687 -0.261920 -0.028898 -0.055228 0.014105 -0.090124 -0.039751 0.104599 0.037476 0.129275 0.040335 0.028656 -0.152955 -0.016993 -0.020380 0.024906 0.068206 -0.034705 -0.210887 -0.216740
-0.087973 -0.100647 -0.158691 -0.095987 -0.059036 -0.114023 -0.036215 -0.187218 -0.000000 -0.009396 -0.010141 -0.024261 0.058281 0.013518 -0.204008 -0.098517 0.166049 -0.275495 -0.154929 -0.014383 -0.018419 0.130570 -0.220626 -0.000230 -0.000010 -0.052320 -0.000014 -0.021998 -0.017829 -0.246826 -0.046509 -0.000385 -0.166746 -0.043329 0.020308 -0.146014 -0.151113 -0.161235 0.062217 -0.087874 0.089761 -0.005164 -0.125187 0.087878 0.000000 -0.222458 -0.242833 -0.016342 0.080160 -0.024649
-0.055689 -0.010361 0.191494 -0.004117 -0.218884 -0.147039 -0.209438 0.038946 -0.079970 -0.061062 -0.199123 -0.054799 -0.124884 0.011286 -0.117930 -0.032301 0.047954 -0.135068 0.057482 -0.202828 0.065612 -0.021814 -0.000021 -0.052702 -0.109153 -0.078061 -0.173622 -0.064291 0.026115 -0.014139 0.152415 -0.315324 0.032485 0.066260 0.085753 -0.059063 -0.101319 0.081657 -0.105359 -0.050122 0.054159 -0.024228 0.141426 0.029475 0.018699 -0.072498 0.019087 -0.041539 -0.024850 -0.031749
0.023131 -0.017443 -0.055207 -0.116210 -0.055695 0.182864 0.001948 -0.094914 -0.030420 0.014756 -0.097394 -0.024957 -0.108487 0.148634 0.047803 -0.024708 -0.105535 0.078760 0.039922 0.015688 -0.003501 0.003607 -0.157223 -0.078220 0.003218 0.150971 0.154488 -0.242648 -0.138039 -0.070670 -0.229504 -0.179237 0.019050 -0.003854 -0.155313 -0.101601 -0.083777 -0.168599 -0.131508 0.183648 0.161352 0.126944 0.088353 0.033529 0.034464 -0.044589 -0.119603 0.005807 0.106133 -0.007430
-0.199038 0.023430 -0.224272 0.020779 0.028368 0.009153 -0.073265 0.021267 -0.000000 0.008235 -0.000070 0.133066 0.061174 -0.193471 0.056841 -0.003215 0.171822 -0.197957 0.147343 -0.054163 0.014349 0.157521 0.105016 0.051102 -0.009107 -0.016122 -0.000201 0.158569 -0.117048 -0.001696 0.078866 -0.041846 0.006624 0.088650 -0.135533 -0.045786 0.012791 0.066424 -0.005521 -0.119450 -0.131076 -0.112976 0.025352 -0.000552 -0.000028 0.119428 -0.039836 -0.062005 -0.149279 0.209173
-0.200126 0.062021 -0.006499 0.039438 -0.127456 -0.042223 -0.124238 -0.023251 -0.098947 -0.199113 -0.066568 -0.115305 -0.299109 -0.090231 -0.168584 0.032374 -0.035912 -0.222674 -0.044054 0.152351 -0.236100 -0.036243 -0.147270 -0.034820 -0.030519 -0.162425 -0.052353 -0.103178 -0.224231 0.106856 -0.236618 -0.015198 -0.245938 -0.141040 0.023467 -0.226798 -0.070095 -0.074327 -0.019508 -0.009037 0.028296 -0.088929 -0.077297 -0.057289 -0.112150 -0.171582 -0.085926 0.007978 -0.070219 -0.037374
0.021314 0.001456 0.067851 0.093253 0.016875 0.027803 0.016567 -0.012770 0.000000 -0.000000 0.002139 0.004661 0.018599 0.095433 0.207814 0.000169 -0.178833 -0.043282 0.001645 0.000166 0.002842 -0.005295 0.012961 -0.000077 -0.000594 0.054955 -0.003612 -0.174883 0.017983 0.036067 -0.011926 0.070105 -0.007379 0.002824 -0.013666 0.133821 0.027038 0.000020 -0.123234 -0.114572 -0.016875 0.150079 0.224443 0.004325 -0.000000 0.005817 0.027736 -0.036736 0.093393 -0.016951
-0.055401 -0.086573 0.151720 -0.049155 0.044795 0.159948 -0.010869 -0.196826 0.000000 0.017003 -0.000000 -0.021889 0.000887 -0.066108 -0.012397 0.000000 -0.067456 0.009611 0.007163 0.097612 -0.000000 -0.015684 0.078304 -0.000000 0.046245 0.021029 -0.008854 0.098370 -0.000419 -0.154189 -0.051552 -0.105250 -0.000112 0.004571 0.271175 0.005521 0.064951 0.000000 -0.139379 0.078959 -0.020926 -0.045803 -0.127128 0.007320 -0.000000 0.000629 -0.020432 0.031526 -0.140093 -0.063546
-0.034908 -0.022593 -0.173683 0.104828 0.064206 -0.063522 -0.162288 0.098767 0.000000 0.183472 0.000832 -0.103389 0.099087 0.023783 -0.105791 -0.000014 0.122124 0.109596 -0.190207 0.126868 -0.001734 0.102543 0.107119 0.003516 0.004099 -0.014930 -0.059417 0.088678 0.033934 -0.185337 0.066079 -0.092087 -0.003080 0.002236 -0.211086 -0.075754 -0.049724 0.006656 -0.012965 0.183200 -0.014018 0.067483 0.104012 0.071431 -0.000006 -0.149998 0.003936 -0.019061 0.224890 0.253363
0.065571 -0.051627 -0.021366 -0.024574 -0.096835 -0.058046 -0.114148 -0.021147 -0.000019 -0.000708 -0.011976 -0.213900 -0.082842 -0.043431 -0.024385 -0.035718 0.146280 -0.085786 0.086363 -0.083620 0.051861 0.022909 -0.004133 -0.000822 0.015609 -0.101042 -0.079913 0.066488 -0.041545 -0.192732 -0.018918 -0.109119 -0.002423 -0.026484 0.121719 -0.010485 0.002192 0.103003 -0.249000 0.185142 0.146180 -0.144184 0.003982 0.003423 0.000000 0.004287 -0.030128 -0.034450 -0.175406 -0.100824
0.088187 -0.000013 -0.195864 -0.001426 0.042144 -0.001158 0.003713 0.023545 0.000001 0.000000 -0.000041 0.034979 0.003699 0.040556 -0.150008 0.000008 -0.132878 -0.133240 0.000296 -0.003867 -0.000000 0.169761 -0.034718 -0.007783 0.000004 -0.027123 -0.000000 0.275829 -0.000000 0.059196 -0.000658 0.034191 0.000015 0.066538 -0.035098 0.001003 0.000104 0.000000 0.001401 -0.120026 0.000018 -0.001691 -0.138693 0.000000 0.000000 -0.033825 0.017827 -0.034025 0.079931 -0.133964
-0.090068 0.148767 -0.172583 -0.056635 -0.085637 -0.006833 0.072390 -0.059380 0.110710 -0.045439 -0.000338 -0.016337 -0.028571 -0.159178 -0.192700 0.120152 0.092167 0.152452 -0.189191 -0.059447 -0.011715 0.076025 -0.005713 0.003975 -0.002267 0.040163 -0.006760 -0.210946 -0.063281 0.006963 -0.114543 0.075961 -0.009824 -0.037464 0.029744 0.054456 -0.113464 -0.000376 -0.046660 0.040229 0.027678 0.121949 0.048512 0.055029 0.000006 -0.047591 0.140425 0.010433 0.025885 -0.168295
0.085804 0.085160 0.026964 -0.022306 0.000014 -0.074935 0.089338 0.061925 -0.000000 -0.000000 -0.012376 0.068738 -0.038408 0.071042 -0.000010 0.031972 0.130097 0.089147 0.041006 0.067486 -0.033043 0.125588 0.014551 0.025733 -0.032398 0.064851 -0.066094 0.112104 -0.018235 -0.156828 0.007353 -0.048647 -0.022169 -0.087258 -0.041090 0.137530 0.054804 -0.000000 0.300349 0.098569 0.041518 0.103657 -0.143522 0.012865 0.000231 0.004607 -0.032540 -0.055629 0.001923 0.083593
-0.035280 -0.021260 0.038561 -0.048287 -0.039818 -0.074467 0.034448 0.034574 -0.000000 0.000578 -0.107538 -0.079339 0.148974 0.116492 0.055296 -0.000023 0.021368 0.045157 -0.158759 -0.119490 -0.038202 -0.107438 -0.054579 0.000329 0.007783 0.045325 0.001549 -0.107693 -0.010229 -0.091670 -0.121127 0.007687 -0.014590 0.010664 0.032180 0.118552 0.110500 -0.000063 -0.110335 -0.012758 -0.052077 0.114001 0.101038 0.044631 0.000000 0.118198 -0.013852 -0.032749 0.103553 0.025005
0.021664 -0.045889 -0.164235 0.009082 0.031187 -0.077543 0.026095 -0.189415 -0.238857 -0.214304 -0.157152 -0.186214 0.032318 0.036415 -0.115525 -0.067070 -0.027611 0.040915 -0.198855 -0.073873 -0.108977 -0.032928 -0.278272 -0.155456 -0.104390 -0.160843 -0.124694 -0.188276 0.006572 0.099989 -0.036201 -0.114037 -0.182574 -0.027630 -0.116954 0.044227 0.108905 -0.230627 -0.159473 0.022520 -0.067498 0.135239 -0.040296 -0.098081 -0.004728 -0.171769 -0.176989 -0.006481 0.018914 0.023971
-0.128696 0.052646 -0.008647 -0.020527 0.000002 0.112794 0.079704 0.010919 -0.000056 0.048057 0.030687 0.035518 0.018517 -0.108897 0.038937 0.001325 -0.129313 0.005176 0.100515 -0.055882 -0.009114 -0.099477 -0.052768 0.002982 -0.000840 0.012007 0.052015 0.047836 0.010368 -0.175260 -0.026638 -0.098629 -0.001672 -0.005955 -0.281350 -0.078544 -0.006669 0.006342 0.116043 0.043979 -0.042386 -0.104267 -0.257923 -0.002396 -0.000000 -0.047581 0.067253 0.013845 -0.230097 -0.200302
-0.173524 0.054348 0.106035 -0.100587 0.162160 -0.038430 0.045406 -0.047687 -0.000000 0.060214 -0.079517 0.018606 0.049123 -0.091534 0.043207 -0.002635 -0.199267 -0.046289 0.039866 0.219552 -0.101673 -0.220054 -0.070078 -0.004449 0.073860 -0.110412 -0.162567 0.114197 -0.125683 -0.091002 -0.002351 -0.263442 -0.094852 -0.078353 -0.031425 -0.017718 -0.075158 0.009770 -0.004089 -0.388602 -0.171028 0.123179 -0.266032 -0.066909 0.001948 0.003285 0.003411 -0.012779 0.125668 0.026802
-0.000000 -0.056305 -0.257648 0.015851 -0.007337 0.132045 0.000503 -0.000276 0.048041 0.000000 -0.000000 0.158202 0.161861 0.032664 0.041818 -0.000000 -0.105172 0.002455 -0.002030 0.030747 0.000103 0.045508 0.013535 0.000000 -0.001536 0.000000 -0.042045 -0.044507 0.000000 -0.109869 0.070230 -0.219603 0.000000 0.000110 0.006163 0.040771 -0.000000 -0.030565 -0.157146 0.195667 0.009056 0.329495 0.075027 0.079276 0.000000 0.000000 0.014876 -0.009248 0.120858 -0.101891
-0.042157 0.008985 -0.075395 -0.034289 0.000200 -0.008407 -0.025083 0.003181 -0.000021 -0.010669 0.000018 0.129962 0.129985 0.060865 0.030893 0.000002 -0.113574 0.225573 -0.020185 -0.173519 0.000021 0.223106 -0.149765 -0.000000 0.000006 0.015393 0.000041 -0.097939 -0.000292 0.054037 -0.041288 -0.189694 0.000000 -0.002529 0.361314 -0.133694 -0.008266 0.000001 -0.102174 0.096206 -0.013567 0.068459 0.008812 -0.000000 -0.000000 0.000004 0.049515 -0.002085 -0.080669 -0.213584
0.000112 0.042129 0.140723 0.001967 -0.014185 0.000003 -0.214683 -0.000000 -0.027745 -0.000000 -0.000000 -0.050559 0.000038 0.155118 -0.006549 0.000000 0.049792 -0.045917 -0.000000 0.054685 0.000000 -0.036433 -0.000550 0.000000 -0.000000 -0.000000 -0.000000 -0.080158 -0.000584 -0.056211 0.000000 -0.044229 -0.019839 0.071996 0.126653 0.000184 -0.000000 0.000000 -0.123840 0.047124 0.054378 -0.217121 -0.056726 0.000000 0.000000 -0.000000 -0.000000 -0.051999 -0.280193 -0.199533
0.014180 -0.002897 -0.164117 0.149739 0.000523 0.070775 -0.015350 0.005739 -0.000000 -0.058049 -0.000000 0.029560 -0.091239 0.038036 -0.083654 -0.021386 0.073300 -0.110881 0.099228 -0.288007 0.055721 0.206112 -0.003649 -0.002330 0.000269 -0.163198 -0.000246 -0.198161 -0.004809 -0.009092 0.004095 -0.180166 -0.001335 -0.014962 0.057070 -0.083327 -0.007548 0.119793 -0.192635 0.178817 -0.207531 -0.055351 -0.144694 -0.000330 -0.000043 -0.007254 -0.087831 -0.012819 -0.238115 0.068158
0.072300 -0.089860 -0.144162 -0.012507 -0.204927 -0.040050 0.084145 -0.149160 -0.172658 -0.170830 -0.229188 -0.183708 -0.026094 0.031321 -0.140148 -0.170415 -0.001733 0.066359 -0.104968 -0.059353 -0.157952 -0.251498 0.040151 -0.050905 -0.072113 -0.095220 -0.096603 0.056855 -0.056803 -0.128746 -0.125414 -0.023247 0.054296 -0.125803 0.037264 -0.233533 -0.097767 -0.228259 0.106061 -0.425688 -0.176131 -0.087790 -0.209282 -0.032770 -0.118459 0.035734 0.101493 0.024589 0.119975 -0.182960
0.040050 0.071234 -0.009132 0.001546 0.041043 -0.010737 -0.001701 -0.013238 0.000000 -0.000455 0.000022 0.076941 -0.002988 -0.066213 0.122814 -0.000000 -0.073997 0.002366 -0.001357 0.137163 0.002870 0.054236 0.079715 -0.080555 0.000000 0.109918 0.000027 -0.188180 -0.051985 -0.084250 0.029474 -0.000360 -0.009384 0.000041 -0.001684 0.025489 -0.000876 0.000000 0.074099 -0.175946 0.027961 0.153774 0.029187 -0.000002 0.000000 0.020455 0.000429 0.011549 -0.121072 0.170624
0.058561 0.069039 -0.104634 -0.004530 0.014303 -0.052388 0.069414 -0.078228 -0.000000 -0.029228 -0.007593 -0.066585 -0.046722 0.086070 0.057008 -0.000092 -0.106279 0.089578 0.001127 -0.192774 -0.003650 -0.212828 -0.003709 -0.000008 -0.000631 -0.042091 -0.006992 0.144379 -0.001317 0.106573 -0.120646 -0.008260 -0.001834 0.001202 -0.102790 -0.082103 -0.006587 -0.000000 -0.046724 -0.045944 0.028220 -0.231989 -0.082145 0.014058 0.000009 0.001193 0.003234 0.064242 -0.061580 -0.012896
0.023393 -0.014976 0.057383 0.044268 0.063837 0.007223 0.052721 0.070347 0.000000 0.047156 -0.003329 0.178116 -0.017750 0.276370 0.116186 0.002747 -0.102075 0.056593 0.057761 -0.025803 0.020238 0.031158 -0.026944 0.029277 -0.021918 0.150630 0.016704 -0.035800 0.002196 0.004168 0.061512 0.082918 0.019835 -0.013247 0.125254 -0.101568 -0.022002 -0.000925 0.122502 -0.023402 -0.085963 -0.035736 0.075305 -0.000000 0.001871 0.083204 0.089611 -0.002913 0.124682 -0.095300
0.051589 0.076046 -0.218621 0.055059 0.000408 0.149115 0.051131 0.005650 0.007307 0.000000 0.000001 0.105222 -0.031733 -0.061306 -0.072171 -0.000000 -0.070136 0.021524 0.016198 0.056158 -0.000013 -0.203293 0.012614 -0.000011 0.011930 -0.013652 -0.010918 -0.061719 0.000227 -0.166707 -0.028434 -0.067605 0.000017 -0.002287 0.073760 -0.035823 -0.001103 -0.145125 -0.104256 -0.053374 -0.086235 0.052117 0.204589 -0.000001 0.000003 0.000012 -0.006743 -0.018330 -0.171072 -0.284073
-0.150520 0.019193 -0.003894 -0.170629 0.012603 -0.048520 -0.168725 0.011288 0.044626 -0.065816 -0.000636 -0.174684 -0.027443 0.030989 0.046658 -0.001942 0.076273 0.193043 0.061925 -0.062988 0.022547 0.152001 -0.005965 0.000109 0.002464 -0.022377 -0.027498 -0.078117 0.108920 0.053038 0.060184 -0.128016 0.011813 0.008650 -0.266582 -0.195726 0.004274 0.085103 0.041149 -0.116809 0.039119 0.108855 -0.200381 0.000889 -0.000000 -0.011438 0.071846 0.047293 0.047168 -0.168542
0.004699 0.054785 0.022924 0.071021 0.014819 -0.037337 0.009427 -0.023693 0.000000 0.000000 0.002218 0.038188 0.161771 -0.013502 -0.024970 -0.000666 0.060218 -0.099438 -0.005114 0.123824 -0.007056 0.010921 0.031287 0.003638 -0.008286 0.102173 -0.013910 0.105688 0.056337 0.019442 0.050966 -0.053534 -0.000306 0.069505 0.247459 -0.072737 -0.061761 -0.000082 -0.023385 -0.054555 -0.097866 0.115166 0.183620 0.031423 0.000668 0.024662 0.013891 -0.043647 -0.117369 0.159249
0.013163 0.035758 -0.209923 -0.024605 0.006050 0.035810 -0.131658 -0.039660 -0.000000 -0.093587 0.043097 -0.089257 -0.085420 0.155820 0.088521 0.038870 -0.057467 -0.076883 -0.165000 0.146141 0.081470 0.021636 -0.048286 0.002017 0.000003 0.032322 -0.020364 -0.037013 0.001134 -0.160231 0.070059 -0.031049 0.019465 -0.014284 -0.221862 0.124925 0.057785 0.045550 0.037864 -0.172876 -0.112064 -0.271509 -0.234925 0.084388 -0.000031 -0.176588 -0.049773 -0.004787 -0.014521 -0.013030
0.000224 0.000000 0.179583 0.000001 -0.000000 -0.000000 -0.000006 -0.000000 -0.000000 -0.003496 0.000000 0.002536 -0.018449 -0.020828 -0.176204 -0.000000 0.014101 -0.069738 -0.045597 0.065256 -0.000000 0.260137 0.000000 -0.000000 0.000000 -0.000000 0.000000 -0.159985 0.000069 -0.003860 0.000817 -0.056594 -0.000000 -0.000000 0.084954 0.000107 -0.000000 -0.000000 -0.132393 0.107647 -0.000000 -0.158962 0.112127 0.000000 0.000000 0.000000 -0.131177 -0.037811 -0.131958 0.028836
0.000392 0.000000 0.062363 -0.000000 0.000000 -0.000000 0.001297 0.000000 0.000000 -0.000000 -0.000000 0.099714 -0.000004 -0.113180 0.106117 0.041015 -0.272699 0.118061 -0.018960 0.033426 0.000000 -0.109144 -0.014987 -0.000000 -0.000001 0.000235 0.000838 0.185038 0.000512 -0.094143 -0.098105 0.291055 0.000000 0.000015 0.060963 0.041554 -0.000000 0.001662 0.047257 -0.069282 -0.000067 0.210614 -0.021545 0.000000 0.000000 0.000000 -0.000001 0.002169 -0.003778 -0.000509
0.107454 -0.006905 -0.025958 0.087386 -0.000253 -0.042741 0.005183 -0.063995 0.000031 -0.024770 0.014977 -0.108815 0.104281 0.034163 -0.014312 -0.020010 -0.228178 -0.197461 -0.297302 0.052007 -0.047022 -0.239065 -0.140102 0.011151 -0.052068 -0.113282 -0.209959 -0.288947 -0.004892 0.222946 0.069326 -0.072647 -0.026095 0.129482 0.096471 -0.189803 -0.069660 -0.003702 0.086360 -0.158540 0.065355 -0.014203 -0.059770 -0.154522 -0.002871 -0.024649 0.009334 -0.016905 -0.059201 -0.036517
-0.002053 0.016517 -0.083251 0.010648 0.000000 -0.016399 0.022930 0.010622 -0.000000 -0.000000 -0.000000 -0.018754 0.103199 -0.129838 0.036866 0.001593 0.168811 -0.041783 -0.002227 -0.122752 0.002246 -0.154015 0.000014 -0.000000 -0.001592 0.029685 0.000510 -0.114590 -0.003480 0.050910 -0.001064 0.002040 0.010667 0.002016 -0.014922 0.031425 -0.000620 0.001168 -0.018287 -0.216851 0.124577 -0.240208 -0.149465 0.000001 0.000000 0.000319 0.020088 0.017930 0.163083 -0.030053
0.122522 -0.053595 -0.044047 0.008932 0.005210 0.104767 0.216963 -0.015693 -0.035016 -0.000000 -0.057281 0.111551 -0.005245 -0.105875 -0.112543 0.000099 0.050897 0.034590 -0.003237 -0.137373 -0.018719 0.022763 0.076981 -0.009592 -0.004432 0.010363 0.035847 -0.193443 0.009485 -0.070675 0.059544 0.025168 -0.042592 -0.078061 -0.102860 0.187873 0.115892 -0.016010 0.129962 0.021159 0.146591 0.066642 0.264722 0.000180 0.001122 -0.004754 0.011877 -0.000177 -0.264326 -0.073516
-0.198236 -0.164428 -0.109147 0.111932 -0.109004 -0.191627 -0.341241 -0.054890 0.017522 -0.086052 0.046973 -0.140304 -0.081008 -0.024130 -0.134006 -0.017635 0.035182 0.104187 -0.097838 0.090134 -0.100842 0.003406 -0.008825 -0.086247 -0.006090 -0.235099 -0.012619 0.149316 0.019066 -0.142901 -0.028953 -0.096684 -0.005349 -0.126244 -0.106362 -0.140678 -0.059462 0.055401 -0.074141 -0.210552 -0.216378 -0.153843 0.095533 -0.047968 -0.000000 0.031359 -0.125986 -0.019252 0.021134 -0.115263
-0.096006 -0.200252 -0.111441 -0.135007 -0.080425 -0.040497 -0.095011 0.070121 -0.076999 -0.146836 -0.098618 -0.107965 -0.230483 0.000664 -0.064657 -0.091140 -0.095432 -0.134055 -0.241670 0.089722 -0.055321 -0.204438 -0.085456 -0.000479 0.053524 -0.069639 -0.107752 -0.047391 0.069812 0.088541 -0.249046 -0.255826 -0.009225 -0.042711 -0.238646 -0.159860 -0.142565 -0.197360 -0.027941 0.078415 -0.030627 0.008459 -0.122060 -0.107945 -0.000289 -0.058344 0.068319 0.017835 -0.004391 -0.056926
-0.006100 -0.000015 -0.115582 0.036609 0.000000 -0.000117 0.235026 -0.000147 -0.000711 -0.033176 0.000002 -0.002126 0.000952 0.191006 -0.201198 0.000001 0.160918 0.011414 0.069718 0.092057 -0.000002 -0.034023 -0.001280 0.000000 0.003383 0.090065 0.000001 -0.050845 0.000585 -0.002049 0.002941 0.128838 -0.000000 0.000320 -0.054014 0.107607 0.000002 -0.000000 0.161963 0.002631 0.001112 0.173715 -0.246340 0.000004 0.000000 0.000002 -0.000448 0.057880 0.264970 -0.064454
-0.027756 -0.029947 -0.000636 0.048964 -0.021104 0.104593 0.052758 0.080551 -0.000000 -0.000001 -0.019477 -0.163417 -0.040118 0.164726 0.160878 0.003796 0.041419 -0.018131 -0.005837 0.036333 0.025536 -0.135761 0.058145 -0.093789 0.006379 0.096518 -0.009154 0.268398 -0.048957 -0.150103 -0.054885 -0.069467 0.083517 -0.020678 -0.065363 0.069918 -0.038481 0.009143 -0.146615 -0.105850 -0.016598 0.036353 -0.035265 -0.000002 -0.000089 0.084871 -0.048080 -0.009072 0.045349 0.199591
-0.056908 0.154107 0.126657 -0.010421 0.007329 0.044599 0.153175 -0.002805 0.000000 -0.030640 0.010762 -0.000538 -0.003614 -0.079639 -0.084487 -0.000003 0.057104 -0.198141 0.067071 -0.183744 0.003090 0.040618 0.035323 0.001702 0.007953 0.051221 -0.041143 -0.056848 0.009096 0.178971 0.003324 -0.059370 0.138332 -0.000856 -0.020926 0.107808 -0.005706 -0.005635 -0.092746 -0.235665 0.040648 -0.079155 0.103018 -0.000000 -0.000000 -0.080559 0.047233 -0.039364 0.178373 0.105382
-0.105022 -0.038246 -0.084837 0.075333 -0.094110 -0.069695 0.052908 -0.053738 -0.000000 -0.006420 0.056954 0.015537 0.010502 -0.097486 -0.107124 0.006929 0.052479 -0.025594 -0.050594 0.017892 0.026298 0.125860 -0.016307 -0.001465 -0.016988 0.059384 0.032149 -0.005554 0.026598 0.219232 0.045593 -0.055843 0.043749 0.037653 0.038640 0.074184 0.049918 0.002054 -0.022516 -0.164374 -0.148274 -0.110063 -0.129335 0.026849 0.033503 -0.014019 -0.102790 -0.004863 0.116478 -0.088198
0.026519 -0.021025 0.169330 0.047243 0.173006 0.020355 -0.065690 0.067846 0.000000 0.000000 -0.013166 -0.060359 0.083529 -0.077054 -0.100409 -0.004145 -0.213764 -0.213469 0.009873 0.006073 -0.019504 -0.253292 -0.085525 0.079350 0.015672 0.136584 0.014402 0.044953 -0.172808 0.102535 0.106315 -0.039510 -0.018806 0.075989 0.063700 -0.102963 0.123258 -0.001677 -0.190444 -0.059582 0.069341 0.029684 0.262821 -0.001008 -0.000792 0.039938 -0.099647 -0.024296 -0.106084 0.292700
0.035995 -0.178129 -0.219592 -0.047046 0.056602 -0.089022 0.114747 0.054213 -0.010032 -0.000015 0.000071 0.025098 -0.052396 -0.255234 -0.301485 -0.001047 -0.174078 -0.145997 -0.004490 0.079402 0.008312 -0.091430 -0.077804 -0.082914 -0.035237 0.093747 -0.102285 0.080213 -0.031296 -0.007959 -0.050491 -0.285223 -0.098744 -0.172364 0.239713 -0.028225 0.091586 -0.042462 -0.072866 0.097537 0.012359 -0.182433 0.169241 0.000013 -0.000005 0.034809 0.020672 -0.014728 -0.107118 0.238850
0.132370 0.012639 0.093705 -0.004979 0.002406 -0.053477 -0.126738 -0.004059 0.000000 -0.064549 0.088957 -0.178399 -0.002748 -0.052899 -0.024900 0.001256 -0.043425 -0.162786 -0.145423 0.007831 -0.001823 -0.249825 0.170039 -0.000000 -0.000455 -0.019969 0.000011 -0.087762 -0.020100 -0.055819 0.010494 -0.031102 -0.179542 0.137808 -0.038643 0.000586 -0.002885 0.000003 0.150711 -0.080876 0.076610 -0.027364 0.096705 0.003287 -0.000007 0.163513 0.050910 0.000865 -0.233452 0.192942
-0.003092 0.000495 0.003120 0.000001 -0.000000 0.000072 -0.000030 -0.000023 -0.000000 0.000000 -0.000000 0.002562 0.000000 0.007749 0.090466 0.000001 0.002232 -0.004426 0.000000 0.059653 -0.000020 0.004767 -0.000000 -0.000000 0.000002 0.000277 -0.000000 0.070957 0.000013 -0.006958 -0.000048 -0.000000 0.000002 -0.000000 -0.077580 -0.003407 0.000017 -0.000000 -0.000286 -0.043907 -0.000185 0.003589 0.034840 0.000000 0.000000 -0.000000 -0.000407 0.000000 0.000009 -0.000383
-0.177959 -0.028272 0.084592 -0.218847 -0.052447 0.067462 -0.238910 -0.209551 -0.049999 0.086541 -0.046776 -0.046796 -0.110321 -0.047116 -0.034582 -0.073382 -0.086097 -0.213408 -0.145536 0.061582 0.017863 0.103655 -0.119450 0.048601 -0.023961 -0.098804 -0.100974 0.123828 0.012883 -0.013436 0.002549 0.065044 -0.006553 -0.095272 -0.120264 -0.066575 -0.094219 -0.003421 -0.224656 -0.176123 -0.147057 -0.033602 0.017511 0.038043 -0.148944 -0.072170 -0.141542 -0.085745 0.061012 0.006658
0.025223 0.019337 0.003132 0.011651 -0.020340 -0.039398 0.006260 -0.032124 -0.088733 -0.034777 -0.120380 0.114042 -0.073024 0.000026 -0.054725 0.098801 -0.002204 -0.006290 -0.011794 0.124093 0.003111 -0.044480 -0.022962 -0.000062 0.000746 0.061884 -0.005836 -0.120884 -0.010807 0.035827 -0.109341 0.175895 0.005704 0.032317 -0.041627 -0.045189 -0.012804 0.037928 0.155651 0.153426 -0.012714 0.093740 -0.103086 0.000855 0.000361 -0.000001 -0.090534 -0.026345 -0.161856 -0.074345
-0.000309 -0.001733 -0.143702 -0.000118 -0.000000 0.000868 0.013453 -0.001039 0.031923 0.028002 -0.000000 0.011303 0.000008 -0.166240 -0.160354 -0.000000 -0.062457 0.077608 0.000001 -0.130431 -0.000052 -0.105774 0.000008 0.000000 -0.000000 0.000027 -0.004029 0.149982 0.000948 0.004718 -0.000000 -0.000016 -0.000001 0.000163 -0.072823 -0.040482 0.000079 0.000000 -0.013808 0.188383 -0.000176 -0.183866 0.362928 0.000000 0.000000 -0.000000 0.001092 -0.000000 0.117918 0.000116
0.035448 -0.257882 0.052410 -0.223514 -0.163725 -0.250872 -0.218433 -0.180218 -0.043311 -0.171650 -0.150240 -0.146821 -0.224191 0.097734 -0.071577 -0.001928 0.180176 -0.114449 -0.239942 0.123199 -0.045286 0.039950 -0.233919 -0.035650 0.038830 -0.262338 -0.262099 -0.095380 -0.172882 -0.104871 -0.230693 0.019605 0.014801 -0.127587 -0.124197 -0.043639 -0.044435 -0.016943 -0.069977 -0.154990 -0.345202 -0.000979 -0.018856 -0.208859 -0.120734 -0.114820 -0.090311 -0.057668 -0.162086 -0.236461
-0.036154 0.165634 0.154440 -0.093518 -0.000232 0.090850 -0.079574 -0.031867 0.059337 -0.000214 0.019016 -0.108909 -0.053197 0.152160 -0.138911 0.058721 -0.019699 0.064164 -0.100251 -0.147090 0.010879 -0.260127 -0.051990 -0.000001 0.023173 -0.165126 0.088439 -0.079507 -0.039040 -0.273354 -0.187444 0.088150 0.032650 -0.019795 -0.190515 0.175677 0.002255 -0.172547 0.163139 -0.289880 -0.048100 -0.068152 0.115633 0.001824 0.118889 0.000010 0.003395 -0.048777 -0.270319 -0.133482
-0.023881 -0.000158 -0.230907 -0.001363 0.037192 0.001479 -0.152764 -0.007533 -0.000000 -0.030592 0.000000 0.011495 -0.053588 -0.082070 -0.158641 -0.001707 0.097166 -0.065388 0.226658 0.050008 -0.000000 0.106419 0.042234 0.000036 0.061634 -0.041392 0.088538 0.157761 -0.002851 -0.091230 -0.064454 0.166364 -0.000065 -0.001502 -0.010599 -0.182876 -0.095124 0.000489 0.109687 -0.095227 0.000699 -0.200675 0.051504 0.000000 -0.012911 -0.000000 -0.000137 -0.083412 -0.149852 0.082587
-0.000000 -0.000000 0.043900 -0.000000 0.000000 0.000000 -0.001867 0.000051 -0.026804 0.000000 0.000000 -0.005265 -0.000000 0.001512 0.146501 0.000003 0.049994 0.008695 0.000000 0.024628 0.000433 -0.075040 0.000100 0.000000 -0.000000 -0.000000 0.000000 0.045456 0.000001 0.176574 0.085731 -0.000000 0.000000 0.000012 -0.045115 0.000184 0.000002 0.000000 0.037591 0.021259 0.005893 0.001260 0.146134 0.000000 -0.000000 0.000000 -0.000204 -0.000000 0.112907 0.062588
-0.012905 -0.088697 0.042982 0.026711 -0.029860 0.014981 -0.125719 -0.142515 0.000000 0.049211 -0.005455 0.072307 0.002521 -0.019361 -0.086288 -0.000981 -0.117184 0.113027 -0.027875 -0.041678 -0.000012 0.008888 -0.092785 -0.000045 0.026299 -0.014888 0.075229 0.019781 0.002679 -0.056840 0.026925 -0.239656 -0.000000 -0.000619 0.088466 0.041303 -0.071290 -0.005220 0.114334 0.206985 -0.053176 0.234668 -0.168922 -0.000100 -0.000000 0.000022 -0.012332 0.020404 -0.081378 -0.112116
-0.231854 -0.028960 0.120223 0.104532 -0.003168 -0.043987 -0.278860 -0.182875 -0.063658 -0.216429 0.078756 0.059735 -0.128074 0.142299 0.093243 -0.217186 -0.065256 -0.278567 -0.122033 -0.129742 -0.207292 -0.242520 0.011465 -0.225254 -0.108274 -0.200023 0.057207 -0.070557 -0.207759 -0.227354 0.002618 -0.207394 -0.167245 -0.238848 -0.007268 -0.055069 -0.102217 -0.125971 -0.003526 0.070766 -0.204926 -0.138323 -0.123019 -0.023068 -0.163633 -0.066986 -0.276023 -0.103074 -0.158600 -0.028351
-0.027830 0.136491 -0.092078 0.004480 0.007039 0.011428 0.035811 0.014107 -0.000000 0.000000 0.019460 -0.038886 -0.007176 -0.123692 -0.032854 0.000291 0.090867 0.048467 0.086803 -0.037016 -0.028301 -0.059479 0.057476 -0.000136 0.000109 0.027393 -0.000960 0.128842 -0.010901 0.164959 0.010794 -0.104925 0.012703 0.005484 0.165029 -0.095766 -0.028882 -0.000149 -0.081417 -0.051033 0.050666 -0.080821 0.029067 -0.006172 -0.002558 -0.002381 0.051503 0.009576 -0.062225 0.048959
-0.054206 0.015990 -0.048506 -0.046968 0.002488 -0.011405 0.091375 -0.112605 0.109854 0.054761 0.022645 -0.245010 -0.094258 -0.122836 0.085633 -0.002148 -0.182745 0.102535 0.054156 -0.193382 0.001574 -0.115934 -0.001983 -0.003263 -0.000421 -0.018736 -0.089559 0.053323 -0.020869 0.183285 0.020660 0.055969 0.043086 0.014704 0.109739 0.084545 -0.020964 -0.000013 -0.139800 -0.382598 -0.079163 0.149632 0.005145 -0.001092 -0.000000 0.066043 -0.007125 -0.029364 -0.058199 -0.104100
-0.108707 -0.075862 -0.061662 -0.166082 0.028728 -0.044894 -0.098445 -0.055276 -0.004540 0.010179 0.122630 0.083811 -0.006010 -0.003431 0.034919 -0.031736 -0.095560 -0.210562 -0.019160 0.075702 0.033201 0.013032 -0.087857 0.003856 -0.020238 0.061296 -0.027898 -0.178474 -0.072526 -0.092316 -0.039434 -0.157103 -0.059954 0.033484 0.151761 -0.090891 -0.109498 -0.107419 -0.165367 0.133684 0.039695 0.217935 -0.154740 -0.029522 -0.000017 0.006377 -0.143425 0.018784 -0.165011 0.035040
-0.008549 -0.006530 0.207955 0.008308 0.016541 0.016449 0.061407 -0.000920 0.006837 -0.000000 0.087917 -0.062928 -0.001403 -0.036838 0.071369 0.027326 0.070290 -0.015858 0.043251 -0.256837 0.000001 -0.037799 -0.000750 -0.000000 0.000008 0.016527 -0.056990 0.001638 0.001506 0.036634 -0.000409 -0.086432 -0.000000 0.000140 -0.117065 0.006575 0.010173 0.000012 -0.019149 0.167994 -0.001377 -0.159786 0.207341 -0.000008 -0.027230 -0.000000 0.062104 -0.018383 -0.055306 0.120049
0.003110 0.000000 0.228846 0.005144 0.075593 0.012220 0.002372 -0.000000 0.000000 -0.000000 0.000001 0.153533 0.026204 0.161113 0.017554 -0.000000 0.158928 -0.022812 -0.000000 0.023335 -0.000000 0.011465 -0.000935 0.000000 0.000005 0.000133 -0.000696 0.134343 -0.000000 -0.123183 -0.000000 -0.037424 0.000000 -0.000000 -0.118085 -0.000078 0.000043 0.000000 0.176173 0.119713 -0.000127 0.045878 0.010686 -0.000000 0.000000 -0.000000 -0.000000 -0.049910 0.113376 0.048004
-0.012039 -0.039009 0.031608 -0.074189 -0.074347 0.073518 -0.209809 -0.032651 -0.031617 -0.170435 -0.097629 -0.064057 -0.158260 -0.076703 -0.059004 0.032310 0.049003 0.063711 0.085447 -0.069367 -0.188066 0.082525 -0.153990 -0.017878 -0.077613 0.126368 0.068212 0.033375 0.096827 -0.193080 0.031337 -0.086078 0.035232 0.088937 0.069680 -0.101289 0.055538 -0.147714 0.044740 -0.391951 -0.130781 0.069830 0.007383 -0.176329 -0.044751 -0.152751 -0.200670 -0.056769 -0.050109 -0.048788
0.023834 0.005114 -0.252915 -0.007477 -0.032949 -0.029130 -0.040938 0.069893 -0.053648 0.035065 -0.010774 -0.275601 0.068655 -0.248252 -0.190956 0.026331 0.059118 0.078707 -0.081806 -0.018267 -0.084739 -0.160886 -0.200596 -0.025671 0.013167 -0.237141 -0.040263 -0.071719 0.030882 0.074422 -0.121393 -0.293251 -0.139741 0.027520 -0.014583 -0.112201 -0.121461 -0.000694 0.152497 -0.144058 -0.150001 0.131677 -0.064315 -0.002067 0.000000 0.037894 -0.010156 -0.071788 0.038034 0.015781
-0.040787 -0.192952 -0.206606 -0.121153 0.062284 0.001707 -0.204879 -0.067491 -0.120513 0.143613 0.075550 0.055083 -0.161899 0.106579 0.137710 -0.154887 -0.027224 0.089504 0.073390 -0.025357 -0.029833 -0.116840 0.083517 -0.060783 -0.133225 -0.132449 -0.148395 -0.080922 -0.083622 -0.027301 -0.126162 -0.319468 -0.190554 0.020163 -0.050725 -0.104923 -0.141229 0.002418 -0.020165 -0.188382 0.040527 0.009300 0.067783 -0.041317 -0.032125 -0.061014 -0.043745 -0.019941 0.116095 0.123250
-0.138208 -0.029786 0.082390 -0.135952 -0.000701 0.120329 0.035470 0.026213 -0.000001 -0.040586 0.009935 -0.006541 -0.162557 -0.186008 0.169401 -0.002905 -0.168451 -0.076303 -0.213585 -0.057271 0.009010 -0.072041 -0.015467 -0.001713 -0.006394 -0.053415 0.066946 -0.162165 -0.042249 0.044672 -0.074418 0.170154 -0.001370 0.006579 -0.308848 0.066541 -0.185477 0.030896 -0.047295 0.110802 -0.143319 0.153613 0.205276 -0.061277 -0.000000 0.000045 -0.034475 0.018371 0.196803 -0.022921
-0.166896 0.043718 0.091807 -0.079238 -0.061401 -0.154391 -0.034779 -0.093855 -0.135105 -0.073269 -0.026329 -0.109363 0.059227 -0.087331 -0.084327 -0.088695 0.118003 0.025594 -0.003216 -0.155575 0.027614 -0.212981 -0.094491 -0.005387 -0.011233 0.021220 -0.211176 -0.144278 -0.002170 0.037733 -0.048448 0.024959 0.010241 -0.006499 0.058273 0.028762 -0.023101 0.040270 0.000637 0.152608 -0.093248 0.005494 -0.180522 -0.200859 0.003800 -0.044385 -0.052980 0.000317 0.090598 -0.137602
-0.239333 -0.263615 -0.101354 -0.217476 -0.133672 -0.208044 -0.047658 -0.267817 -0.177313 -0.092165 -0.269196 -0.117524 -0.010969 -0.032581 0.104974 -0.172904 -0.066831 -0.233108 -0.185088 -0.022097 -0.205605 0.114276 -0.041504 -0.066326 -0.087538 -0.098110 -0.321749 0.116683 -0.193188 -0.096761 0.014905 -0.185192 -0.131524 -0.057453 -0.056687 -0.198759 -0.246557 -0.270674 0.002307 0.021247 -0.278549 -0.083544 0.049701 -0.271577 -0.151595 -0.202351 0.001627 -0.116177 -0.116924 -0.163383
0.039112 -0.158395 0.015387 -0.154080 -0.194498 -0.267043 -0.215784 0.050806 -0.230418 -0.174156 -0.150343 0.042145 -0.246051 -0.062973 -0.006745 -0.181255 0.025329 0.026955 0.038048 -0.134457 -0.091754 -0.055811 -0.169153 -0.020978 -0.074971 0.075243 -0.109834 0.061606 -0.077541 -0.040780 -0.100286 -0.013967 -0.191203 -0.127621 -0.314832 0.140874 -0.121635 -0.187101 0.083708 -0.149520 -0.096454 -0.058806 -0.036990 -0.110030 -0.012203 -0.113744 -0.228601 -0.067123 -0.029295 -0.264833
-0.078320 -0.024008 0.101148 -0.019989 0.000000 0.174934 0.027755 0.006770 -0.031653 0.140784 -0.003043 0.181323 -0.000142 0.004380 0.169850 -0.000000 -0.091080 -0.003589 0.068817 0.004210 -0.006837 0.206504 0.014787 0.004667 0.004782 -0.027413 -0.007344 0.130509 0.005610 -0.017896 -0.035030 -0.047397 -0.054102 0.019556 0.174399 0.076821 0.000282 -0.039903 -0.023847 0.165721 0.149321 0.246521 0.076172 -0.000000 -0.000008 -0.000037 -0.040073 -0.002398 -0.226978 -0.086172
-0.000247 -0.001931 -0.216879 -0.008109 -0.000004 -0.033667 0.072743 -0.000657 0.000000 -0.000000 -0.000000 0.093051 0.006544 0.064735 0.072634 -0.000000 -0.133174 0.152853 -0.183133 0.256464 0.000001 0.057988 0.002178 0.000091 -0.000004 -0.001543 0.029424 0.122772 0.000134 0.266192 0.095845 0.030861 0.037675 -0.000267 0.017790 -0.000000 -0.000001 -0.000000 0.188241 -0.018589 -0.003612 0.002021 -0.107589 0.081621 -0.000000 -0.013391 0.000202 -0.028928 -0.117704 0.081629
-0.013852 0.000302 -0.208546 -0.000841 0.000000 0.000018 -0.012900 -0.000078 -0.042651 0.000000 0.000000 0.178016 -0.014692 0.106454 0.018281 -0.000003 -0.152218 -0.043504 0.046780 0.079483 -0.000000 -0.126002 0.044599 0.000000 0.000000 -0.000193 -0.005028 -0.139745 -0.000001 -0.134745 -0.081567 -0.166484 -0.000004 -0.000020 -0.178727 -0.041862 0.000135 0.000000 -0.115796 -0.063727 0.105007 0.055771 0.047815 0.000000 -0.000000 0.000000 0.000000 0.088021 0.189913 -0.195298
0.093701 -0.117083 0.034068 -0.039424 0.004920 0.161297 -0.003502 0.117915 0.104839 0.000000 0.027909 0.038665 -0.046407 0.121047 -0.103398 -0.014094 0.015679 -0.183316 -0.030609 0.190913 0.080417 0.119663 -0.032027 0.004916 -0.010853 -0.043280 -0.093405 -0.081287 -0.072417 -0.259884 0.095697 -0.002314 0.003215 0.119933 -0.082570 -0.095872 0.052990 0.095287 -0.148780 0.062232 0.068645 -0.126714 0.123799 -0.000132 -0.000000 0.028928 0.047998 0.052680 0.077927 -0.254026
0.072577 -0.006148 0.001287 -0.002692 0.000000 -0.021822 0.059477 0.010181 0.000000 -0.000000 0.043292 0.011044 0.068339 0.166062 -0.133847 -0.000197 -0.185726 0.065200 -0.000648 0.099097 -0.003466 -0.164121 0.016780 -0.000000 0.010671 0.063638 0.000185 -0.188180 -0.000040 0.064881 -0.012630 -0.001312 0.005765 -0.035747 -0.080420 -0.064276 0.027468 -0.000023 0.225907 0.137217 0.023334 0.174053 0.161492 0.000023 -0.000000 0.000064 -0.000492 0.048349 0.158439 -0.001199
0.000753 0.106738 -0.106687 0.000003 0.000000 0.098370 -0.017942 -0.000003 -0.000000 -0.000000 0.000000 0.008714 -0.001761 0.259536 0.100438 -0.000000 0.082673 -0.000406 0.031681 -0.101481 0.000007 0.057451 0.000000 -0.000000 -0.000000 -0.000086 -0.005570 0.121189 0.004607 -0.044741 -0.000233 -0.090523 0.000011 -0.000148 -0.077732 0.030481 -0.000002 0.019776 -0.152948 -0.099927 0.000043 -0.122869 -0.133253 -0.000000 0.023948 0.000002 0.000000 0.000000 0.022472 0.089092
-0.000887 0.017270 0.029770 0.168296 0.127436 0.113551 -0.178262 -0.000430 0.036739 0.014426 -0.001618 0.093368 0.120963 -0.203412 -0.152431 0.024320 0.208166 0.165014 0.000009 -0.001690 0.000013 -0.096263 -0.039511 -0.036671 -0.000005 -0.071208 0.003795 0.018018 0.051675 -0.027017 -0.003548 -0.069500 0.125886 0.063348 -0.186535 -0.018035 0.000044 -0.000004 0.077867 0.091953 -0.009611 0.118342 -0.182993 -0.000115 -0.000000 0.045951 0.077515 -0.044768 -0.070460 -0.102665
0.120993 -0.051434 0.059305 0.006155 -0.005816 -0.019257 0.084978 0.062936 0.000000 0.114992 -0.025628 -0.077598 -0.017741 -0.052346 0.043033 -0.002312 -0.029538 -0.025411 0.140242 -0.196779 0.026601 -0.196163 -0.022603 -0.014951 -0.024920 0.078321 0.048293 -0.085091 0.002705 -0.160742 -0.004889 -0.040029 0.060132 -0.003427 -0.170584 -0.035578 -0.094847 -0.000156 -0.009616 -0.107867 0.163972 -0.226443 0.097818 -0.031506 -0.000000 -0.001505 -0.077601 0.073000 0.218067 -0.259869
0.052797 -0.004575 -0.066535 0.078657 0.005893 -0.007616 0.090912 0.096176 0.047990 -0.015568 0.000860 -0.221858 0.020947 0.096419 0.099197 -0.000016 -0.058648 0.189793 0.007822 -0.188853 -0.002689 0.064703 -0.033549 -0.000000 0.030245 -0.003876 -0.024032 0.005488 0.018178 0.038801 0.170195 -0.239194 -0.007069 -0.000666 0.029801 0.050728 0.012077 0.000010 -0.076322 0.004372 -0.079582 -0.051809 0.125773 0.000157 -0.000000 -0.000054 -0.074777 0.002309 0.028594 -0.185365
-0.168223 -0.020921 -0.055971 -0.008138 -0.180851 -0.159138 -0.123873 -0.005832 -0.051161 -0.152354 -0.021841 0.024547 -0.035332 0.080382 0.036687 0.045571 -0.080991 -0.037742 -0.018079 -0.099349 0.050221 -0.173821 -0.024852 0.004639 0.045772 -0.182342 -0.172859 0.088330 -0.007101 0.102229 -0.171528 -0.224367 0.013920 -0.086241 -0.092977 -0.051517 0.047886 -0.022154 -0.028330 -0.033297 -0.018159 -0.361942 0.007110 -0.109990 -0.000773 -0.186784 -0.147269 -0.021774 -0.010567 0.054699
0.000106 -0.000017 -0.188229 0.000046 -0.003267 -0.000036 0.243503 -0.031503 0.000000 0.017541 0.000000 0.116688 0.101966 -0.063849 -0.009811 -0.000000 -0.126970 0.139417 -0.010636 -0.047718 -0.000000 -0.185102 0.003743 0.000000 0.000000 -0.000000 -0.000000 -0.161777 0.000706 -0.108865 -0.036689 -0.000015 -0.027268 -0.000008 -0.028662 -0.000000 0.017916 -0.000000 -0.271754 -0.182120 0.000064 0.029858 0.269252 0.000022 -0.000000 0.035713 -0.000119 -0.021149 -0.074296 0.038500
-0.011420 -0.042833 -0.044303 0.021128 -0.014989 0.026658 0.068089 -0.005482 0.000000 0.059123 0.001564 -0.175979 -0.089587 -0.133791 -0.058610 -0.000013 -0.088736 0.074505 -0.151217 -0.052294 0.000007 0.246953 -0.006936 0.000003 0.000342 -0.003265 0.000002 -0.154322 -0.033068 -0.203357 0.016679 0.019513 0.000000 0.003001 -0.010246 -0.044632 0.064123 -0.000000 0.016515 0.077088 0.002672 0.066900 0.101358 -0.029967 0.000000 -0.035681 -0.001012 -0.030018 -0.071921 0.210151
0.086368 0.111555 0.233941 0.042976 0.000192 -0.007711 -0.022060 0.005568 0.000000 0.000000 0.001514 0.079524 -0.000323 0.159777 0.051980 0.000009 0.203287 -0.096520 0.001572 -0.075458 0.015771 0.114693 -0.001243 0.000825 0.011316 -0.000033 0.003425 -0.098675 0.000604 0.084124 0.000179 0.013480 -0.000403 -0.009647 -0.067809 -0.036436 0.032771 -0.000000 0.035196 0.007954 0.034461 -0.008448 -0.142961 -0.000418 -0.000000 0.000000 0.006417 -0.008859 -0.091957 0.081281
-0.023500 0.008910 -0.171428 -0.000559 -0.132198 0.015636 -0.035758 -0.005489 -0.000000 0.036442 -0.000000 0.202084 0.006659 0.035736 0.054300 -0.007049 -0.018893 -0.097391 0.024924 -0.142025 -0.000452 0.044958 -0.026872 -0.000050 0.132663 -0.048413 -0.086238 -0.054271 -0.005246 -0.031721 0.039443 -0.047500 -0.000000 0.025114 -0.055874 -0.005762 0.000334 0.000819 -0.098472 -0.142969 -0.032552 -0.235494 0.276900 -0.000003 -0.000000 0.000000 -0.008658 0.057897 -0.169084 -0.198299
-0.008920 0.102237 -0.036459 0.079316 0.061976 0.097532 -0.027177 -0.006075 0.068470 -0.000000 -0.112993 0.141824 -0.061351 0.186519 0.018549 -0.012069 -0.070944 0.059346 -0.000126 0.319851 0.050102 -0.137698 -0.053177 -0.000001 0.032470 0.118887 0.003996 -0.265007 -0.003559 0.001318 -0.089920 0.158621 0.094035 -0.000850 -0.218490 0.024328 -0.000285 0.000148 -0.027814 -0.069016 -0.205067 0.003636 0.086296 -0.034249 0.000000 0.056407 -0.067108 0.091497 -0.003543 -0.163874
-0.229452 -0.071024 -0.067525 -0.207014 -0.172363 0.061655 -0.005405 -0.070717 -0.000056 -0.052800 -0.037973 -0.174484 0.073466 -0.329024 0.058329 -0.120806 0.118247 -0.039828 -0.188761 -0.215617 0.058074 0.098881 0.011573 -0.070085 -0.000039 -0.045050 -0.118057 -0.063904 0.011777 -0.159338 0.003671 0.116376 0.117787 0.010358 -0.090241 -0.026322 -0.094645 -0.032499 0.161143 -0.028208 0.065255 0.057585 -0.040128 0.070737 -0.000007 -0.020365 0.044591 0.007471 0.162285 0.066098
-0.056283 0.185180 0.142221 -0.034797 -0.037901 -0.160183 0.020238 -0.045903 0.073184 -0.000000 -0.000274 -0.218270 -0.007191 0.073833 -0.045163 0.096488 0.217409 0.014736 0.019476 0.149040 0.046468 -0.126849 -0.186573 -0.082799 -0.000631 0.021212 -0.041002 -0.139864 0.082206 -0.048102 -0.184981 -0.049931 -0.012006 -0.071022 0.026441 -0.087287 -0.044908 -0.000358 -0.203549 0.014663 -0.007410 -0.109039 -0.000539 -0.002292 -0.023957 -0.203978 -0.054349 -0.045028 -0.144758 0.051629
-0.112335 0.041229 0.206016 0.143505 -0.025444 0.018853 -0.083706 0.097930 0.002054 0.137661 -0.040682 -0.024034 -0.075029 -0.022199 0.084751 -0.072653 0.073989 -0.027844 0.134701 -0.167996 0.075008 -0.010219 -0.038576 -0.028328 -0.102390 -0.047418 -0.012513 0.081992 -0.054917 -0.164797 -0.237728 0.036102 0.087097 -0.051206 -0.206768 -0.001808 -0.112786 0.006903 0.036516 -0.073387 0.081570 0.171825 -0.010724 -0.044041 -0.014234 0.076529 0.042561 0.027143 0.019016 -0.274572
-0.056973 -0.028492 -0.125344 -0.004149 0.158123 -0.066375 -0.175007 0.034506 -0.012647 0.011148 -0.011799 0.055193 -0.093768 -0.026987 -0.184113 0.024799 -0.144019 0.052390 -0.207373 -0.186012 0.034979 0.085175 -0.041256 0.011220 -0.001546 -0.047016 -0.065232 -0.217347 0.030659 0.157215 0.041282 -0.145236 0.001708 0.106644 0.135960 -0.069462 0.003891 -0.014983 -0.076970 -0.018561 -0.010255 -0.271411 -0.195935 -0.032127 -0.027609 0.067825 -0.028986 -0.008821 -0.077749 -0.233010
0.042849 -0.014432 -0.070311 0.042286 0.010046 0.045689 0.065708 -0.081001 0.000000 -0.039005 0.004274 0.130847 -0.118501 0.004688 -0.185428 0.015535 -0.078608 -0.049145 0.162300 0.118431 -0.027796 -0.011510 0.104710 0.021770 0.031046 -0.120348 -0.044658 -0.029815 -0.055119 -0.217065 0.004513 -0.036736 -0.058696 -0.056660 0.002535 -0.094526 -0.001704 -0.035886 -0.042495 -0.034632 -0.138767 -0.179392 0.061493 -0.006234 0.002525 0.025560 0.006480 0.055406 0.241931 0.075675
-0.046596 -0.023171 0.126660 -0.001477 -0.001159 -0.034918 0.172285 -0.003947 -0.000000 0.114645 0.022262 0.011265 -0.024168 0.046945 0.089197 0.002165 0.049995 -0.171989 -0.080078 -0.193548 0.095082 -0.167069 -0.000394 0.002336 -0.000006 0.004696 0.016070 0.055180 0.055302 0.083183 0.023307 -0.227743 -0.002536 -0.033026 0.220381 -0.001111 -0.091577 0.000005 -0.027547 -0.031337 -0.123437 0.123003 -0.237359 0.018952 0.000000 0.000042 0.008328 0.000422 0.174237 -0.099972
0.053313 0.044881 -0.018882 -0.193430 0.179666 0.030428 -0.219112 -0.092247 -0.002376 -0.030714 0.012690 -0.079475 0.057405 -0.067694 -0.026724 -0.025873 0.060546 -0.015970 -0.217428 0.064270 0.045152 -0.207058 0.103273 -0.000381 0.019752 0.094813 0.006207 0.020798 -0.088536 0.141002 -0.015068 -0.037833 0.021265 0.010317 -0.006338 0.006672 0.055537 -0.027944 -0.039040 0.019861 0.077798 0.008748 0.110527 -0.018964 -0.000020 0.027210 -0.046511 0.060525 0.180856 -0.161274
0.018204 0.065630 0.125068 0.134115 -0.022923 0.097707 -0.084338 -0.128633 0.000000 0.012628 0.105389 0.026894 -0.119442 -0.034134 -0.059012 0.002304 0.066121 0.159999 0.068911 0.088723 0.038293 0.034395 0.079699 -0.019790 0.124407 -0.117581 0.094518 -0.141931 0.072026 0.072486 0.068223 0.022136 -0.094742 0.062101 0.039504 0.145608 -0.007483 -0.000432 -0.180466 -0.028182 -0.065452 -0.073853 0.028739 -0.023212 -0.015183 0.012596 0.144311 -0.000000 -0.063603 0.154162
0.054512 0.010336 0.071475 -0.023745 -0.149523 0.167957 -0.175831 0.086757 -0.090150 -0.001367 0.075531 0.116520 0.028450 -0.013446 0.019370 -0.000812 0.073082 -0.163492 0.018536 0.041573 -0.007388 -0.084541 -0.016359 0.000005 -0.000286 0.062599 0.008559 0.036527 -0.023181 -0.163141 0.102163 -0.170881 -0.011988 -0.032014 0.251875 0.114640 -0.077686 -0.000288 0.138898 -0.031491 -0.015848 0.104253 -0.072958 0.083499 0.000246 0.003256 -0.168613 -0.014530 -0.143071 -0.115403
-0.010426 -0.001846 0.033474 0.060152 -0.000002 0.040164 0.043964 -0.022737 -0.000000 -0.000731 -0.020131 -0.002860 -0.002310 -0.024105 -0.042245 -0.000000 -0.014649 0.079931 0.000862 0.020871 -0.002816 -0.013176 -0.000419 0.000015 -0.000020 0.052914 -0.001015 0.071613 0.002359 0.030344 0.015492 0.022741 0.013956 0.000719 -0.016842 0.090628 -0.012191 0.000005 -0.091601 -0.000117 0.029723 -0.027703 0.003174 0.000243 0.000815 0.001486 0.042585 -0.000000 -0.038994 0.005402
