-0.100910 0.102076 -0.076145 -0.138964 -0.051663 -0.090938 -0.001896 -0.135942 -0.177464 -0.066913 0.079493 -0.119091 0.065055 0.045625 -0.136536 0.013916 0.114547 -0.126074 0.015819 -0.190420 0.156925 -0.034474 0.012044 -0.097920 -0.049165 0.011996 -0.082287 -0.078503 0.078894 -0.206211 0.036560 -0.095707 -0.021689 -0.039341 0.055467 -0.137161 0.039446 -0.038832 0.094478 0.175980 -0.044876 0.011359 -0.016727 -0.024071 -0.108199 0.062846 -0.119627 -0.085632 0.036047 -0.187974 -0.006560 -0.078908 -0.082879 0.084241 0.194574 -0.182715 -0.025450 -0.130571 0.023176 0.075014 0.137868 -0.096063 0.094857 0.219976 -0.003942 0.059120 -0.230150 0.011202 -0.057080 -0.048730 0.135341 -0.043952 0.061484 0.071183 -0.198144 0.003317 -0.058520 0.061922 -0.062513 -0.093081 -0.071976 -0.223609 0.124149 -0.010413 -0.063822 -0.193535 -0.066919 0.131267 0.022884 0.023443 -0.026621 0.063071 -0.117769 -0.089657 -0.076614 -0.216351 0.210371 0.108510 -0.220889 0.142009
0.035639 0.105658 -0.227229 0.126145 -0.117017 -0.000189 0.015998 0.019520 -0.028053 0.014579 -0.152635 -0.034151 0.025102 0.000311 -0.156638 0.187191 0.085719 -0.105950 0.098089 -0.012632 -0.071315 -0.084774 -0.094871 0.163424 -0.098453 -0.153510 -0.026119 -0.182123 0.110461 -0.008149 -0.097660 -0.058224 0.086671 -0.066721 -0.072115 -0.031318 -0.049758 0.043973 -0.028738 -0.021866 -0.046170 -0.022679 -0.148728 0.053165 0.077738 -0.080386 0.282203 0.051470 -0.023466 0.003352 -0.106147 0.065803 0.059332 0.172841 -0.200993 -0.018812 -0.065411 0.029397 -0.066123 -0.119334 -0.044343 -0.111561 0.042553 0.075239 -0.073362 0.077579 -0.023083 -0.087625 0.075335 -0.150078 0.046500 0.072237 -0.046131 0.185592 0.105677 -0.334502 0.006684 -0.138595 -0.119219 0.037484 0.011187 -0.100883 -0.134461 -0.070493 -0.033715 0.054783 0.074809 -0.102612 -0.058348 0.063911 0.208613 -0.133106 -0.041762 0.100556 0.066383 0.058764 -0.169854 -0.042023 -0.140632 0.012259
-0.067310 0.038841 -0.239535 -0.037198 -0.131249 -0.087050 -0.082382 -0.100089 -0.066443 -0.086234 0.035726 -0.186301 -0.122892 -0.001380 -0.113659 0.065142 -0.236601 -0.094107 0.000147 -0.074257 -0.088894 -0.030606 -0.173393 0.069456 -0.131287 -0.210760 -0.025711 -0.163984 0.048254 -0.003849 -0.027560 -0.165086 -0.058893 -0.168942 -0.187191 -0.088018 0.066007 -0.012376 0.003065 0.039238 0.063260 -0.128246 -0.100285 -0.077229 -0.029560 -0.023073 -0.115092 -0.065846 0.043288 0.085310 -0.166684 -0.068622 0.002178 0.039399 -0.078442 -0.224197 0.006865 0.028733 -0.082675 -0.117086 -0.168743 0.001205 -0.012123 -0.207542 -0.068050 0.002730 -0.137794 0.000483 0.091782 -0.180190 -0.013839 0.041344 -0.136534 -0.034465 0.083610 -0.147155 -0.148392 -0.213819 -0.165875 -0.104607 -0.207041 -0.102366 0.060029 -0.071659 0.113387 0.039982 -0.138431 -0.142935 -0.199099 -0.027947 -0.167990 0.008032 -0.095559 -0.142674 -0.162156 -0.092067 0.062263 -0.150115 0.094170 -0.044501
-0.106772 -0.164526 -0.133679 0.111893 -0.159274 0.015662 -0.127933 0.055555 -0.139719 0.037878 0.066980 -0.051069 -0.019025 0.019482 0.037774 -0.120198 -0.109255 0.028220 -0.051870 0.047423 0.044938 -0.008014 -0.122075 0.099938 -0.107119 0.030583 0.028118 0.084881 0.054143 0.042979 0.157006 0.087240 0.102426 -0.053765 -0.044616 0.057336 -0.073840 -0.155811 -0.180352 0.091194 0.319537 -0.049751 -0.182479 -0.047066 -0.033685 0.007176 0.029065 -0.085955 0.175285 -0.070443 -0.001984 -0.038271 -0.148598 0.061636 0.175791 -0.197004 -0.132663 -0.157933 0.085398 -0.076797 0.077502 0.105515 -0.039865 -0.018725 -0.050007 -0.022240 -0.249058 -0.117855 0.047475 0.093124 -0.039123 -0.075272 0.042461 0.145598 0.162209 0.131439 -0.125868 -0.128962 -0.031548 0.008030 -0.003679 -0.074573 -0.026015 -0.152284 -0.104787 0.070350 0.009905 -0.066678 0.025919 0.147280 -0.145735 -0.179635 0.041268 0.126663 -0.134572 0.033515 0.135449 0.175887 -0.066484 -0.092906
-0.073786 -0.059304 -0.049635 0.072015 -0.135094 0.078212 -0.019790 -0.006837 0.060281 0.088777 0.095077 -0.068034 0.153105 -0.029279 0.044880 0.086895 -0.041923 0.071091 -0.059269 0.024091 -0.037253 -0.121772 0.029252 -0.014016 0.134112 0.014827 0.052080 -0.032472 -0.044049 -0.090751 0.074610 -0.038982 -0.016767 0.008649 0.000347 -0.080346 -0.133615 0.117666 -0.049733 0.149231 0.138566 0.088487 -0.038428 0.112096 -0.141811 -0.070810 -0.056470 -0.075151 0.022801 -0.016104 -0.111713 0.053144 -0.042005 0.012837 -0.210481 -0.016147 0.077366 0.064315 -0.015854 0.043984 -0.132125 -0.050698 0.201953 -0.043786 -0.006707 0.093336 -0.040066 0.037538 -0.144407 0.083626 0.065064 0.237336 0.114701 0.101528 0.075044 0.037980 0.008462 -0.128415 -0.037285 -0.062161 -0.114118 -0.137838 -0.074608 0.020526 0.047398 -0.074821 -0.034995 0.090570 0.060469 -0.045786 0.035860 -0.013678 -0.015067 0.126775 0.093824 0.001699 0.125236 -0.075905 -0.089702 0.103264
-0.137672 -0.233870 0.014710 -0.078780 -0.060718 -0.006285 -0.071003 0.020691 0.061397 -0.036911 -0.009492 -0.164273 -0.113437 0.048735 0.115996 -0.032587 -0.049411 0.057442 -0.061677 0.077850 0.123388 0.033917 0.119424 -0.025924 0.019539 0.143924 0.118294 -0.100552 0.014544 0.020908 0.013412 -0.104778 -0.099977 0.041791 0.127602 -0.090072 -0.163478 0.132254 0.101280 0.012736 0.101025 -0.038442 -0.014701 0.059859 -0.039435 0.065177 -0.151718 -0.115964 -0.071056 -0.150407 -0.034262 -0.077474 0.046722 0.038181 0.035200 -0.087373 0.004136 -0.036130 0.075378 -0.051845 -0.000676 -0.174204 0.243735 0.024363 -0.145909 0.157609 -0.246396 -0.100774 -0.089145 -0.152601 -0.117111 -0.101412 0.064167 -0.089008 -0.048022 -0.141908 -0.086469 0.088175 -0.079887 0.021619 -0.066166 -0.121003 0.080387 -0.136165 -0.169101 -0.198312 -0.096276 -0.121003 0.150840 0.024030 -0.103500 0.050721 -0.096876 0.113805 -0.046568 0.035240 0.028548 -0.032651 -0.096489 -0.066433
0.113077 -0.157579 0.014300 0.047198 -0.031866 0.003826 -0.059756 -0.076910 -0.076543 0.102399 -0.244359 0.048633 0.124035 0.091007 0.008015 -0.009453 -0.091513 0.053778 -0.074345 -0.094034 -0.072669 -0.081801 -0.017341 -0.275499 0.085231 0.242405 -0.142646 0.071297 -0.075002 0.011554 0.147736 -0.042946 -0.090041 0.090196 0.219425 -0.006858 0.086924 0.148606 0.146844 0.034955 -0.053149 -0.055074 0.040729 0.041353 -0.001143 0.210130 0.149388 -0.012479 0.001498 0.017083 0.033476 0.100443 -0.044427 0.083965 -0.076993 -0.112986 0.020563 0.048271 -0.093922 0.029470 0.057167 0.056957 0.191701 0.034486 0.001587 0.057659 0.101149 0.070433 0.045829 0.149480 -0.079577 -0.075171 -0.028060 0.166046 0.120857 -0.096238 -0.012799 -0.018717 0.044384 0.107922 -0.021324 -0.110597 -0.090392 0.102611 -0.182262 0.041034 -0.006944 0.024420 -0.114249 0.094107 -0.091603 -0.132880 0.096958 0.165283 0.083289 0.046387 -0.230316 0.139833 -0.046187 0.110557
-0.013523 -0.080760 0.021724 0.071182 0.007433 -0.069743 -0.149587 0.043617 0.140736 0.036302 0.042139 -0.089162 0.096167 -0.087169 -0.080423 0.081814 -0.114012 0.020680 -0.023290 -0.012953 -0.049472 -0.113703 -0.005797 0.060272 -0.043829 0.037098 0.037384 -0.051033 0.068331 0.065833 0.040467 0.086217 -0.129064 0.009941 0.101080 0.057810 -0.029262 0.118382 -0.019675 0.049726 0.117383 -0.012046 0.010845 0.019370 0.008069 0.004543 -0.080524 -0.011583 0.031231 0.062801 0.039674 -0.040052 0.131739 -0.107442 0.046017 0.070211 0.070957 -0.110566 -0.107657 0.081401 -0.096773 0.109575 0.077026 -0.066989 -0.034766 -0.050692 -0.031368 0.049583 0.017201 0.047036 -0.114786 -0.031236 -0.132482 0.116150 -0.089264 -0.136215 0.069450 -0.009410 0.121547 0.023775 -0.038265 -0.132429 0.030531 0.072451 0.092919 -0.015741 0.068218 0.099387 -0.031544 -0.075390 0.060557 0.036854 0.011839 0.058003 -0.024808 0.058814 -0.064945 0.069349 -0.101099 -0.076195
-0.138823 -0.007827 0.078316 -0.163733 0.126938 0.111225 -0.110129 -0.069360 -0.120559 0.121765 0.060941 -0.245843 -0.095914 0.080267 0.002212 0.047450 0.035300 0.067766 0.134243 -0.180271 0.031256 -0.206636 0.043902 0.059449 0.072810 -0.008774 -0.117548 0.045038 -0.116804 -0.133017 0.072939 -0.002491 -0.046932 -0.064897 -0.162227 0.092809 0.099775 0.036845 -0.140418 0.120964 -0.083060 -0.079095 0.051288 0.062301 -0.138394 -0.020423 0.071330 -0.144186 -0.153287 -0.102810 -0.093355 -0.059039 -0.111687 -0.046142 -0.039157 -0.068259 -0.134520 0.005095 -0.095032 0.023750 -0.055238 0.043223 0.043929 0.010189 -0.061841 -0.103445 -0.030815 0.005753 0.112410 -0.100306 0.025088 -0.011059 -0.182245 0.003015 0.065480 -0.125142 -0.104320 -0.105607 0.005889 -0.152259 -0.023299 -0.127876 0.088856 0.072247 0.050162 -0.155877 -0.109947 -0.065631 -0.049762 0.068636 -0.098999 -0.041088 0.032387 0.029906 0.088875 -0.044292 -0.011135 -0.037521 0.168905 -0.072086
-0.117399 -0.249423 -0.065534 -0.006156 -0.045945 0.123793 0.038842 0.105210 0.049197 -0.166130 -0.208426 -0.009219 0.085163 0.007401 -0.035916 0.041191 -0.028340 0.032200 -0.055781 0.086123 0.156582 -0.038282 -0.074512 0.078150 -0.074126 -0.052896 -0.208994 -0.152637 -0.072105 -0.196386 0.055586 0.047095 -0.045489 -0.054360 -0.132868 -0.044466 -0.013445 0.054670 0.130656 -0.228314 -0.108511 -0.090112 0.077849 0.108633 -0.023410 -0.203991 -0.204054 -0.086524 -0.256618 -0.190862 -0.038946 0.073639 0.077508 -0.022165 0.000146 0.036248 -0.046123 0.191424 -0.094851 0.179966 -0.064446 0.010069 0.112684 -0.156575 -0.154703 0.143292 -0.016280 -0.158973 -0.099399 0.051633 0.002387 0.064076 0.091826 -0.200257 -0.255373 0.006892 -0.051630 -0.001349 -0.088316 -0.006851 0.002854 0.077654 -0.016545 0.022961 -0.023914 0.084097 0.049618 -0.071382 -0.065576 0.113966 0.050202 -0.017039 -0.043167 -0.042392 -0.120237 -0.083075 -0.115230 -0.065908 -0.072948 -0.011970
0.015410 0.113175 0.111659 0.007760 -0.026014 0.110151 -0.129351 0.049410 0.040434 -0.086898 -0.028587 0.030522 0.077654 0.073467 0.074211 0.089726 0.052526 -0.014609 -0.010380 0.135689 -0.003244 -0.043652 -0.097192 -0.076663 -0.074325 0.012872 0.130210 -0.069657 0.014665 0.106451 0.113426 0.115034 -0.097527 -0.094937 -0.100461 -0.109263 0.148619 0.089243 -0.081999 0.073948 0.114863 0.013281 -0.132634 0.098608 0.089310 -0.041428 0.009834 0.066493 -0.146738 0.056786 -0.084785 -0.084762 -0.063041 -0.058961 -0.056194 0.071263 -0.077002 0.132055 0.063695 0.121278 0.043429 0.063315 0.072019 -0.070523 0.058751 0.110997 -0.055317 0.056638 0.062092 0.090992 0.017949 0.100818 -0.051605 0.026711 -0.005705 -0.025199 0.037991 0.020554 -0.056655 0.117098 0.023068 0.055947 0.065633 -0.096792 -0.002107 -0.091426 0.075187 0.018570 -0.124438 -0.025632 -0.103355 0.007198 0.044681 0.074905 0.012919 -0.118052 0.138992 0.135578 0.011130 0.021784
0.083238 -0.101693 -0.082748 -0.104234 -0.027126 -0.132603 -0.057643 -0.060623 -0.195493 -0.022884 0.071474 0.001955 -0.116953 -0.022332 0.018167 -0.012508 -0.076420 -0.063677 0.020673 0.004933 -0.004296 0.004274 0.010912 0.091391 0.129673 0.025047 0.039193 -0.061677 0.050690 0.009090 -0.128388 -0.048242 0.131278 0.006496 0.018640 0.057511 -0.123462 0.089123 -0.005400 -0.169422 0.073605 -0.147015 0.106480 0.060499 -0.133506 -0.054349 -0.037884 -0.032010 -0.035302 0.196741 -0.119863 -0.158506 -0.137681 -0.005692 0.080866 0.039556 0.258992 -0.079327 0.116085 0.039643 -0.017763 -0.094572 0.171282 -0.023276 0.103919 -0.058093 -0.069685 -0.161678 -0.086903 -0.140883 -0.110097 0.226942 0.076181 -0.234581 -0.174746 -0.242217 -0.018981 0.082873 0.026012 0.027675 -0.029830 -0.140541 -0.115022 0.093303 -0.025594 0.041834 0.029140 0.004531 -0.130724 0.091040 -0.004277 -0.045676 0.065166 0.079018 -0.009856 -0.047439 -0.029424 0.075877 -0.022919 0.013831
0.008356 0.158966 -0.187467 -0.078022 0.160194 -0.116482 0.104388 -0.179806 0.015511 -0.108149 -0.006678 0.072890 0.061043 0.000490 0.000963 -0.001288 -0.057166 0.005986 0.065097 -0.123858 0.094776 0.067016 0.015488 -0.057193 -0.084501 -0.166988 -0.038253 -0.168007 -0.102359 -0.202547 0.138701 -0.182133 -0.087835 0.104846 0.148304 0.072277 0.081854 0.004646 0.046740 0.241660 -0.164540 -0.024572 -0.051256 0.042653 -0.156891 -0.081761 -0.043606 -0.128130 -0.038672 -0.074046 0.085861 0.046923 -0.133353 0.111817 0.137371 -0.027971 0.059771 -0.019658 -0.095344 -0.163050 -0.006637 -0.121645 -0.019700 -0.007654 -0.149522 0.070324 -0.024903 0.209808 0.105513 0.092166 -0.040161 -0.017058 -0.022234 0.005698 0.010097 -0.176891 -0.059043 -0.161211 -0.065447 -0.124136 -0.128942 -0.096169 0.152391 0.146092 0.111523 0.104676 -0.116146 -0.030309 0.099182 0.093529 -0.120854 -0.287203 0.026834 -0.053981 -0.135344 -0.084121 -0.138326 0.009925 0.019384 0.118543
0.119888 0.107117 -0.060521 -0.152277 -0.014389 0.107466 -0.166207 0.158315 0.074719 -0.003781 -0.208448 0.110433 0.016497 0.093793 -0.072849 0.108280 0.047571 0.079059 -0.143727 -0.007577 -0.108652 -0.028246 -0.101342 -0.008475 0.029003 -0.085278 -0.127471 0.146913 -0.085693 0.000708 -0.247474 0.092239 0.029689 -0.007724 0.013536 -0.082024 -0.014582 -0.004559 -0.180114 -0.102291 0.077879 0.009408 0.109725 0.071583 -0.041944 0.010649 0.150154 -0.032077 0.107348 -0.042484 -0.123095 -0.064613 -0.056506 -0.062762 -0.079935 -0.073773 0.071153 -0.114931 0.090619 -0.013464 -0.031377 0.124800 0.034553 -0.155962 0.053585 0.077258 0.075414 0.092844 -0.277295 0.041094 0.086400 0.043292 -0.246014 -0.091190 -0.119873 0.161738 -0.012716 -0.047424 -0.143342 0.085935 -0.078351 0.103260 -0.043432 -0.083637 -0.140662 0.156536 0.094642 0.031705 -0.026244 0.290789 0.060157 0.110678 0.111610 0.109788 -0.034028 -0.011397 0.044722 -0.048555 0.124909 0.012971
-0.048155 -0.030396 0.068785 -0.029038 -0.097896 -0.111021 0.048924 0.089028 0.041208 0.151891 -0.045042 0.072195 -0.091208 0.122159 -0.044812 -0.062395 0.113962 0.094799 0.088655 0.152230 -0.006918 0.074979 0.001173 -0.112410 -0.085706 -0.101052 0.042543 0.009620 0.021565 -0.056011 -0.003271 -0.134958 0.093151 -0.071140 -0.106645 -0.115396 0.111184 0.073237 0.012062 -0.098866 0.068773 -0.095455 -0.072750 -0.036911 -0.093101 0.021754 0.077582 -0.036026 0.085887 -0.136401 0.118275 0.134147 0.121110 -0.090967 0.065799 0.142008 -0.080198 -0.010802 0.101481 -0.051792 0.114984 0.053186 0.017622 0.044518 0.118284 0.062116 -0.114649 -0.025938 0.226576 -0.077523 -0.115330 -0.052113 0.059668 -0.079140 0.088673 0.046739 -0.022344 -0.001645 -0.112471 0.092425 0.031488 0.106177 -0.007976 0.072046 -0.084976 -0.046969 -0.010356 -0.045595 -0.016206 0.091194 -0.121991 -0.106725 0.071637 -0.096582 0.062479 0.067003 0.143598 -0.124305 0.043187 0.056598
0.093193 -0.057692 0.076783 -0.094569 -0.053025 0.065453 0.059149 0.054533 -0.094719 0.056831 0.093981 -0.011283 0.160161 0.073214 0.000007 0.036267 -0.098403 0.088863 0.000502 -0.101922 0.021710 0.119387 0.033696 -0.181186 0.066477 0.001857 -0.059048 0.080306 0.031288 -0.267077 0.014355 0.055454 0.067281 0.169240 0.029539 -0.044909 -0.035679 0.049015 -0.179695 0.201902 -0.110594 -0.185480 0.015603 0.006773 0.056862 -0.008712 0.025687 -0.005354 0.105746 -0.066848 -0.134208 -0.031296 -0.176462 0.131289 -0.139855 0.033535 0.039610 0.226462 -0.188062 -0.006812 0.021046 0.070444 0.125131 0.011895 0.055468 -0.030596 0.106950 0.018958 -0.049301 -0.110870 -0.010785 -0.062822 0.272728 -0.109914 -0.098939 -0.131868 0.065645 -0.006462 -0.116005 0.098340 0.063107 -0.013661 0.199956 -0.127321 0.126108 -0.059640 -0.089918 -0.039452 -0.011346 0.296670 0.009308 0.066646 0.020783 0.147407 -0.097163 0.047563 -0.212656 0.119815 0.159348 -0.124611
-0.034105 0.038567 -0.016586 0.072977 0.047136 -0.122762 0.028433 0.159483 0.021246 -0.066912 0.078246 -0.092068 -0.063206 -0.113575 -0.116398 0.030997 -0.111654 0.099654 -0.046839 0.136281 -0.145932 0.069275 0.022686 0.090188 -0.126323 0.134800 0.066959 0.000384 0.121689 -0.111644 0.019669 0.075500 -0.070674 -0.190819 0.115272 0.134588 0.155701 -0.231914 0.302020 -0.027368 -0.102895 0.012751 0.065704 0.086112 0.026949 -0.190845 -0.017664 0.094802 -0.128015 -0.016635 -0.035051 0.141271 0.132285 -0.227583 -0.126067 -0.022275 -0.150137 0.006495 -0.042859 -0.071249 -0.161963 -0.074812 -0.137047 -0.278415 0.023329 0.129260 -0.148427 -0.162665 -0.204105 0.110989 -0.009598 0.157634 -0.117806 -0.032429 -0.013747 0.065366 0.025854 0.041772 -0.084147 -0.040005 -0.050672 -0.174231 -0.109684 0.106343 0.064073 -0.060777 0.018211 -0.121242 -0.050617 -0.194823 0.173805 0.055992 -0.118645 0.026774 0.010947 -0.088641 0.032678 -0.015703 -0.142233 -0.063574
-0.114296 -0.060007 -0.003422 0.032856 -0.022767 -0.059615 -0.071426 0.039971 -0.124454 -0.234835 0.012549 0.111209 -0.146449 -0.037439 0.017929 0.102514 -0.079220 -0.054870 -0.119068 -0.094870 -0.094832 0.018814 -0.148986 0.051768 -0.139441 -0.026927 0.117623 -0.078826 -0.017917 -0.034665 0.037994 -0.107099 0.067901 -0.034954 0.052838 -0.078404 0.011578 0.059422 -0.040060 -0.135183 -0.123436 0.046726 -0.124524 -0.053072 0.012572 -0.140386 -0.000841 -0.059979 -0.131287 -0.011800 -0.109728 -0.106716 -0.156331 -0.151573 -0.120623 -0.062572 -0.087576 0.078509 0.039471 -0.180020 -0.012495 -0.071435 0.081814 -0.173423 -0.009945 0.115291 -0.075260 0.041774 0.039963 0.070949 -0.190822 0.012338 0.015770 -0.155412 -0.213167 -0.041178 -0.033620 -0.145552 0.109311 -0.151335 0.046274 -0.179156 -0.022325 0.041895 -0.049187 0.053697 -0.045858 -0.082953 -0.149951 0.028942 0.028568 0.029967 -0.000226 0.037698 0.000476 -0.167620 0.017311 0.049245 -0.046407 -0.021166
-0.116352 -0.018208 -0.099879 0.048776 -0.245086 -0.078364 -0.132022 -0.005981 -0.052003 -0.071964 -0.101921 -0.138203 0.154288 -0.048586 -0.031985 0.078938 -0.117246 -0.042056 0.091584 0.075347 -0.202008 0.005683 0.014404 0.029443 -0.096852 0.073754 -0.067765 -0.138590 0.008352 -0.051727 0.068540 0.172552 -0.130070 -0.119927 0.095030 0.142881 0.088753 0.032500 -0.052984 -0.071423 -0.006561 -0.113227 0.030502 -0.154062 -0.118882 -0.138520 0.102288 0.084847 -0.082097 -0.003805 -0.133037 -0.032045 0.069275 -0.138339 0.127834 0.024074 -0.011603 0.003076 0.004984 -0.041899 -0.125462 -0.105952 -0.115503 0.040646 0.085745 -0.007719 -0.121965 -0.016367 -0.042074 -0.166057 -0.092430 0.047071 0.142887 0.141647 0.109690 -0.046983 0.044373 0.000090 -0.115040 0.058146 0.039333 -0.074965 -0.077447 -0.109856 0.023839 -0.196681 0.088414 -0.176366 -0.120355 -0.173549 -0.003227 0.056698 0.076441 -0.106280 -0.017729 0.107093 -0.072423 -0.055574 -0.026344 -0.074554
-0.080426 0.169148 -0.081408 0.145860 0.054593 0.089643 -0.071676 0.033827 0.085091 0.039438 -0.003474 0.157414 0.071379 -0.014569 0.033624 -0.006729 0.033810 -0.086058 -0.051474 -0.064435 -0.026011 0.074057 -0.081703 -0.072449 0.009208 -0.171389 0.089669 0.065144 -0.067208 0.021099 -0.055964 -0.073299 0.073402 -0.099475 0.102555 -0.003489 -0.197285 0.143747 -0.053314 -0.009602 0.114235 -0.157807 -0.091500 -0.143816 -0.017760 -0.137745 -0.019616 0.112201 -0.072837 0.198488 -0.006745 -0.044789 -0.024444 0.038226 0.160987 0.031471 -0.116697 -0.046247 -0.081856 0.050444 -0.048142 0.004115 -0.131467 0.015000 -0.036324 -0.142479 0.003192 -0.068567 0.073701 -0.067327 0.206922 0.079547 -0.083480 -0.009737 0.028786 0.001329 -0.118440 -0.000000 0.096314 0.114229 -0.081883 -0.064216 -0.110625 -0.031345 0.068092 0.056993 -0.121821 0.093337 -0.146761 -0.105518 0.033580 -0.006528 -0.106378 0.002297 0.125650 -0.003750 -0.105020 -0.050205 0.132589 -0.129856
-0.112317 -0.067744 -0.005877 -0.017737 -0.012116 0.100184 -0.143739 -0.003783 -0.124916 0.052668 0.036758 -0.123314 0.054479 -0.133221 -0.061466 -0.063160 0.026438 -0.064952 -0.070319 0.119558 -0.096205 -0.016939 -0.103347 -0.014399 0.036103 0.138867 0.036098 -0.008206 0.018802 0.088884 0.152062 0.065750 -0.160145 0.006824 -0.011142 -0.175443 0.082931 -0.193433 -0.081699 -0.068154 0.091649 -0.217006 -0.062057 -0.023241 0.052515 0.018074 -0.076138 -0.127190 -0.033319 -0.020611 -0.106109 -0.211766 0.111523 -0.110174 -0.064221 0.095616 -0.005011 0.082533 -0.073477 0.066852 -0.022450 -0.082599 0.103827 -0.207257 -0.118028 0.014820 0.126430 0.099491 0.027485 -0.170954 -0.114843 -0.000652 0.014015 -0.026181 -0.098869 0.105883 -0.125920 -0.047132 0.016670 -0.146704 -0.185687 -0.151739 0.022407 0.059055 0.076892 -0.000999 0.022966 -0.200274 0.000720 0.036354 -0.027311 -0.055714 -0.182203 -0.088711 0.003566 -0.125740 0.115710 0.024546 -0.006674 0.017227
-0.120334 -0.201361 -0.086691 0.117809 -0.214541 -0.122196 0.004456 0.118302 -0.076289 -0.071222 0.019573 -0.023708 0.138051 0.074403 0.020405 -0.108928 -0.028783 0.073914 0.008031 0.048462 -0.082331 -0.026987 -0.020649 0.044916 -0.077557 0.097173 -0.076948 -0.008416 0.017285 0.091196 0.146596 -0.064377 0.199569 0.129282 -0.058269 -0.164698 0.084371 -0.172291 0.143070 -0.093875 -0.023884 0.039175 0.127043 0.092967 0.092238 -0.040757 -0.171841 0.096636 0.147082 -0.038996 -0.045533 -0.018641 -0.076757 -0.003636 0.017913 -0.132723 0.006069 -0.008708 0.036529 0.100851 -0.151617 0.083881 0.169794 0.085791 0.027602 -0.026973 -0.028649 0.069632 0.114819 0.076097 0.044929 -0.058797 0.025667 -0.005462 -0.086553 -0.013824 -0.087940 0.135127 0.001483 -0.033826 -0.106715 0.055312 0.092273 -0.109307 -0.090685 0.062824 0.070226 -0.132697 -0.118321 -0.010321 0.111272 -0.008556 -0.072067 0.026530 0.126463 0.091204 -0.004012 0.081173 0.028148 0.029764
-0.085781 0.000190 0.043930 -0.137493 0.038624 -0.058762 -0.157271 0.010207 -0.125542 -0.080380 0.162724 -0.020632 0.017709 -0.033029 -0.144507 0.029236 0.027115 0.091612 0.173538 -0.215687 0.208639 0.115311 -0.110699 -0.078982 -0.024551 0.010573 -0.035832 -0.090433 0.007293 0.054086 -0.032153 -0.117663 0.016853 -0.033818 0.002724 -0.114337 0.052295 0.102182 -0.234728 0.096765 -0.056526 0.076655 0.081987 -0.119304 0.134077 -0.036285 0.075792 -0.081976 0.056271 -0.113514 -0.127252 -0.109444 0.106652 -0.047993 0.109457 -0.199552 0.011595 0.004313 0.018257 -0.013085 -0.046884 -0.137589 0.022030 0.003032 -0.116854 0.048957 -0.105719 -0.186352 0.073739 -0.007501 0.039970 0.033820 0.048962 -0.174988 -0.104701 0.025530 -0.016440 0.048016 0.045192 -0.170795 0.083000 0.023323 -0.056524 -0.040567 0.115840 0.105352 -0.041171 0.000100 -0.054802 0.077529 -0.180516 -0.222132 -0.019683 0.104564 -0.131555 0.027834 -0.157692 0.098388 -0.185061 -0.051814
-0.025128 0.031467 -0.095861 -0.102975 0.000000 0.022432 -0.055118 -0.121235 0.021220 -0.036420 -0.178091 -0.134833 -0.142694 0.033979 -0.057903 -0.165013 0.030346 -0.062366 -0.117008 -0.130583 -0.024448 0.076873 0.006350 -0.033923 0.091756 -0.142761 0.039265 0.046280 0.014326 0.024354 -0.008622 -0.107910 0.138124 0.086586 0.031242 0.103992 0.021353 -0.007792 -0.040603 -0.020810 -0.198284 0.102405 0.005908 -0.143471 -0.080236 -0.081912 -0.109739 0.123667 -0.029957 0.073727 0.036135 -0.052734 0.124248 -0.004947 -0.020388 0.039753 -0.003702 0.100643 -0.140900 0.017396 0.029805 -0.052626 -0.032912 0.158042 -0.186342 0.003589 -0.132393 0.019324 0.020866 0.052960 -0.046786 0.232751 0.036661 -0.033263 -0.012204 -0.038619 0.015315 -0.000000 0.103614 0.011201 0.091066 0.053592 -0.160912 0.061655 -0.171134 0.096453 -0.089110 -0.130959 -0.039552 -0.042043 0.159027 -0.004384 -0.023496 0.125920 0.014904 -0.003058 0.026420 0.037947 -0.017919 0.056496
0.015178 -0.002304 0.083712 0.081602 -0.059836 -0.052322 0.120659 -0.043710 0.068929 0.103391 0.071577 -0.189577 -0.183233 -0.137918 0.035160 0.000615 0.067574 0.078094 0.158794 -0.090861 0.100384 0.028244 -0.023920 0.033003 0.019705 -0.129981 0.081111 -0.004879 0.073915 -0.229069 0.062384 0.148817 -0.157619 -0.070256 -0.042349 0.176277 -0.013647 -0.153394 0.004879 -0.132153 -0.224615 0.147643 0.043771 -0.067512 -0.048225 -0.076258 0.022365 -0.016090 -0.142768 -0.158519 0.021850 -0.022544 0.068667 -0.086971 0.066023 -0.102427 0.032660 0.003835 0.057850 -0.019341 0.032895 0.002011 -0.176103 -0.140056 0.059544 -0.063766 -0.148798 -0.120634 0.075102 -0.109824 0.085103 0.099440 -0.009009 0.004693 -0.027114 0.053794 -0.048320 -0.056455 0.018446 0.025246 -0.078136 0.062803 0.129828 0.081812 -0.079646 0.044947 -0.105848 -0.051476 -0.078795 -0.119805 0.085509 -0.157753 -0.162181 0.095883 0.137296 0.064755 -0.029702 0.153313 0.053141 -0.141505
0.082577 -0.143873 0.069264 0.104219 -0.086044 -0.006713 -0.057228 0.112176 0.130237 -0.094762 0.053760 -0.079626 0.029776 0.067674 0.020166 -0.046171 0.022605 -0.070371 -0.058720 -0.015983 -0.102975 0.122028 -0.056755 -0.091848 -0.072809 0.144331 -0.046955 -0.042535 -0.021252 0.013023 -0.042361 -0.016107 -0.128498 -0.109158 -0.079580 -0.116461 -0.100584 0.064190 -0.000233 0.058234 0.011870 0.010234 -0.056275 0.020297 0.113226 -0.009922 0.077426 0.031165 -0.062537 -0.082787 0.065518 0.021574 0.096794 -0.100961 -0.027377 0.141014 -0.058939 -0.060017 -0.062560 0.051403 0.114495 -0.038846 -0.027379 -0.099239 -0.056016 -0.051536 0.019760 -0.028065 0.104226 0.064815 0.126689 0.127224 -0.063066 0.020837 0.075584 -0.013082 -0.046582 0.036557 0.073238 -0.066393 0.048238 0.061787 -0.037020 0.020813 0.095190 0.028680 -0.070005 -0.016305 -0.043441 0.141413 -0.126922 0.036677 -0.097431 0.094853 -0.048247 -0.114437 -0.073423 0.064178 0.048375 -0.024317
0.048157 -0.094902 0.030981 -0.086811 -0.043643 -0.115947 -0.154500 -0.031382 -0.099622 0.089905 0.059926 0.117357 -0.081234 -0.089804 -0.035158 -0.058099 0.038645 0.023095 0.146328 -0.078571 -0.032690 -0.105688 -0.067774 -0.107706 -0.049528 0.193041 -0.129292 0.026636 -0.183424 0.087949 -0.033117 -0.178821 -0.039013 -0.083019 0.142426 0.126863 0.088994 -0.115593 -0.049201 -0.081774 0.077490 -0.023666 0.112045 0.029664 -0.045051 -0.032484 -0.125861 0.123823 -0.089273 0.088017 -0.093499 0.030074 -0.025219 -0.073722 0.041441 -0.045783 0.005216 -0.110372 -0.039628 -0.117505 -0.150739 0.029070 0.213181 -0.173005 -0.016834 -0.010737 0.070791 -0.134009 -0.146891 -0.044806 -0.037210 -0.132448 -0.002144 0.098764 -0.083682 -0.070238 -0.071394 0.036457 0.122815 -0.113975 0.134743 0.067012 0.099955 -0.010049 0.010368 -0.000120 -0.090373 -0.019333 -0.017240 0.011639 0.061863 0.029622 -0.055384 -0.168177 -0.033324 -0.019972 0.000982 -0.105583 -0.075154 0.135710
-0.063043 -0.160251 -0.102300 -0.140415 0.090219 -0.108089 -0.148844 0.032737 0.158074 -0.025164 -0.266723 -0.150818 0.233945 -0.103249 -0.102648 -0.043506 0.100355 0.098481 -0.254314 -0.099221 0.022009 -0.040721 -0.070113 0.049014 -0.076912 -0.041224 -0.104822 0.080841 0.045074 -0.067117 -0.101664 -0.011020 0.136966 0.018478 -0.116216 -0.030385 0.082487 -0.093939 -0.090039 0.128817 0.023384 -0.062340 0.084158 -0.059934 -0.020493 -0.104033 -0.210654 -0.055563 0.009785 -0.058020 -0.112039 -0.130710 0.132807 -0.035724 -0.057561 -0.087606 -0.165024 -0.047679 0.100497 0.190614 -0.032122 0.060099 -0.232692 -0.028571 -0.142269 -0.044732 0.037463 -0.231013 0.083763 -0.131803 -0.223775 0.068117 -0.093118 -0.080085 0.089381 -0.112201 0.002948 -0.000671 -0.029851 -0.013270 0.036412 -0.078216 -0.123491 -0.028889 0.073485 0.156506 0.095492 0.074436 -0.090590 -0.019995 -0.137225 0.025261 0.027570 -0.126784 0.003352 -0.093505 -0.142466 0.126028 -0.186601 -0.174982
0.015796 -0.052816 -0.046156 -0.183514 -0.118689 -0.013447 -0.093720 0.109567 0.044147 0.237557 0.099327 -0.044273 -0.113628 0.067316 -0.030920 -0.150508 0.034037 -0.050159 0.102849 0.063841 -0.053142 -0.016760 -0.001024 0.042353 -0.215065 0.001953 -0.094897 0.004388 0.156874 -0.107913 0.100943 0.028403 0.017838 -0.066769 0.012308 -0.112575 0.192689 -0.036471 -0.022228 0.038180 0.091733 -0.139047 0.054505 -0.107639 0.036168 0.052013 -0.197926 -0.111840 -0.192180 -0.020564 -0.030456 -0.166494 -0.100340 0.043220 -0.091455 -0.020133 -0.148791 -0.127359 -0.118649 -0.108910 0.065035 0.106980 0.059456 -0.025902 -0.017862 -0.008542 0.124405 -0.068352 -0.189266 -0.080522 0.073501 -0.055937 0.011775 -0.098267 0.060195 -0.098991 -0.108753 0.033339 0.003090 -0.093146 -0.052972 0.012747 -0.106968 -0.199639 -0.016088 -0.156950 -0.163148 -0.033340 -0.204257 -0.134663 -0.046738 -0.069774 -0.117037 -0.160565 0.149195 -0.047252 0.007451 -0.065112 0.195689 0.134573
-0.034939 -0.127090 0.110958 -0.136933 0.131834 -0.152655 -0.161019 -0.070656 0.009457 -0.097799 0.195850 0.102439 0.020850 -0.042798 -0.079447 -0.054539 0.018501 -0.087008 -0.224878 -0.227822 -0.103926 -0.041740 -0.029495 0.001465 -0.036420 0.004475 0.198841 -0.160015 0.076082 -0.061437 0.180979 0.053048 0.157442 0.054856 0.047442 -0.112244 -0.036190 -0.067162 -0.177945 -0.139449 0.034735 -0.080078 0.006464 0.032217 0.033070 -0.047037 -0.069549 0.069363 -0.108017 0.115518 0.056897 0.107777 -0.010916 0.181870 -0.229573 0.034847 -0.156211 -0.143082 -0.029755 -0.034390 0.026645 -0.099201 0.103719 -0.083500 -0.071543 0.049553 -0.310310 0.065627 -0.016271 0.018869 -0.144402 -0.031430 0.089839 -0.121884 -0.025520 -0.096998 0.027091 -0.103613 -0.024770 -0.035161 0.043991 -0.087634 -0.101718 -0.068995 -0.200522 0.093765 -0.036356 0.025568 -0.125762 0.112583 -0.172670 -0.160674 0.071737 0.019056 0.012538 -0.110610 0.059697 -0.004133 -0.196075 0.071108
-0.069803 0.035965 0.146610 0.074314 -0.175114 -0.242583 -0.037683 -0.054570 -0.158947 -0.036214 0.042735 -0.274150 -0.089250 -0.014729 -0.098364 0.071396 -0.064954 -0.055472 -0.142507 -0.092539 -0.069734 -0.069849 -0.085193 0.031364 0.065159 -0.007101 -0.070048 -0.185380 -0.095911 0.098020 -0.112032 -0.046067 -0.111953 -0.028444 -0.113114 0.069298 0.066670 -0.098864 -0.031683 -0.021063 -0.316359 0.041412 0.173983 -0.115678 0.067224 0.051211 -0.111438 -0.010546 -0.188199 -0.047989 -0.088374 -0.021113 -0.050098 -0.072552 0.001232 -0.014091 0.060062 -0.094552 -0.125742 -0.061873 -0.043802 -0.171161 0.116212 -0.062191 -0.213458 0.029403 -0.080195 -0.070012 -0.025662 -0.020410 -0.099152 -0.016801 0.104110 0.047024 0.053852 -0.093573 -0.158886 -0.004730 -0.003697 0.009201 0.064422 -0.176779 0.053016 -0.157950 -0.053543 0.025295 -0.019620 -0.064934 0.093106 -0.017900 0.086289 0.133749 -0.139287 0.046320 -0.107753 -0.102723 -0.017008 0.004806 -0.064430 -0.008788
-0.149884 -0.069208 -0.002069 -0.080375 -0.209201 -0.085639 -0.113182 0.037761 0.013301 0.062563 0.126627 -0.004422 -0.096688 -0.069711 0.040095 0.019078 -0.100848 0.015984 -0.117338 0.083350 -0.190960 -0.099683 -0.042358 -0.020015 -0.068100 -0.085065 -0.057015 0.091956 0.161879 0.044416 0.093418 0.018296 0.070665 0.033900 -0.078293 -0.092742 -0.026185 -0.083395 0.071077 0.013934 -0.076138 -0.055342 0.022345 -0.131233 -0.023724 -0.037599 -0.127791 0.031384 -0.054318 0.007074 0.121418 0.046664 0.002174 -0.078784 0.038070 0.059900 -0.213024 0.050811 -0.124301 0.033776 0.117953 0.175043 -0.035647 -0.000729 -0.062544 -0.216360 -0.149307 0.069756 0.017799 0.024852 -0.076444 0.144918 -0.106789 -0.058746 -0.143668 0.099810 0.051734 -0.107405 -0.148709 0.015763 0.043664 0.076666 -0.021381 -0.036668 0.085211 0.023156 -0.078887 -0.084079 -0.015641 0.081714 0.077419 -0.035531 0.023865 -0.015306 0.007462 -0.089812 -0.102490 -0.007499 -0.085527 -0.184976
-0.169495 0.180771 -0.102771 -0.045489 -0.110605 -0.075058 0.057440 0.084433 -0.114710 0.107082 -0.141372 0.023818 -0.012255 -0.020829 -0.005887 -0.031455 -0.019291 -0.017235 0.054523 -0.168298 0.013360 -0.067919 0.002305 -0.075275 -0.030593 -0.097554 -0.006042 -0.036176 -0.072258 0.067875 0.069592 -0.018047 -0.113276 0.037663 0.086906 0.040853 -0.002689 -0.062110 -0.110349 -0.058126 -0.197694 -0.199230 -0.081409 -0.101329 -0.070633 -0.143652 -0.041730 -0.108714 -0.093427 -0.013971 0.083529 0.109558 0.006393 -0.011688 -0.080274 -0.048930 -0.192051 -0.150093 -0.152761 0.118516 -0.124243 0.008947 -0.003796 -0.169897 0.005553 0.068792 -0.024025 0.101957 -0.102230 -0.091640 -0.034243 0.113764 0.087869 0.003892 0.136694 0.098247 -0.054714 -0.128352 -0.002624 -0.015953 0.009060 -0.053184 -0.011511 -0.117050 0.023919 0.060397 0.067560 -0.042352 -0.138019 -0.015472 -0.008044 -0.026264 -0.109805 0.094559 -0.026424 0.079276 0.063426 -0.165499 0.058044 -0.076658
-0.016625 -0.114721 0.077349 0.020234 -0.030147 0.106615 0.020818 0.065887 0.099920 -0.094333 0.182454 0.166267 0.030964 0.054871 0.058442 -0.043023 -0.006831 -0.067520 0.192687 0.058647 0.108240 0.045492 0.094559 0.008491 0.182748 -0.004579 -0.187236 0.154367 0.019268 -0.025856 -0.182908 -0.003030 0.138219 0.019145 0.073790 -0.005460 -0.120762 0.020074 0.043936 -0.040997 0.113921 0.099010 -0.082047 0.054513 -0.020686 -0.026879 0.108062 0.133618 0.014931 -0.037641 0.048189 -0.056536 0.150050 0.261123 0.052568 -0.143021 -0.046464 -0.005109 -0.080408 0.068032 0.062555 -0.128085 -0.136793 0.083432 -0.137696 0.069677 -0.009546 0.034009 0.177428 -0.124068 0.154943 0.031655 0.153147 0.099652 -0.116208 0.088724 -0.089840 0.092120 -0.113914 -0.002500 0.101100 0.140570 0.011489 -0.134888 0.023468 -0.033674 0.023851 -0.059658 0.096232 0.033665 -0.029229 0.077795 0.055052 -0.026191 -0.026642 -0.068085 0.084356 -0.131819 -0.017024 -0.031423
-0.073129 0.027770 0.032926 -0.139328 -0.250119 0.074592 -0.183236 -0.136098 0.091943 -0.185531 -0.141677 -0.101973 -0.114058 0.102698 -0.095621 0.081378 -0.135789 0.030298 -0.068218 -0.136082 -0.252786 0.070208 -0.157312 -0.090216 -0.158878 -0.200015 -0.014433 0.066667 -0.142194 0.015714 0.006507 0.064978 -0.053276 -0.071421 -0.070560 0.056093 -0.010331 -0.005784 -0.192894 -0.091548 -0.051524 -0.046346 -0.000236 -0.197523 0.032142 0.016214 -0.170240 -0.159682 -0.039690 0.000770 0.002122 -0.020274 0.119482 -0.226526 0.059215 -0.111087 -0.009391 0.017785 0.119455 0.122854 0.109132 -0.206506 0.180328 -0.114726 -0.018978 0.064554 -0.005024 0.152275 0.120669 -0.073086 -0.122911 0.124399 -0.087165 -0.128365 0.041056 0.116000 -0.069875 0.082663 0.031088 0.013360 0.109015 0.079671 -0.071207 0.027864 0.145060 0.065128 0.080681 -0.087667 0.009605 0.119723 -0.077052 0.215186 0.007237 0.024642 0.075979 -0.073683 0.079415 0.024361 -0.019049 -0.119711
0.009560 0.074854 -0.009730 0.078410 0.033569 -0.051441 -0.229349 -0.072990 -0.105693 0.105017 0.129007 -0.061044 0.115463 -0.069087 -0.070885 0.046227 -0.008785 0.105457 -0.095446 -0.152269 0.033933 0.052879 -0.029824 0.156897 0.069183 0.081944 -0.024545 -0.083508 -0.199886 -0.082026 -0.098478 -0.007396 -0.052735 0.027499 -0.041337 0.033933 0.004160 -0.048890 -0.046974 0.094842 -0.020423 0.242901 0.114260 -0.096121 -0.108106 -0.079664 0.053636 -0.089624 0.052610 -0.032978 0.011995 -0.045198 0.030391 -0.118776 -0.131148 -0.069266 0.015300 0.079594 0.005701 -0.016863 -0.029026 -0.280631 0.074561 -0.013965 -0.038193 -0.017540 -0.137110 -0.057519 0.078507 -0.110934 -0.086526 0.128544 0.013093 0.038223 0.011320 0.107607 -0.113049 0.051549 0.048669 0.026754 -0.094666 -0.002595 -0.123539 -0.017713 -0.059560 -0.044155 -0.049642 -0.107600 -0.181478 -0.035349 0.105885 0.057162 0.091678 -0.067923 -0.071368 -0.017727 -0.117222 0.035622 0.004553 -0.040753
0.051903 0.020753 0.004637 0.043885 -0.143237 -0.065810 -0.132928 0.043335 0.107272 -0.145574 -0.061894 -0.026735 0.013729 -0.059220 -0.007006 -0.012134 -0.075406 0.046860 0.050894 -0.086174 0.006277 -0.031444 -0.034742 -0.021381 -0.123985 0.092336 -0.197673 -0.134176 -0.036793 -0.014782 -0.223670 -0.147217 0.059235 -0.023377 0.002785 -0.067942 0.113109 -0.167780 -0.197875 0.038046 0.103887 0.054089 0.142087 0.082765 -0.066920 0.052338 0.084695 -0.088277 -0.082518 -0.080525 -0.052561 0.024377 -0.192483 -0.159565 0.096994 -0.094448 -0.030850 0.068322 0.054316 0.071708 0.036926 -0.111635 0.030350 0.005226 0.087179 0.115270 -0.119733 -0.074771 0.064516 -0.125959 0.043568 -0.091576 0.218290 -0.112856 -0.170338 -0.272537 -0.105653 0.154427 -0.056545 -0.020985 -0.082188 -0.091495 0.109296 0.032276 -0.067863 -0.149046 -0.094125 -0.186566 0.051254 0.094887 -0.092832 -0.042587 -0.066821 0.001105 0.104317 -0.122470 0.009793 -0.193719 -0.090976 -0.133920
-0.001716 -0.015563 -0.051371 0.094193 -0.011066 0.062301 0.040190 0.120269 0.107019 -0.124085 0.055047 -0.063195 0.043319 0.040459 0.011130 0.104744 -0.108576 -0.047454 -0.066789 -0.143836 0.084301 0.005992 0.075010 -0.131916 0.028135 0.108009 0.136559 -0.077533 0.047253 -0.100566 -0.091286 0.108026 0.059788 0.057187 0.089591 0.054625 -0.050134 0.030618 0.150095 -0.007536 0.083205 0.112304 -0.090424 0.077965 0.097793 -0.038875 0.017812 -0.093222 -0.023519 0.088711 0.034521 0.067744 -0.101813 -0.000000 0.119891 -0.014393 0.033430 -0.067188 -0.072000 0.121982 0.113049 0.035872 -0.029349 -0.023856 -0.010057 0.006639 -0.030715 0.034345 -0.182968 -0.080745 -0.062677 0.013476 0.112676 -0.030358 -0.035906 -0.131988 -0.087479 0.000000 0.009909 0.146763 -0.070782 0.009154 -0.030466 -0.075484 0.062497 0.019786 0.070755 -0.004874 0.103757 0.001173 0.112469 0.086503 0.023881 -0.038485 -0.003841 0.005561 0.124665 0.040402 0.171830 -0.017386
0.098137 -0.105698 -0.072469 0.080698 0.097094 -0.111743 0.025672 -0.142983 0.050048 -0.070434 -0.106513 -0.143809 -0.066835 -0.071089 -0.130444 0.065176 0.022526 0.107317 0.030285 0.026181 -0.119728 0.000238 -0.106255 -0.125263 -0.194656 0.094355 0.110028 0.124935 0.114218 -0.212738 0.227346 0.058093 -0.113051 0.060046 -0.139448 -0.088887 -0.041261 0.122444 -0.019580 -0.017698 -0.053639 -0.218724 -0.069176 -0.054056 -0.068524 -0.081534 -0.109109 0.070129 0.031222 0.069649 -0.043942 -0.098751 -0.038309 0.059270 0.176103 0.049427 -0.120241 -0.162180 -0.203982 0.022689 -0.085585 0.008790 0.130084 -0.105223 -0.001369 0.138975 -0.113638 0.103481 -0.063380 -0.116963 -0.076617 -0.087856 -0.271975 0.216930 0.037567 0.023276 0.033741 0.037973 -0.004510 0.137129 0.086257 -0.162103 -0.037794 0.059289 -0.034463 -0.163792 0.141602 0.022767 -0.107412 -0.093591 -0.116671 0.040138 -0.007344 -0.007952 0.043661 -0.099604 0.128711 0.040470 -0.045005 -0.091155
-0.032714 0.188765 0.104084 0.043063 0.026054 0.120611 0.037477 -0.020244 -0.125768 0.076082 -0.042382 0.053990 0.077149 -0.022699 0.030812 -0.096062 -0.031667 -0.075823 -0.026852 -0.086043 0.138355 -0.072439 0.080156 -0.141515 0.096545 0.052709 -0.065686 0.006984 0.118298 -0.063876 0.183932 -0.134041 -0.124996 -0.089488 -0.045042 -0.058843 -0.141909 0.031055 0.017881 0.206759 0.037119 -0.007555 0.126922 0.047128 -0.050372 0.092357 0.059029 0.088808 -0.014462 0.072930 -0.046725 -0.110302 -0.005752 0.060957 0.145074 0.075106 -0.076302 -0.112626 -0.090259 0.031730 -0.040796 0.071660 -0.082911 -0.109536 0.034041 0.070166 0.115041 -0.041332 0.033891 0.056915 0.024290 0.014428 0.105219 -0.012564 -0.089033 0.095062 0.086310 -0.003812 -0.018784 0.101768 -0.012998 0.092976 0.005119 -0.007524 0.127534 0.102389 0.175373 0.004257 -0.054781 0.051508 -0.070740 -0.086554 -0.037153 -0.040601 0.030872 0.031280 -0.046986 0.049486 0.177955 -0.105794
-0.035346 -0.021547 0.031231 0.063880 0.001704 -0.197829 0.004482 -0.001619 0.033721 -0.040013 0.113079 -0.105009 -0.025759 -0.092934 0.041627 0.048876 -0.146970 -0.111931 0.011223 -0.095269 -0.173122 -0.041145 -0.029086 0.043199 -0.169508 -0.003900 0.009935 -0.148129 0.098607 0.054678 0.079835 -0.124151 0.078272 -0.050101 -0.147579 -0.143115 0.006225 -0.198420 0.048088 0.089779 0.079016 0.036914 -0.071555 -0.167194 -0.131522 -0.114207 -0.130795 -0.037004 -0.038881 -0.009066 -0.141806 -0.131014 -0.026335 -0.051064 0.027100 0.018222 0.076301 0.072239 -0.023390 -0.186371 0.016295 -0.164424 0.037583 0.120627 0.118698 -0.134431 -0.009900 0.020705 0.163643 -0.031236 -0.029534 -0.030808 -0.150440 0.018724 -0.038298 -0.113889 -0.046004 -0.249410 -0.097376 -0.162314 -0.097957 -0.160845 0.032813 0.032280 0.051840 -0.184628 0.100929 -0.023176 0.012649 -0.030097 0.096044 0.098378 -0.153408 0.065477 0.063921 -0.131907 0.084924 -0.015990 -0.103869 -0.080780
-0.163714 -0.223254 0.145849 -0.091207 -0.035657 -0.106627 0.070127 -0.121103 0.008274 0.065603 0.098920 -0.137266 -0.087693 -0.055195 0.021301 0.010106 -0.031583 -0.032641 -0.073871 -0.111017 -0.176747 -0.141345 -0.062847 -0.182057 -0.082083 0.102379 -0.076172 -0.053459 -0.210801 -0.103755 -0.032896 -0.323649 0.116707 -0.125096 0.079630 0.033736 0.075553 -0.001185 -0.063646 0.179392 0.054950 -0.028367 -0.134169 -0.017617 0.032575 -0.126973 -0.208484 -0.077834 -0.161243 0.033134 0.035185 -0.146757 -0.062885 -0.137558 -0.233084 0.022762 -0.027218 -0.149254 -0.044657 0.014780 0.041387 -0.126068 0.098674 -0.070884 0.007686 0.102768 0.078434 -0.017435 -0.077991 0.081290 0.022750 -0.135425 0.047563 0.082152 0.173581 0.096221 0.068602 -0.099512 -0.146663 -0.131781 -0.100857 -0.114869 -0.083743 -0.038440 -0.125693 -0.171732 -0.113644 -0.121295 0.014752 -0.108256 0.010987 0.099626 0.100303 -0.044849 -0.124860 0.014650 -0.067298 0.117211 -0.051257 -0.044623
-0.014944 -0.067950 -0.069415 -0.104922 -0.113093 -0.098969 -0.230036 0.051373 -0.123896 -0.210478 0.055882 0.070973 0.045667 -0.047405 -0.077585 0.086263 -0.110553 -0.107791 -0.066281 -0.047492 0.060571 -0.215094 -0.117978 -0.047700 0.019072 0.101748 0.076559 -0.050918 0.015475 -0.044327 0.094203 0.030577 0.144837 -0.133004 -0.007344 0.148935 0.108487 0.104593 0.018709 -0.088355 -0.231300 0.016678 -0.022899 -0.041307 -0.009973 -0.050442 0.084656 -0.040400 -0.069242 -0.073788 -0.066970 0.033061 0.130460 0.011408 0.027692 -0.047334 0.026907 0.079678 0.097275 0.094974 0.013146 -0.162680 -0.044851 -0.105309 0.078493 0.002296 0.022246 0.141096 0.043389 -0.089873 -0.087374 0.076749 -0.120918 -0.045010 0.063513 0.064154 0.042702 -0.138482 -0.020756 -0.077132 -0.047830 -0.152015 -0.138955 0.033115 0.011292 -0.087261 0.055139 -0.189487 -0.090847 -0.004574 -0.135036 0.043336 -0.118546 0.108053 -0.100278 -0.001198 -0.130291 -0.076576 -0.086869 0.081984
-0.152290 -0.094883 -0.004304 -0.131029 -0.045058 -0.105585 -0.081932 -0.057764 0.029395 -0.120633 0.064903 -0.075845 0.093862 -0.078895 -0.018634 -0.038366 0.003625 -0.004256 0.015194 0.030564 -0.164140 -0.115486 -0.274645 0.026762 -0.017133 -0.182870 -0.070910 -0.133982 -0.019955 -0.227357 0.049706 -0.101654 -0.165788 -0.037889 -0.163120 -0.059775 0.112032 -0.136522 0.034902 0.003887 -0.135270 -0.039161 -0.019168 -0.256126 -0.081132 -0.175605 -0.021934 -0.229864 0.072417 -0.047107 -0.190455 -0.097840 -0.152752 -0.130466 -0.124834 0.028982 -0.245232 -0.012359 -0.024882 0.029686 -0.119529 -0.178455 0.031499 -0.163328 0.083275 -0.030850 -0.079708 -0.324297 0.072509 0.053915 0.074704 0.099190 -0.109617 0.153888 -0.234199 -0.159399 0.023282 -0.030460 -0.174812 -0.086862 -0.166529 0.098391 -0.068853 -0.059360 0.065562 -0.070735 -0.106951 -0.040627 -0.023256 0.054557 0.037085 -0.124768 -0.035577 -0.014778 -0.188260 -0.077667 0.084792 -0.097139 -0.085822 -0.159202
-0.046466 0.055296 0.067704 -0.039413 -0.110238 0.017108 0.060352 0.072768 0.020521 0.033820 0.165254 0.092686 -0.106475 0.030855 -0.083519 0.050879 0.043384 -0.140566 0.135653 -0.000210 0.055380 0.003180 0.070731 0.084444 0.097790 -0.128933 -0.055078 0.102170 0.187786 -0.029509 0.093858 0.006349 -0.023092 0.087926 0.075526 0.014227 -0.092206 -0.087319 -0.078131 -0.024905 0.127410 -0.012805 -0.084387 0.058809 -0.056093 -0.048123 0.038807 -0.134711 0.125477 -0.078171 -0.048497 0.072083 -0.131886 -0.145932 0.133189 0.083819 -0.037066 0.130440 -0.047077 0.136629 0.000137 -0.112149 0.090928 -0.136265 -0.111958 -0.175656 0.029696 0.132924 0.049907 0.024245 0.159845 0.002367 -0.122279 -0.171974 0.082374 -0.035277 -0.130755 0.045132 -0.057571 0.121055 -0.119171 -0.018668 -0.124156 0.050456 0.038577 -0.097913 -0.088046 0.018460 0.052015 0.072621 0.042828 -0.107417 -0.025522 0.054010 0.109510 0.076498 -0.115475 -0.122951 0.088573 -0.160663
0.085465 -0.091310 -0.015251 0.084176 0.042018 -0.128272 0.029969 0.083141 -0.177198 -0.042620 0.118664 0.133933 -0.035747 0.152669 0.093082 -0.018227 -0.068452 -0.137613 -0.053513 0.150099 -0.108675 0.117660 0.130525 -0.021766 0.147022 0.088413 0.249750 -0.081554 -0.085993 -0.075911 0.064877 0.061537 0.107713 0.051040 -0.143251 -0.059319 0.032206 -0.224864 -0.194131 0.012792 -0.128409 -0.171515 -0.025083 -0.009193 -0.046354 -0.050608 -0.065325 -0.104736 -0.206015 -0.152798 0.016643 0.056442 0.076177 -0.004344 -0.083518 0.049069 0.054680 -0.166637 -0.143823 0.000947 0.049329 -0.036738 0.009147 0.013096 -0.153529 -0.094648 -0.161547 0.077617 0.091778 0.090021 0.104070 -0.054699 0.034690 0.110700 0.058901 -0.116613 0.022063 0.007207 0.104515 -0.059039 -0.071493 0.008409 -0.145913 0.062940 -0.020533 0.157510 0.036554 -0.106058 -0.072381 0.048863 -0.094966 0.019095 -0.014370 -0.008935 0.090558 -0.008348 0.090079 -0.086434 0.010154 -0.049871
-0.120336 -0.104047 -0.061065 -0.191713 0.109089 -0.077113 -0.183411 -0.050309 0.037338 -0.111169 -0.145962 0.023906 -0.037044 -0.152021 -0.104336 0.015953 -0.167721 0.085730 0.097236 0.005040 -0.168904 -0.105145 0.056842 -0.039277 0.103062 0.021475 -0.151687 0.002373 0.023762 -0.032738 0.090706 -0.046282 -0.014901 -0.162883 0.060467 -0.144435 0.094551 -0.050037 0.026394 0.024262 0.019630 -0.174822 -0.182337 -0.045619 -0.034075 -0.209306 0.138817 -0.061597 -0.229568 -0.040635 0.000703 0.106269 -0.058466 -0.043632 -0.106621 0.213552 -0.076150 0.099569 0.135421 -0.014967 -0.054212 -0.110926 0.061486 -0.147800 0.046484 -0.037654 0.104314 -0.141763 0.003626 -0.164298 0.100556 0.079201 0.084300 -0.114500 -0.078787 -0.195581 -0.048411 0.023306 -0.214180 0.000625 -0.122223 0.006124 -0.024984 0.079280 0.057138 0.046999 -0.081189 -0.020964 0.001701 -0.038403 0.066048 0.124005 -0.061798 0.017079 0.099981 -0.100065 -0.117181 -0.036342 -0.043677 -0.002821
0.040809 -0.053743 0.017575 -0.124515 -0.095269 0.032138 0.101943 0.073506 -0.100161 -0.086880 0.128749 0.065617 -0.101973 -0.049481 -0.105723 -0.064699 0.028540 0.062722 0.128636 -0.016751 -0.091954 -0.092350 -0.125105 0.038765 0.176425 0.043382 0.050464 0.075720 -0.136931 0.226840 -0.157806 -0.345259 0.034137 0.088395 0.054860 -0.016354 -0.268612 -0.002189 -0.036502 0.153816 -0.071324 0.145816 0.100829 0.003158 -0.136010 -0.142477 0.207226 0.025935 0.044042 0.119688 0.030127 -0.011187 0.084824 -0.045706 0.029305 -0.091937 -0.005472 -0.133279 -0.122265 -0.071928 -0.026522 -0.081897 0.209385 0.112254 -0.059488 0.066605 0.164287 -0.155190 -0.055741 -0.068887 -0.226748 0.157134 -0.172920 0.072873 -0.032033 -0.205214 -0.101675 0.100836 0.027982 -0.132696 -0.201726 -0.152355 -0.155587 -0.139058 -0.193682 -0.072646 -0.089445 0.063530 -0.008566 0.006214 0.098339 -0.051776 0.072475 -0.033198 -0.031706 -0.105154 -0.093755 -0.156082 -0.029597 -0.063069
-0.076610 -0.073526 -0.127174 0.067526 -0.132345 0.061757 -0.232273 -0.184816 0.028645 0.021241 -0.133954 -0.150608 -0.147759 -0.140793 -0.177813 -0.003991 -0.226219 -0.169770 -0.068247 0.054147 -0.032770 -0.249341 -0.027910 -0.025681 0.100177 -0.101897 -0.112927 0.074571 0.006727 0.031810 -0.096895 0.051972 0.004953 -0.116175 -0.246835 -0.127869 -0.009659 -0.149496 -0.158290 -0.088920 0.008764 0.007962 -0.144440 -0.126314 -0.116196 -0.040963 -0.068575 -0.095893 -0.064524 -0.174350 -0.171188 -0.040044 0.033498 -0.170920 -0.107983 0.076241 -0.052427 -0.070830 -0.110274 -0.152386 -0.122340 0.065954 0.029559 -0.133606 -0.118691 -0.141472 -0.113790 -0.045975 0.074388 -0.117951 -0.153685 0.043822 -0.101274 0.105228 -0.158294 -0.072262 -0.102904 -0.041874 0.025852 -0.002115 -0.095280 0.090788 -0.082509 0.028185 0.106974 0.103056 -0.111373 -0.168555 -0.071141 -0.011878 -0.001320 -0.093960 -0.270803 -0.146474 -0.038481 -0.067711 -0.136874 -0.081953 -0.000730 -0.191398
-0.009145 -0.095187 -0.018920 0.028565 -0.011141 -0.046234 -0.008344 0.063484 0.034384 0.081974 -0.061668 0.064439 -0.063673 0.071191 -0.100945 -0.076036 0.055796 0.031811 -0.025787 0.190413 0.063951 -0.155078 -0.003728 -0.006398 0.058069 0.128248 -0.037345 0.073863 -0.147447 -0.139941 0.134322 0.043210 0.020707 0.085658 0.134166 0.108777 -0.015594 0.092644 0.057105 0.076374 0.017050 -0.078122 -0.083785 -0.006994 -0.096718 0.052193 -0.063759 0.046555 0.027410 0.132625 0.059001 0.096803 -0.047708 -0.058897 0.001325 0.019959 0.121144 0.135823 0.029879 0.188639 0.170083 -0.005082 -0.138795 -0.043391 0.041712 -0.062791 -0.016924 -0.222583 -0.050510 0.113076 -0.028100 -0.120244 -0.090560 0.075247 0.095147 -0.080786 -0.047534 -0.059450 -0.012740 0.093252 0.100334 0.027955 -0.073293 0.079536 0.082649 -0.199526 0.031138 0.036680 0.044209 -0.005433 0.136212 0.062463 0.134039 0.063268 0.003013 0.051463 -0.061457 -0.135696 0.136873 -0.142684
0.014157 0.081916 0.050025 0.071805 0.081235 0.167698 0.137077 0.006770 -0.154638 0.036415 -0.223871 0.059349 -0.119895 0.018511 0.016098 0.129018 0.039385 0.091533 0.179726 -0.056003 -0.178006 -0.046964 0.068259 -0.127177 0.069918 0.094000 -0.069584 -0.017433 -0.017384 -0.102231 0.151047 -0.249865 -0.250575 0.016270 0.163018 0.014379 -0.055450 -0.051634 0.003882 -0.034717 -0.148493 0.101551 0.072077 -0.021553 -0.001988 0.026374 -0.103068 0.084094 0.111798 -0.119355 0.115192 -0.025252 -0.125933 -0.046023 -0.185792 -0.191708 0.016944 0.019944 0.076060 -0.036124 -0.099177 0.089789 0.028651 -0.026318 0.063904 -0.095378 0.054858 0.149993 -0.002389 0.084717 -0.164497 0.001421 -0.136836 -0.347750 -0.113908 -0.180943 -0.056254 0.009576 0.032625 -0.026648 0.104210 -0.146714 -0.057937 -0.027294 0.104987 -0.238510 0.116384 -0.127869 -0.035452 -0.065324 -0.006136 0.058326 -0.143118 0.084674 -0.023346 -0.063224 -0.028014 -0.093328 0.102500 -0.026754
-0.165776 -0.146754 0.101681 -0.150152 -0.056487 -0.267966 0.026297 0.073130 -0.112456 -0.149007 0.042955 -0.064729 0.025076 -0.005829 0.022358 -0.087517 0.011494 -0.114940 -0.305126 0.027904 -0.168296 0.142372 -0.084956 0.021128 -0.024670 -0.135119 -0.025180 -0.155688 -0.092466 -0.042375 0.006187 0.100764 0.047527 -0.108235 0.056304 -0.130078 0.089755 -0.185834 0.067070 -0.053750 0.115795 0.016882 -0.195130 -0.165779 -0.143817 -0.020243 -0.134294 -0.066379 0.068607 -0.062582 -0.046543 -0.236605 0.093609 -0.046517 -0.023252 0.055035 0.040812 -0.128687 0.018458 -0.174406 0.047356 0.026761 0.128433 0.074033 -0.006485 0.123065 0.024331 -0.131310 0.042789 -0.159355 0.084793 0.137501 0.041163 -0.079101 0.027130 -0.136371 0.005849 -0.190452 -0.093966 -0.177771 -0.049446 -0.082947 0.084286 0.037704 0.005783 0.042730 -0.013388 -0.125353 0.018366 -0.008045 -0.119669 -0.171257 -0.189659 0.010242 -0.136862 -0.092469 0.026580 -0.056511 -0.047147 -0.052718
-0.053085 0.082429 -0.085387 -0.047576 -0.143163 -0.211367 0.045425 -0.013537 0.044848 0.161629 0.007567 -0.142940 -0.177355 -0.029164 0.029888 -0.052383 0.107326 0.116217 -0.079407 -0.066842 -0.081438 0.003293 0.033563 -0.027147 -0.053503 0.155521 -0.157562 -0.113551 0.027805 -0.028893 0.062651 0.072414 -0.219534 -0.052866 0.014823 0.073234 0.040901 0.102633 0.093392 0.019661 -0.183900 -0.083902 0.010831 -0.018529 0.075205 -0.179864 0.068405 0.070419 -0.014904 -0.176181 0.017397 -0.133340 0.045555 -0.177303 0.178045 0.004988 -0.145475 0.012757 -0.005141 -0.045627 -0.020213 0.047994 -0.070336 -0.099754 -0.162556 -0.023457 -0.040199 -0.196140 -0.102766 0.059490 0.125565 0.061091 0.040545 0.038959 -0.198927 0.052044 -0.025229 -0.019179 0.089889 0.015762 -0.088157 -0.080093 0.085693 0.102113 0.176585 -0.115835 -0.195917 -0.030534 -0.173089 0.014689 0.001472 -0.181918 0.000753 -0.105911 0.021639 -0.014309 -0.157633 -0.156047 -0.134960 -0.113294
0.032827 -0.118258 0.109421 0.019629 -0.030120 -0.155651 0.110983 0.099151 -0.108125 -0.119794 0.077877 -0.162007 0.083353 0.038806 -0.017606 -0.011569 -0.105672 0.004822 0.023502 -0.001027 -0.010294 -0.097306 0.072938 -0.019992 0.034189 0.018068 -0.048439 -0.094504 -0.115355 -0.035424 -0.074777 -0.021046 0.169250 -0.007556 -0.154641 0.003627 0.059038 0.245659 -0.119141 0.011518 0.165834 0.036418 0.034417 -0.046082 -0.067147 -0.035938 0.075490 -0.039444 0.073682 0.122806 0.033066 -0.086162 -0.015406 0.000563 -0.107601 0.078317 -0.075325 -0.277963 -0.112012 -0.169443 0.004477 0.003196 0.296554 -0.040721 0.038824 0.260344 0.029959 -0.038533 -0.197927 0.086897 -0.084765 0.103560 0.106413 -0.006438 0.031336 -0.204583 -0.027882 -0.000000 -0.021486 0.112950 -0.003473 -0.055830 -0.061515 0.091452 0.055479 -0.116811 0.134565 0.014588 0.043595 0.071531 0.099434 -0.013900 0.105670 -0.026906 0.055749 -0.083328 0.196833 0.159927 -0.009764 0.017572
-0.009661 -0.264481 -0.173981 -0.061283 -0.233147 -0.030151 -0.137458 -0.139583 -0.117690 -0.096150 -0.100463 -0.044645 0.084224 0.028591 -0.053608 -0.190916 0.064478 -0.036630 0.040891 -0.271238 0.021206 -0.117734 -0.019576 0.037401 -0.019717 -0.102501 -0.168498 0.003687 -0.221015 -0.115696 -0.063935 -0.086222 -0.159858 -0.119337 -0.059083 -0.016323 0.027447 0.065527 0.061409 -0.104832 -0.011500 -0.029061 0.069066 -0.030691 -0.000083 -0.147847 0.130687 0.067188 0.101419 0.064951 0.044398 -0.053115 -0.073565 -0.304240 0.036911 -0.125608 0.063273 -0.248284 -0.022702 0.005241 0.001436 -0.045736 0.012208 -0.037910 0.024945 0.100111 -0.113083 -0.055509 -0.071269 -0.074106 -0.044316 0.134095 -0.213223 0.064605 0.030763 0.151367 -0.055526 0.107584 -0.006088 0.115158 0.135458 -0.190198 -0.108823 -0.158775 0.054431 -0.030259 -0.056297 -0.038317 -0.112196 0.023100 -0.122470 -0.105789 0.052814 -0.103411 -0.006113 -0.111373 -0.138547 0.027731 0.094793 -0.018635
-0.069445 -0.193243 0.032587 0.146289 -0.147762 0.022641 -0.063458 0.027428 -0.049999 0.089948 -0.178475 -0.114152 -0.181447 0.128310 -0.143688 0.092070 -0.134497 -0.128709 -0.114948 0.029834 0.153780 0.086458 -0.057804 0.073373 -0.104225 0.019117 -0.085788 -0.066691 -0.105228 0.001718 -0.019757 -0.143656 -0.041692 -0.070650 -0.115795 0.093660 -0.072817 0.095941 0.130623 -0.313132 0.089975 -0.104427 0.119134 0.080171 -0.034621 -0.013433 -0.172184 -0.070018 -0.137590 0.101370 0.002480 0.130667 0.048596 -0.202161 -0.128300 -0.070083 -0.108856 0.020966 -0.106312 -0.078488 -0.021368 0.022297 0.011508 -0.057009 0.054191 0.025143 -0.035435 -0.053873 0.052953 -0.011898 -0.134094 0.079555 0.035921 -0.202305 -0.072493 -0.069621 -0.019741 -0.021768 -0.160946 -0.057558 -0.108727 0.116731 0.048504 -0.104473 0.062605 -0.069854 -0.132162 -0.115032 -0.093445 -0.102530 -0.126390 0.130446 -0.168754 0.020570 -0.065321 0.018197 -0.115498 0.129954 -0.057382 -0.097449
-0.000407 0.159608 -0.118282 -0.091606 0.078017 -0.087939 -0.146240 -0.039306 -0.000906 -0.163792 0.058011 0.022655 -0.014105 0.014485 -0.027673 0.127495 -0.209392 -0.085922 0.106306 0.016258 -0.074241 -0.129998 -0.139140 -0.069204 0.117140 -0.160186 0.034678 -0.109130 0.053272 -0.084598 0.117963 -0.001655 -0.014008 0.090351 -0.009986 -0.016878 -0.082301 0.113735 0.166601 0.013150 -0.256517 0.192400 0.096835 0.009333 -0.061698 0.063568 0.119985 -0.105695 -0.189974 -0.038270 0.039154 0.022837 -0.071505 0.123108 0.099022 0.051669 -0.056053 0.106651 0.096559 0.050658 -0.161078 0.045009 -0.139418 -0.104783 -0.059657 0.076273 0.038741 -0.066446 -0.063884 0.060564 0.011252 -0.061390 0.066071 0.141794 -0.121883 0.068600 -0.085795 0.013899 -0.026879 -0.165331 0.073421 -0.121430 -0.124654 -0.106292 0.059694 -0.320660 0.009974 0.037662 0.020455 0.050171 -0.210324 0.109503 0.115528 0.063387 0.039044 -0.038830 0.050201 -0.035733 0.031144 0.063624
-0.022268 0.011757 0.013376 -0.170605 -0.220552 0.080444 -0.000037 -0.062989 -0.001664 -0.048527 -0.011962 -0.211185 -0.077983 -0.162533 -0.064281 0.050022 -0.007289 -0.089589 -0.000430 -0.055456 -0.180213 0.009873 -0.075745 0.079370 -0.004451 0.031237 -0.009318 0.011829 0.072252 -0.104069 -0.038829 -0.013113 -0.210123 -0.169828 -0.139305 -0.030725 -0.047770 -0.076712 -0.040043 0.157264 -0.160883 -0.076621 0.045299 -0.068014 -0.167820 0.004274 0.112787 -0.160586 0.067333 -0.057646 -0.103410 -0.167531 -0.074246 -0.216089 -0.007987 -0.006882 0.052406 -0.127510 -0.047460 -0.102367 -0.090320 0.067946 -0.047182 -0.049359 -0.100161 -0.069293 0.068886 -0.097247 -0.019511 -0.151493 0.063210 0.004210 -0.215664 -0.042464 -0.021206 -0.089183 -0.058876 -0.121487 -0.142148 -0.044327 0.072611 -0.008970 -0.003420 -0.161621 0.039951 0.127812 -0.029566 -0.066682 -0.151593 -0.032194 -0.099064 -0.109869 -0.003338 0.025162 -0.040401 -0.016405 -0.124729 -0.163984 0.079746 0.001981
-0.050556 -0.100274 -0.066039 -0.040756 0.005695 -0.102388 -0.063804 -0.141556 -0.017110 -0.081359 -0.091888 0.011578 -0.076330 -0.137645 0.033919 -0.100834 0.055231 0.063294 0.024248 -0.131309 0.126241 -0.083983 -0.037949 0.101869 0.101928 -0.153858 -0.089961 -0.050832 -0.024184 0.020129 -0.078755 0.126133 -0.095357 -0.064911 0.024664 -0.127114 0.031953 0.185723 -0.024891 0.094624 -0.049208 -0.035723 -0.201894 0.114042 -0.046370 -0.121793 0.050497 -0.137644 -0.158344 -0.146584 0.092982 0.030777 -0.085846 -0.095089 0.127017 0.008431 -0.024615 -0.003602 0.151813 0.048788 0.045267 -0.123198 0.013227 0.071700 0.096052 -0.116095 0.072289 -0.187292 0.023020 0.121305 -0.111531 0.127003 0.154307 -0.051392 0.011122 -0.033612 -0.007433 0.003079 -0.156924 0.043340 -0.003885 -0.055274 -0.112300 0.061959 0.105592 0.024389 -0.016694 -0.108314 0.028609 0.118414 -0.081723 -0.046382 -0.069642 -0.012428 -0.042073 -0.031309 -0.236528 0.040321 -0.047900 -0.125476
-0.142657 0.115096 0.170309 -0.127988 -0.033677 -0.114198 0.080513 0.116003 0.012500 0.060648 0.088897 -0.019184 -0.037664 -0.081542 -0.008446 -0.040156 0.023505 -0.064194 0.023981 0.032371 0.030826 -0.173973 0.064020 -0.079925 0.067674 -0.038680 -0.173611 -0.115312 0.120490 -0.125512 0.032680 -0.003843 0.136290 0.034882 0.021942 -0.117948 0.077171 -0.127123 -0.089401 -0.070720 -0.112560 -0.014135 -0.167658 -0.099650 0.036461 -0.101334 0.097252 0.108358 -0.035493 -0.074678 -0.018307 -0.031548 0.023444 0.087280 -0.143661 -0.026401 -0.111030 0.025989 -0.072920 -0.014609 0.010216 0.159343 -0.137987 -0.075567 0.132892 0.040060 -0.044915 0.023692 -0.114589 -0.154058 -0.009174 -0.058953 -0.018251 -0.155887 -0.075669 -0.005589 -0.089135 0.100717 -0.141098 0.092065 0.000749 -0.076061 0.161369 0.125737 -0.062757 -0.074496 -0.038304 -0.052047 0.082806 0.200928 0.148043 -0.013369 0.087580 -0.104507 -0.037575 0.080027 0.109233 -0.020763 0.000915 -0.109830
0.047909 0.100379 -0.113900 -0.136127 0.090265 -0.093259 0.051872 0.069004 -0.088765 -0.019346 -0.017810 0.190862 -0.072916 0.012662 -0.143628 0.174261 -0.126877 -0.103468 0.102574 0.161398 0.056181 0.014054 -0.095455 0.121321 -0.143009 0.051615 -0.113596 -0.029621 -0.007047 0.059701 -0.004738 0.079332 0.027420 -0.128291 0.129424 -0.006846 0.038355 -0.078070 0.041380 -0.131119 -0.026885 -0.120049 -0.028181 0.030506 -0.000323 -0.228495 -0.143622 -0.141727 -0.058074 0.053738 0.042527 -0.089756 -0.125361 0.069876 0.044272 -0.005391 -0.152851 0.197696 -0.148912 -0.117247 0.037439 -0.148272 -0.124049 -0.087005 0.065169 -0.021186 0.028406 -0.013709 -0.037954 0.004836 -0.152049 -0.026475 -0.314985 -0.141098 -0.033413 0.056668 -0.068984 -0.111727 -0.017049 -0.079214 0.041333 -0.054113 -0.041912 -0.050733 0.083205 -0.142963 0.157755 -0.099369 0.066792 -0.104992 0.110975 -0.039241 -0.084204 -0.069777 -0.153356 -0.055367 0.003074 0.005133 -0.148175 -0.094195
-0.077700 -0.086538 0.110760 -0.026140 0.012868 -0.139116 0.018668 -0.095110 -0.103692 0.004824 0.064690 0.089499 0.139687 0.147760 -0.026736 -0.062504 0.012483 0.000730 -0.039512 -0.071149 -0.082830 -0.174731 0.013914 -0.155370 -0.173227 0.006523 -0.016919 0.144113 -0.033999 -0.031231 0.112430 0.034626 -0.213711 0.238285 -0.058742 0.061711 -0.040470 -0.116543 -0.045073 -0.120433 0.118100 -0.083869 0.078264 -0.078486 -0.058598 -0.139491 -0.081397 -0.095489 -0.099587 -0.090503 0.040555 -0.030005 -0.077292 -0.072769 0.029647 -0.179114 -0.064361 0.012309 0.113289 0.099161 -0.106213 -0.136941 0.102360 -0.060267 -0.046263 0.062479 0.076245 -0.085395 -0.043824 -0.158210 -0.029564 0.083173 0.092363 -0.119378 -0.131322 -0.164263 -0.048820 0.040829 -0.079834 -0.028619 0.017602 0.159227 -0.286736 -0.154539 -0.030330 0.111954 0.020041 0.028851 0.072653 0.178305 -0.154471 -0.254401 0.126870 -0.080391 -0.174601 -0.136519 -0.102369 -0.021406 0.143297 0.137512
0.017643 -0.021882 -0.010891 -0.086326 -0.122276 0.042418 0.120073 0.047129 -0.053834 -0.132844 0.182533 -0.031404 0.085445 0.018973 -0.101335 -0.074880 -0.118569 -0.039285 0.104287 0.106682 0.041044 -0.156825 -0.095351 0.158443 -0.004141 -0.044958 0.135003 -0.006935 -0.264376 -0.193255 0.069538 -0.004002 -0.117577 0.005838 -0.126011 0.001757 0.190613 0.051972 0.078758 0.105017 0.037325 -0.101306 -0.013953 0.095675 -0.159546 -0.120858 -0.096894 0.118654 0.100978 0.034455 0.132576 0.090915 -0.052959 -0.074874 0.150889 -0.139319 -0.061716 -0.001775 0.062042 0.010115 0.094374 -0.068624 -0.163936 -0.033207 0.108365 -0.147220 -0.065690 0.045308 -0.057825 -0.001832 0.144724 -0.016262 0.039802 0.087749 -0.033533 0.181317 0.047508 0.015852 0.089309 0.019985 -0.071911 -0.046415 -0.217874 0.112425 0.044737 -0.145540 0.041120 -0.015537 -0.128751 0.059799 0.020059 0.018378 -0.081966 0.070319 -0.091574 -0.056152 0.076843 -0.023943 -0.047205 -0.137243
-0.069879 0.000557 -0.067859 -0.159680 -0.039540 0.005181 0.009141 -0.041577 0.047393 0.005251 -0.016712 -0.246880 -0.044338 -0.141007 -0.162853 -0.003848 -0.219855 -0.039788 0.098581 -0.048055 0.030924 -0.054837 0.106166 -0.035955 -0.124535 0.094230 -0.244905 -0.039883 -0.216740 -0.204669 -0.017335 -0.074575 0.027713 -0.046236 0.010920 -0.087442 0.070289 0.042568 -0.016897 -0.113448 -0.012307 -0.037712 -0.053286 0.020749 -0.007783 -0.028645 -0.090810 0.014748 0.007938 -0.184015 -0.065666 -0.037880 0.006873 -0.114764 -0.010874 -0.187611 -0.065365 0.073966 0.073613 -0.091258 -0.101789 -0.114876 -0.014366 -0.209664 -0.064374 0.002287 -0.099842 0.043261 -0.027431 -0.041960 -0.156430 -0.011104 -0.134561 0.103961 -0.151024 -0.265055 -0.040253 -0.192989 0.041895 -0.101536 -0.010005 -0.128986 0.064663 -0.115805 -0.063298 -0.006956 -0.170116 0.001675 -0.162522 -0.035524 -0.156947 0.033179 -0.085419 -0.025340 0.066240 -0.081329 -0.149418 -0.172525 -0.235269 0.059650
-0.148149 -0.104995 0.054797 0.016250 -0.122539 0.184180 -0.052421 -0.139029 -0.103290 0.124394 -0.114561 0.125517 -0.124461 0.072449 0.030948 -0.085703 -0.047050 -0.172046 0.197891 0.126581 -0.038304 -0.149883 0.068384 -0.092507 0.053574 -0.035163 0.013034 -0.107023 -0.015403 -0.025608 0.229463 -0.061775 -0.272639 -0.110217 0.097911 0.030985 0.062014 0.099153 0.063730 -0.284819 0.049300 -0.179738 -0.065177 0.021255 0.042117 -0.170372 -0.087579 0.053613 0.022405 -0.019461 -0.130032 -0.099026 0.235210 0.124875 -0.043718 0.062372 0.081343 -0.026061 -0.045121 -0.189124 0.092530 -0.141784 -0.117043 -0.045716 -0.066304 0.150429 -0.045603 -0.114745 0.138766 0.006365 -0.163441 -0.073343 0.002483 -0.231894 -0.056480 -0.014329 -0.020016 -0.093506 0.150368 0.051882 -0.005929 -0.067170 0.025458 -0.020876 0.064675 -0.084374 0.176924 0.084129 0.045018 0.116623 -0.089812 -0.211901 0.046808 -0.055674 0.085844 0.015904 -0.213265 0.011870 -0.003112 -0.130170
-0.045101 0.066933 -0.075867 0.072897 -0.222940 -0.152968 0.038371 -0.008321 0.026720 0.088514 -0.056454 0.044682 0.019335 -0.081064 -0.074859 -0.125260 0.031428 0.005037 -0.015363 -0.023631 0.070016 -0.112148 -0.128547 0.143875 0.061439 -0.086240 -0.277616 0.114026 -0.018733 -0.014429 -0.217320 -0.030581 -0.064245 0.132381 -0.048871 0.106288 -0.035289 -0.089058 -0.086995 0.068324 0.087859 0.132357 0.123033 0.092589 -0.107997 -0.160781 0.044997 0.009459 -0.085089 -0.090327 0.027969 -0.112374 -0.048019 0.219108 0.123839 -0.072861 -0.081955 0.140233 0.127856 0.079577 0.036236 0.049104 0.081980 0.120510 -0.130376 -0.233102 0.043675 0.136855 -0.115454 0.039517 -0.092704 0.212371 0.000393 0.015744 -0.116417 -0.031699 0.024759 -0.004680 -0.032918 0.013174 0.130533 -0.109292 -0.078886 -0.060684 -0.143127 0.032041 -0.126125 -0.076372 -0.023578 0.043487 0.138417 -0.211014 0.021305 0.014979 -0.026768 -0.035864 0.043456 -0.061121 -0.133841 -0.087304
-0.017301 0.138734 -0.131437 0.045379 -0.046699 -0.113382 -0.042472 0.043693 -0.029821 0.003998 -0.165759 0.033015 -0.020590 0.030621 0.018331 -0.171017 0.013297 0.078112 0.157401 -0.008148 -0.181183 -0.140618 -0.099748 0.321570 0.047697 -0.109776 -0.102414 -0.007676 0.428484 0.049321 -0.271319 0.041951 0.138468 -0.117469 -0.073445 0.155599 0.143109 0.114972 -0.295590 -0.114623 0.147481 0.062700 -0.010079 -0.083583 -0.025593 -0.064491 -0.128411 0.044571 0.028296 -0.102747 -0.099668 -0.075938 -0.032374 0.279980 0.023306 -0.008024 -0.048139 -0.185068 -0.138990 0.066958 -0.048211 -0.206744 -0.103831 0.009618 0.038766 -0.068348 -0.150910 -0.016164 0.112191 0.005351 -0.111992 -0.215037 -0.071971 0.096163 -0.094832 0.084066 -0.025590 0.010454 0.081195 -0.120577 -0.021860 -0.156462 -0.183491 -0.137233 -0.213439 0.037519 -0.133183 -0.040360 0.029127 -0.087706 -0.094093 -0.124174 0.031967 0.193920 0.040721 0.000012 0.163078 -0.033313 0.033153 -0.152423
0.061272 -0.002834 -0.028109 -0.105748 0.102362 -0.052866 0.060399 0.100478 -0.081704 -0.149530 0.077391 0.093841 0.098809 -0.029755 -0.078574 -0.008466 -0.004608 -0.029469 -0.071259 -0.016706 0.079328 -0.124881 0.027135 -0.060853 0.001098 -0.071752 -0.040595 -0.007814 0.033947 0.009751 -0.098117 -0.055533 -0.086527 0.088743 -0.130920 -0.088172 0.054534 -0.079286 0.069399 0.026404 -0.019202 0.142423 -0.079221 0.030009 0.069371 0.043931 -0.051287 0.014763 0.057582 0.144561 -0.019900 0.120622 -0.055619 -0.045573 -0.119526 -0.101673 0.007360 0.065616 0.080225 0.026383 -0.081169 0.030790 0.121967 0.010743 0.060392 0.073148 0.073971 0.118300 -0.018569 0.003697 0.053546 0.120677 0.156462 -0.003777 0.011425 0.008341 -0.084289 0.008030 -0.108234 -0.046818 0.102100 0.028129 0.091856 0.078366 0.021493 0.113818 0.057506 0.065682 0.042565 -0.029427 -0.101853 -0.166589 0.060653 0.117493 -0.028487 0.112290 -0.165820 0.034053 0.105487 -0.016788
-0.099447 0.066193 -0.031254 -0.093144 -0.004620 0.107970 0.027576 0.119483 0.082005 -0.046242 -0.055284 -0.078094 0.071452 0.007316 -0.098805 0.050663 0.040041 0.035310 0.168161 0.028731 -0.137075 -0.115226 0.058260 0.101957 -0.062534 -0.159081 -0.057131 -0.084179 -0.010624 0.151499 0.026142 -0.311099 -0.099111 -0.186944 0.069861 0.033061 -0.021032 -0.060663 -0.022772 0.079100 0.019768 -0.090624 0.010442 -0.049533 0.025836 -0.041709 -0.016532 0.011311 0.107563 0.090207 -0.110369 -0.022406 -0.059874 -0.089500 -0.009552 0.052274 0.019663 -0.074512 -0.028224 -0.095667 -0.056152 0.198771 0.019007 0.109452 -0.114325 0.009066 -0.031683 -0.071310 0.044507 0.030162 -0.018759 -0.182135 0.048815 -0.055519 -0.032164 -0.053218 -0.045575 0.044330 -0.056313 0.116711 0.031666 -0.094591 0.194604 0.013816 0.069095 -0.131900 0.064798 -0.015001 0.085974 0.123027 0.053516 -0.075679 0.105457 -0.082360 -0.095162 0.004662 -0.007314 0.126183 0.097942 -0.080005
-0.028026 0.045739 -0.025750 -0.141015 -0.171909 -0.066848 -0.045208 -0.068523 -0.089924 -0.165143 -0.073735 0.142630 -0.067703 0.047547 -0.062823 0.193557 -0.106759 0.031826 0.247198 0.011259 0.038954 -0.137930 0.022796 0.274844 -0.009854 0.023092 0.022080 -0.069782 0.024594 -0.011888 -0.075389 -0.098637 -0.049446 0.051444 -0.032546 0.013237 -0.021647 0.089901 -0.273507 0.179777 0.046734 -0.121808 -0.031412 0.112877 -0.110331 -0.130613 0.059996 0.111376 0.042910 -0.111341 0.005977 -0.122341 0.100944 -0.071144 -0.056207 -0.189816 0.123976 0.176774 0.068932 0.132756 -0.098513 0.125990 0.017298 0.237208 0.001203 0.040176 -0.201780 -0.055131 0.145467 0.084933 -0.171224 0.129015 0.015570 -0.237332 -0.074063 -0.171156 -0.013926 0.019616 -0.091825 -0.086566 0.017265 -0.032675 0.136235 -0.061990 0.086828 -0.006834 0.060561 0.233668 0.071562 -0.045086 -0.139694 0.014894 0.024077 0.028107 -0.035438 -0.015219 0.007953 0.048418 -0.113465 -0.042824
0.003526 0.011069 0.092527 -0.204252 0.167315 -0.032441 -0.153511 -0.003733 -0.088714 0.189954 0.028349 0.166821 0.108016 0.021795 0.069980 -0.132230 -0.070651 -0.024023 0.124915 -0.090553 -0.047785 0.175164 -0.090387 0.140678 0.087279 -0.050002 -0.080997 0.161966 0.023189 0.099112 -0.163568 0.092319 0.212097 0.056844 0.075797 -0.051051 0.066261 0.001386 0.043889 0.014567 -0.113422 0.101863 -0.113432 0.043656 -0.102785 0.007285 -0.035605 -0.082072 0.104732 -0.059044 -0.061791 -0.210589 0.008530 0.094976 0.117865 0.007184 -0.055945 -0.017243 -0.013409 0.075903 0.047711 0.025501 0.013937 -0.031123 0.006345 0.172208 -0.120416 0.066583 0.027074 -0.138503 0.061775 -0.141969 0.108389 0.237974 -0.112797 0.088189 -0.020223 0.000000 -0.129680 0.074832 0.109745 0.048065 0.021659 -0.124220 -0.121919 0.078626 -0.008233 -0.010074 0.102619 -0.098284 -0.188397 -0.041382 -0.141434 0.041093 -0.044474 -0.138885 0.013239 -0.076150 -0.002983 0.116685
-0.095905 0.045747 0.001073 -0.077057 -0.076268 0.020928 -0.086841 -0.119243 -0.212516 0.010493 0.002752 0.047397 -0.007048 -0.039606 0.113950 0.091196 -0.057942 -0.050382 0.064065 0.028510 0.012034 -0.123824 -0.001643 0.017957 -0.024544 0.058005 0.046345 -0.044786 0.044478 0.072402 0.142693 -0.085015 0.044886 0.003867 0.010486 -0.137524 0.057229 0.019580 -0.055654 -0.067889 -0.179241 -0.038292 0.004824 -0.015572 -0.084068 0.082135 -0.061105 -0.024350 -0.184335 -0.087291 0.011791 -0.088219 -0.029511 0.204435 0.012912 0.043243 -0.161670 -0.035230 -0.087024 -0.013765 -0.135923 -0.129415 -0.080222 -0.131069 0.027081 -0.042052 0.030442 -0.175135 -0.046016 -0.148124 0.084518 -0.089494 -0.003772 -0.085013 -0.076755 0.007685 -0.046898 0.017458 -0.046059 0.053018 -0.089460 0.118155 -0.140237 -0.127693 -0.015249 0.019685 0.161153 0.094914 -0.020172 0.026200 -0.039013 -0.082200 0.101233 -0.007594 -0.007179 -0.070442 0.030945 0.011429 -0.002914 0.038244
0.082003 -0.036829 0.040440 0.133876 -0.113641 0.032285 0.045850 -0.019661 -0.126582 -0.012193 0.079613 -0.017059 -0.101228 0.070765 -0.071006 -0.098319 0.084255 0.068166 -0.115810 -0.094819 -0.103414 0.129522 -0.044573 0.071638 0.040240 0.100010 -0.090700 -0.031924 0.058254 -0.196335 -0.092429 -0.077284 -0.027189 -0.026932 -0.064647 -0.005269 -0.020769 0.018747 0.129275 -0.090105 -0.065860 -0.002839 0.023936 -0.024295 0.016340 -0.020580 0.014743 0.009064 -0.149672 0.074841 -0.054928 0.014299 -0.151352 0.090695 0.012028 -0.027173 -0.084901 0.062835 0.076474 -0.064244 0.076736 0.118278 -0.046744 0.062543 0.098150 0.059044 0.050110 -0.103037 0.059371 -0.073409 0.150871 0.138477 0.051239 -0.108103 0.048871 -0.076789 -0.022398 -0.062323 -0.070267 0.087294 -0.081401 -0.008556 -0.008496 0.076165 0.121583 0.018407 0.006286 0.040954 0.043520 -0.032517 -0.031571 0.078951 0.042842 -0.076981 -0.098995 -0.113307 -0.129007 -0.055194 -0.033592 -0.067604
-0.107308 -0.033408 -0.040482 -0.033506 -0.110086 -0.132616 -0.011072 -0.088689 -0.009904 0.094711 -0.000013 0.102923 -0.084529 -0.165241 0.039720 0.115512 0.084152 -0.023332 -0.022097 -0.103990 -0.142121 -0.160913 0.016691 0.010022 0.086846 0.001136 -0.153006 0.006803 -0.177991 -0.073422 -0.108064 -0.048469 -0.028866 -0.001052 -0.008538 -0.127629 -0.051761 -0.060673 0.037008 -0.081600 -0.045759 -0.096838 0.107516 -0.162811 -0.120834 -0.111566 0.032250 0.007831 -0.315579 -0.090212 -0.111995 -0.073272 0.043221 0.068891 -0.061887 -0.015905 -0.153132 -0.132007 0.017508 0.157283 0.096822 -0.076668 -0.096592 -0.115170 0.040384 -0.011026 -0.107256 0.068863 -0.009672 0.015425 -0.040122 -0.058828 -0.111872 -0.058378 0.042652 -0.063438 -0.038785 -0.140305 -0.081882 -0.090174 -0.136913 0.077861 0.096273 -0.041601 -0.248294 -0.312346 0.083845 -0.008845 -0.031838 0.000126 0.052878 0.054411 -0.057300 -0.024472 -0.003252 0.008550 0.130669 -0.112813 0.086002 0.003837
0.082118 -0.093315 -0.140416 0.036651 0.247383 -0.045124 0.130936 0.124396 -0.051369 0.082331 0.101405 0.070133 0.092419 -0.080971 0.096645 -0.000181 0.050303 -0.077804 0.110053 0.077330 -0.115322 -0.096747 -0.133744 0.031757 0.106617 0.033617 0.118667 -0.075626 -0.020107 -0.022344 -0.102114 0.019030 0.016139 0.104259 -0.173613 -0.052557 0.157513 0.111292 -0.056120 -0.030561 -0.000817 -0.103922 -0.048888 -0.008049 0.074549 0.096891 -0.120566 -0.115534 -0.040353 -0.105218 0.031697 0.052014 -0.039463 0.053159 0.033038 0.085630 -0.050257 0.073722 -0.132030 0.083177 -0.087820 -0.015756 -0.037537 0.099152 0.100695 0.085722 -0.098159 -0.023198 -0.055536 0.100345 -0.026377 -0.015123 -0.127387 0.104228 0.133581 -0.068910 0.127177 -0.037050 0.032549 0.067114 -0.000587 -0.070585 0.063424 -0.110082 0.083514 0.108082 -0.034705 -0.041026 -0.096714 -0.099321 -0.057166 0.048276 0.095087 0.059770 0.000314 -0.087912 -0.049031 0.035426 0.089158 -0.152259
0.056778 0.174860 0.049579 0.070267 0.019520 -0.084863 -0.167984 -0.136623 -0.049428 -0.057165 -0.202555 0.190619 0.020542 -0.025117 -0.024898 0.272279 0.037067 0.073404 0.108515 0.239831 0.035707 0.087682 0.063187 -0.078112 0.048075 0.052313 0.074115 -0.003805 -0.148363 -0.028472 -0.128141 0.020700 -0.059860 0.066512 0.084000 -0.035121 -0.117611 -0.019445 0.054048 -0.047670 -0.086582 -0.075276 0.158458 -0.135797 -0.086863 -0.050471 0.016125 0.047738 -0.016977 0.047071 0.057650 -0.013936 0.067721 0.018095 0.020799 -0.124129 0.022267 0.168028 0.054457 -0.160392 -0.063048 -0.151475 0.046274 -0.005500 0.111063 -0.040913 0.013892 -0.074146 -0.017928 0.046584 -0.086357 -0.020203 -0.104561 -0.160782 -0.103167 -0.104852 0.068911 0.066838 -0.080057 0.050432 0.041825 0.010162 0.069125 -0.121704 0.009595 0.052773 0.085950 0.065807 0.003716 -0.033289 -0.016422 0.161715 0.118026 -0.146892 0.098876 0.027264 -0.083411 -0.026983 -0.114605 -0.052516
-0.029033 -0.029708 -0.010092 -0.038302 -0.013248 -0.108439 -0.173894 -0.051195 -0.013187 -0.110473 -0.097536 0.032729 0.099517 -0.070577 -0.066198 0.104695 -0.054515 -0.022757 -0.062206 -0.067633 0.154588 0.015841 0.116715 0.002065 -0.023624 -0.089849 0.059966 0.129172 0.112416 -0.167103 0.013166 -0.007246 -0.062667 -0.031679 0.078445 0.064483 -0.098642 -0.079823 -0.093175 -0.092658 0.167411 0.088037 0.222150 -0.139606 0.032384 -0.062612 0.123730 -0.092123 0.019819 0.137615 -0.048307 0.066484 -0.138076 -0.131992 0.066772 0.058458 -0.061934 0.031349 -0.123326 -0.132953 -0.037442 -0.030966 0.059666 0.017347 -0.036990 0.042927 0.046976 -0.135274 0.035400 -0.048714 -0.254254 0.024604 0.091196 0.094227 0.099705 -0.055930 -0.075363 -0.082983 -0.163799 -0.005534 0.104331 -0.116870 0.050543 0.188415 0.032143 -0.182899 0.053534 -0.036278 0.123130 0.125960 -0.116878 0.088771 -0.084098 -0.094956 -0.055056 -0.109615 0.096434 -0.039192 0.055125 -0.040635
-0.001539 0.029952 0.096057 -0.085061 0.133505 0.036219 0.232713 -0.027979 -0.090105 0.095844 -0.270871 -0.011757 -0.030784 -0.176068 -0.147018 -0.044517 -0.007690 -0.257537 0.167615 -0.292594 0.104716 -0.040295 -0.174738 0.043095 -0.274319 -0.101852 -0.081100 0.047894 0.073784 -0.202478 -0.023484 -0.060075 -0.025949 0.086890 0.123897 0.023320 -0.021128 0.141937 -0.103291 -0.179663 0.115512 -0.014382 -0.180062 -0.148885 0.095259 -0.124654 -0.220997 0.013894 0.011555 -0.059302 -0.021970 -0.193104 -0.155008 -0.018884 -0.042954 -0.268111 -0.039152 -0.000952 -0.238397 -0.139835 -0.154206 -0.061867 0.111960 -0.144420 -0.200701 0.117537 0.058806 -0.131806 0.040794 -0.024519 0.063179 0.021563 0.073103 0.031002 0.002696 -0.011976 0.038847 0.002326 -0.058411 -0.085233 0.065743 -0.037094 0.013463 0.013804 0.062401 0.014181 0.037051 -0.047431 -0.088853 0.166360 -0.112789 -0.276690 -0.158516 -0.170231 -0.125264 0.045479 -0.100814 -0.026542 0.033391 -0.067220
-0.055857 -0.133701 0.061089 0.017296 0.081707 0.036822 0.023478 0.053007 0.029222 -0.058261 -0.159125 -0.123569 -0.132097 -0.000312 -0.064572 0.139786 -0.021018 0.004499 -0.086119 -0.073243 -0.098368 -0.015474 0.006357 0.068554 0.067718 -0.021129 -0.075359 -0.110095 0.214380 -0.180184 -0.280457 -0.177225 -0.087087 -0.243784 -0.217999 0.013416 0.079815 -0.101847 -0.098044 -0.125639 0.045227 -0.159718 0.077408 0.072866 0.051411 0.056696 -0.031587 -0.013556 0.166291 0.160000 0.021531 -0.099544 -0.011418 -0.061568 -0.004998 -0.066685 -0.136928 0.135529 0.040821 -0.055340 0.207624 0.050176 0.115996 0.040535 -0.008962 -0.051195 0.110634 0.122493 -0.072737 -0.073428 0.073569 -0.201418 -0.139639 -0.277501 -0.001611 -0.064171 0.017361 -0.077373 -0.091132 -0.146364 0.055844 0.074524 -0.073775 0.149981 -0.195410 0.001134 -0.115448 0.055564 -0.131595 0.186167 -0.014748 -0.022247 -0.027462 0.073449 0.035855 -0.087895 0.013647 0.008026 0.241313 0.037701
-0.100799 -0.152194 0.135823 0.030708 0.010921 0.016750 -0.053760 -0.108424 -0.087224 0.024383 -0.072095 -0.061885 -0.077330 -0.052725 -0.116768 0.020847 -0.162057 0.064039 -0.093822 0.070761 0.101214 -0.130079 -0.097200 0.173034 0.148635 -0.187325 -0.192549 -0.143989 -0.125658 -0.100023 0.021076 -0.014151 -0.025320 -0.215628 -0.117627 -0.042828 0.030823 -0.033886 -0.105705 -0.170897 -0.123751 -0.272270 -0.030394 -0.000572 0.084250 -0.169122 -0.187856 0.020162 0.035085 -0.130863 -0.006637 -0.229544 -0.021835 -0.009130 -0.198964 -0.070815 -0.113624 0.012605 -0.151256 0.072474 0.047119 -0.120986 0.041304 0.067858 -0.122195 -0.232128 0.053521 -0.202186 -0.113921 -0.088481 -0.330997 -0.011641 -0.021894 -0.080608 -0.061801 -0.079359 0.053465 -0.123006 -0.103352 0.088373 -0.087149 -0.126850 0.101767 0.084416 0.031527 0.001511 -0.037735 -0.000357 0.060402 0.067967 -0.114536 0.019184 0.049316 -0.045610 -0.059600 -0.164255 0.089241 0.070162 0.079971 -0.102372
0.028129 -0.105966 -0.018307 0.097951 0.000956 -0.001955 -0.085773 0.035527 -0.021565 0.110711 -0.114037 0.047904 -0.063853 -0.078997 -0.000000 -0.096170 -0.124655 -0.034592 0.075730 0.021007 -0.119524 -0.044571 0.046881 0.097633 0.071918 -0.065531 -0.029405 0.027509 -0.086432 -0.123946 0.083636 0.017249 0.095393 0.094822 0.068810 0.101664 0.047225 -0.021256 0.012531 0.047475 0.000518 -0.066742 -0.015819 0.034852 0.081184 -0.031150 0.119016 -0.068341 0.087781 -0.110716 0.065094 0.111663 -0.083773 -0.005669 0.045596 0.106743 0.010152 -0.073703 0.038150 -0.110071 0.019195 -0.074026 -0.092099 -0.109414 0.029731 0.149978 0.075185 -0.089220 0.003951 0.080110 -0.015464 0.053662 0.115079 -0.108859 0.002510 0.098268 0.055860 0.035939 0.055901 0.013304 -0.003212 0.084066 -0.025207 0.071278 0.059413 0.043768 0.127750 -0.114548 -0.008030 0.022649 -0.064417 -0.111796 0.076381 0.030986 0.066303 -0.083954 0.068393 0.003026 0.111230 -0.075554
-0.008965 -0.275093 -0.150137 -0.026084 -0.014739 -0.038726 0.114430 -0.013096 0.079429 -0.104028 -0.091273 0.140124 -0.101158 0.145457 0.029203 -0.087048 -0.112421 0.064633 -0.047734 -0.015292 0.114467 -0.076042 -0.075665 0.015177 -0.095426 -0.103921 -0.009057 0.087772 -0.041171 0.072507 0.041349 0.029521 -0.233218 -0.185619 0.105478 0.068920 0.009992 0.026227 -0.071776 -0.074990 -0.106744 0.149238 0.063777 -0.123153 -0.044116 -0.020428 0.057973 0.061671 -0.030180 -0.106113 0.006863 0.025597 0.119675 0.063396 0.233329 0.013219 0.064897 0.034764 0.086672 -0.136746 -0.092925 -0.132310 0.229790 0.006044 0.206562 0.042182 0.085928 0.037090 0.044321 -0.051269 0.087538 0.103050 -0.034396 0.017012 -0.144930 0.120013 -0.141092 -0.013225 -0.107955 0.071809 0.039537 -0.050057 -0.110542 0.102161 0.040930 0.063045 0.063122 -0.027348 0.136907 0.064203 -0.006438 0.076309 0.104390 -0.041534 -0.093877 0.138091 0.022043 -0.004791 -0.170647 0.054228
0.027062 -0.055441 0.020846 -0.066128 -0.152661 0.055248 0.005247 -0.144886 -0.134163 0.074554 0.177615 -0.155005 0.006474 0.043333 -0.115180 -0.089784 -0.079559 0.056049 0.088390 0.006201 0.060097 -0.188738 -0.073467 0.113159 -0.023374 -0.236916 -0.213513 0.051467 -0.314517 -0.096436 -0.092448 0.029968 0.137253 -0.057421 -0.072027 0.016653 -0.057266 0.107902 -0.142281 0.138581 -0.233806 0.135824 -0.190054 0.027912 -0.008658 -0.202460 0.003376 0.121546 0.067959 0.034729 -0.085271 0.031857 0.069496 -0.089309 -0.113768 -0.167006 0.102866 0.136387 -0.151528 0.011560 0.027994 -0.086586 0.126907 0.120293 -0.087635 0.077828 -0.187425 -0.114443 0.020248 -0.050188 0.023596 0.077033 -0.155978 0.121862 -0.054153 -0.051087 0.051409 -0.110417 -0.074314 -0.013075 0.101854 0.019295 -0.153401 0.048857 -0.065562 -0.123683 0.062550 0.086801 -0.093650 0.097086 0.079452 -0.056855 -0.085163 0.078940 -0.146128 -0.106122 0.016162 -0.034931 -0.235013 -0.215578
0.054593 -0.060918 -0.078827 -0.049190 -0.064538 0.055149 0.034570 0.065450 -0.009120 0.137716 0.055679 -0.067727 0.030772 0.060656 -0.085471 -0.092609 0.048258 -0.021280 0.138314 -0.044213 0.108964 -0.293861 -0.122499 0.004069 0.090644 -0.344073 0.068690 0.117489 -0.104005 -0.021905 0.058774 -0.180391 -0.064000 -0.059214 -0.018396 -0.181628 -0.170951 0.169004 -0.152330 -0.143218 0.034956 0.046149 0.102631 0.044692 -0.184155 -0.029252 -0.060247 -0.125920 -0.026695 -0.030542 0.069365 -0.167043 -0.154894 0.001096 -0.042634 0.043457 -0.048681 -0.010839 -0.018256 0.062679 -0.014859 -0.058053 0.033554 0.050739 -0.180847 -0.034836 -0.172962 -0.214086 -0.098155 -0.093578 -0.201771 0.152856 0.153567 0.136927 0.017578 -0.199264 -0.122864 -0.200196 -0.046223 -0.133614 -0.023593 -0.030078 0.122741 -0.085599 0.089517 -0.136037 0.111267 0.042191 0.027403 0.228158 0.019834 -0.253191 -0.034604 -0.124392 0.021498 0.034519 -0.070015 -0.067842 -0.067145 0.043404
0.096834 -0.026348 0.027006 0.119387 -0.083860 -0.022084 -0.056609 0.030140 0.038689 -0.144463 -0.206472 0.082104 -0.064036 0.088269 -0.067253 -0.075753 0.070668 0.143032 -0.095588 -0.260909 -0.088930 -0.107672 0.011344 -0.040541 -0.176562 0.260722 0.052457 0.013988 0.020016 -0.093584 0.056396 -0.030825 0.069868 0.202925 0.115871 0.100065 -0.182232 -0.013683 0.166239 0.086454 0.155274 0.063991 -0.020895 0.076086 -0.089291 0.070990 -0.045111 0.057264 -0.030137 0.113264 -0.089283 0.037568 0.082513 -0.083683 0.028201 -0.231079 0.033849 -0.090427 -0.014801 -0.092855 -0.193173 -0.034996 0.123871 -0.177109 0.123067 0.100164 0.094010 -0.005601 -0.229549 -0.086830 -0.035885 0.159157 -0.084345 0.141798 -0.174475 0.074086 0.065031 0.000000 0.182137 -0.205018 -0.134326 0.003353 -0.047477 -0.129596 0.085159 -0.122179 0.008665 0.107757 0.043291 -0.022596 0.034523 -0.046671 0.016343 -0.124929 -0.047625 -0.005936 -0.142289 -0.227114 -0.008343 0.060035
-0.133537 -0.066088 0.022742 0.003592 0.100609 0.019012 -0.007443 -0.063831 -0.070183 -0.018336 -0.241069 -0.171933 0.146098 0.080650 -0.113458 0.020445 0.038416 0.004619 -0.103680 -0.171100 0.038605 -0.073152 -0.160659 0.191456 0.138614 -0.120282 -0.084763 -0.091122 -0.014065 -0.103947 -0.111649 0.083620 0.048235 0.063641 0.009813 0.172748 -0.161702 -0.115196 0.146259 0.021206 0.131523 -0.029320 -0.172229 -0.077492 0.075633 0.017318 0.144467 -0.056284 0.133201 0.080397 -0.092888 -0.091084 -0.181164 -0.100606 -0.056784 0.080705 -0.135000 -0.047603 0.033838 0.184066 0.014384 0.049282 0.087377 0.157013 -0.113137 -0.055749 0.017882 0.003407 -0.008951 0.003752 -0.101507 0.124935 -0.085247 0.041252 0.071539 0.006047 0.076220 -0.024936 0.098302 -0.005219 -0.032255 -0.159111 -0.050607 -0.079773 0.101747 0.037809 -0.026049 0.038179 -0.129733 -0.114124 0.028946 -0.124160 0.077547 0.052658 -0.134699 0.062667 0.072863 0.029781 -0.023663 -0.099844
-0.169998 0.002559 -0.003116 0.042647 0.063018 -0.216356 -0.062515 -0.093495 0.047337 0.067902 -0.064350 -0.105753 0.061000 -0.028089 0.023103 0.045071 0.096796 -0.139905 -0.094776 -0.166287 -0.115747 -0.240669 -0.096607 0.020502 -0.095720 -0.041732 0.024891 0.070742 -0.048348 -0.047799 -0.032110 -0.127156 0.112063 -0.040931 0.078457 -0.135402 -0.074983 -0.148581 -0.102806 0.041704 0.054808 -0.050853 -0.006844 0.086189 0.013350 -0.129226 0.044937 0.023584 -0.195690 0.095689 -0.112495 -0.031957 0.158692 0.013783 -0.128978 -0.305980 0.051554 0.100974 0.080807 -0.032260 0.137383 0.037607 0.119750 0.146585 -0.007223 -0.065846 -0.234304 0.113919 0.115496 0.039174 -0.077565 0.013950 -0.130727 0.085922 0.098844 0.061024 0.028794 -0.155183 -0.006328 -0.062912 0.044133 -0.146941 0.089320 0.037217 -0.049138 -0.015728 -0.093286 -0.147268 -0.110907 -0.012028 0.059511 0.136860 0.048693 -0.136590 0.092306 -0.192145 0.166033 0.100944 -0.249366 -0.075975
-0.098429 0.029986 0.078264 -0.091018 0.026217 0.127177 -0.007192 0.095493 0.088974 -0.053167 0.043579 0.120989 -0.153642 0.128046 0.071619 0.007143 0.130028 -0.130715 0.045629 -0.096088 -0.003560 -0.004975 0.130747 0.141191 0.105896 0.069857 -0.093746 0.032117 0.034749 0.072475 -0.220174 0.110000 0.013583 0.205654 0.051884 0.128031 -0.148105 -0.129345 0.076271 -0.169333 0.200548 -0.069008 0.173628 0.004724 0.102688 -0.120310 0.120156 -0.049839 -0.059284 -0.003176 0.056784 0.048968 -0.004879 0.020357 0.132270 -0.031046 0.028315 0.058013 0.135565 -0.064989 0.048333 -0.027152 -0.057875 -0.116620 0.017881 -0.077614 -0.153726 -0.169669 0.021650 0.128722 -0.156520 -0.045714 0.003225 -0.112935 -0.054376 0.159162 -0.099501 0.105340 -0.020404 0.046783 0.002317 0.027440 0.060625 0.043183 0.086313 -0.033670 -0.094826 -0.112872 0.003453 0.034984 -0.148592 -0.059991 0.104690 0.154815 -0.127469 -0.156507 0.136502 -0.039320 -0.079923 0.082006
-0.042282 0.010925 -0.020953 0.006294 -0.097641 0.067030 -0.078087 -0.159412 -0.084305 -0.121151 0.097881 -0.217819 -0.061621 -0.204271 -0.128217 -0.015175 -0.044246 -0.087349 -0.097305 -0.073013 -0.104717 -0.166440 -0.039203 0.035620 -0.083542 0.084442 0.118824 -0.109757 0.057283 0.020039 0.051079 -0.150568 0.003242 0.068952 0.046696 -0.011390 0.094732 -0.306738 -0.042118 0.048164 0.024418 0.024496 0.078920 0.016848 -0.090569 -0.007442 -0.007820 -0.147775 -0.194593 -0.032041 -0.204980 0.040883 -0.091285 -0.047743 -0.150894 0.000885 0.018695 -0.029369 -0.187098 0.057406 0.064503 -0.042239 0.119180 0.094759 -0.092353 -0.182499 0.138269 0.095179 0.127133 -0.140285 -0.200739 0.043981 -0.044227 0.002665 0.017648 -0.003614 -0.134073 0.077471 -0.108519 -0.052340 -0.029980 -0.222180 0.002952 -0.004925 -0.064477 -0.084206 0.020271 0.071649 0.077097 -0.066714 -0.107554 0.006046 -0.121387 -0.097117 -0.089735 -0.075291 0.151770 -0.215967 0.001274 -0.086205
0.007651 -0.112683 0.033511 -0.114354 0.064861 -0.121341 -0.070636 -0.068621 -0.083049 -0.142526 -0.154034 -0.004571 -0.078036 0.011848 -0.047314 -0.089467 0.025681 -0.074566 -0.077468 0.023463 -0.153233 0.033662 -0.136186 0.036400 -0.063513 0.040161 0.043479 -0.042336 0.099024 -0.032951 -0.051878 0.091885 0.040300 0.052571 -0.053913 -0.191580 0.091643 -0.078624 -0.073007 0.076059 -0.081745 -0.060893 0.122936 -0.032437 -0.155303 0.094805 -0.057185 -0.098788 -0.065409 -0.014734 -0.124147 0.082894 -0.067925 -0.007551 -0.023841 -0.003812 -0.053154 0.043305 -0.066906 0.053996 0.071022 -0.054825 -0.068492 0.034503 -0.087631 0.024410 -0.071594 -0.056311 0.099438 0.094475 -0.152528 0.073708 0.070454 -0.054712 0.061257 -0.069394 -0.061007 0.019683 0.047500 0.056936 0.079190 -0.088185 -0.111253 -0.051511 -0.118431 0.049582 -0.008166 0.081546 0.035077 0.028143 -0.172360 0.012583 -0.133943 -0.141864 -0.057481 -0.048888 0.072112 0.072423 0.119356 0.102171
-0.067143 0.012578 0.119153 0.040501 0.034021 -0.048269 0.116379 -0.011303 -0.174743 0.004805 0.013533 -0.226355 0.088587 -0.046152 -0.105519 0.068288 0.003645 -0.011018 0.066374 0.065231 0.013106 -0.063337 0.110974 0.174150 0.110960 -0.050310 -0.291558 -0.029941 -0.139239 -0.029113 -0.017191 -0.076705 -0.210406 -0.051489 -0.093786 0.059203 0.057810 -0.234177 -0.073867 0.034238 0.153044 -0.044427 0.037712 -0.029304 -0.058318 0.128396 -0.010476 0.033909 0.018340 -0.222468 -0.044942 -0.025140 0.023559 0.016442 -0.018035 0.080439 -0.034472 -0.223632 -0.120579 -0.001578 0.065415 -0.069907 0.190720 0.193471 -0.076706 -0.055122 0.106811 -0.064088 -0.014442 -0.161121 0.021355 0.105671 0.046333 0.066094 -0.112363 -0.165004 0.022810 0.025730 -0.044195 -0.074907 -0.135914 -0.202632 -0.035529 0.006392 -0.146552 -0.115769 -0.156161 -0.126605 -0.219635 0.082259 0.113324 -0.273857 -0.223666 -0.016530 0.017403 -0.054110 -0.112988 -0.041187 -0.201746 -0.088745
0.053481 0.092126 -0.078751 -0.154844 0.062931 0.000107 -0.135453 0.101495 0.097505 -0.028309 0.085001 -0.028284 -0.092766 0.109488 -0.011200 -0.084168 -0.009640 0.106788 -0.084704 -0.030144 -0.010470 0.048760 0.036689 0.160694 0.036544 -0.041973 0.076215 -0.013148 -0.086609 0.087483 -0.171844 -0.079914 -0.112456 0.088056 -0.037912 -0.103454 0.101118 0.031079 -0.094319 0.110580 0.047858 0.015417 0.035303 0.105463 -0.080085 0.012785 -0.082536 0.026302 -0.127585 -0.006575 -0.082766 0.020268 -0.046936 0.058994 -0.046270 0.017579 0.070268 0.013298 0.028322 -0.134283 0.026206 0.017798 0.182022 -0.029985 -0.026853 -0.082265 -0.079318 -0.096983 -0.058274 0.029140 0.094776 0.050617 0.042798 -0.077878 -0.115033 0.119033 -0.087931 -0.127644 0.013208 -0.124814 -0.135645 -0.020157 0.034922 0.009337 -0.153214 -0.096047 -0.064148 -0.020913 0.102576 0.009115 0.171812 -0.035834 0.074305 -0.120388 -0.139805 0.027239 0.036382 -0.002083 0.098463 -0.033451
-0.125658 0.025721 -0.003411 0.045038 -0.005744 -0.155697 0.080970 0.108299 0.118670 0.032295 -0.017499 -0.074987 0.113339 0.022552 0.050668 0.001311 0.023917 -0.122001 0.164843 -0.077493 -0.034113 -0.204542 0.032175 0.083811 0.116104 0.055118 -0.086660 -0.075736 -0.119141 0.078847 -0.168135 -0.127573 0.018734 0.074854 0.076474 -0.090565 0.108667 -0.002532 -0.012025 0.250067 0.020334 0.229259 0.140793 -0.094173 0.013388 -0.014197 -0.099804 -0.001264 0.047596 0.076202 0.026177 -0.082770 0.018722 -0.035370 0.170038 -0.039268 0.084889 -0.137857 -0.046520 -0.162807 -0.059390 0.055372 -0.170713 0.068051 -0.036247 -0.192499 -0.034036 0.060080 0.146953 -0.049444 0.030721 -0.112739 -0.007163 0.192221 -0.071930 0.018632 0.091184 -0.036449 -0.118365 -0.001536 -0.030657 0.008506 0.013120 0.076686 -0.081460 -0.115257 0.125429 -0.117823 0.189270 -0.094178 0.153128 -0.007072 0.052734 0.063812 0.029178 -0.067173 -0.009934 0.025961 -0.031756 -0.058940
0.067171 0.306025 -0.074971 0.037124 -0.110206 0.102281 0.006227 0.016321 0.036861 0.166290 0.052468 -0.180473 -0.014328 0.027123 0.079040 -0.083203 -0.122417 -0.008264 0.213802 -0.037237 -0.005620 -0.171780 -0.014229 -0.133741 0.091437 0.098764 0.098009 -0.023663 0.147896 -0.018069 -0.026171 -0.041654 -0.028089 0.122869 0.051945 -0.110753 -0.117115 -0.018224 -0.145037 -0.010006 -0.103343 -0.055331 -0.149290 0.051797 -0.006104 -0.038895 0.013206 -0.106328 0.020137 -0.031935 0.026204 -0.004487 -0.104227 0.086234 -0.016094 -0.009161 0.097199 -0.132830 0.005746 -0.146158 -0.119505 0.012920 -0.253212 -0.086041 0.067641 0.040831 0.064381 0.009303 0.153890 0.001503 -0.047879 -0.143089 -0.037586 -0.167634 0.083005 -0.004482 0.115712 0.040440 0.045725 0.042555 0.040378 -0.035846 0.265818 0.247403 0.025431 -0.149411 -0.023111 -0.172614 -0.042682 0.081794 -0.091762 -0.073173 0.037689 0.042664 0.092952 -0.139063 -0.144230 -0.204410 -0.029865 -0.016085
0.103988 -0.105675 -0.175754 -0.013812 -0.116590 -0.074522 -0.196821 -0.186766 -0.156993 -0.122922 -0.014682 -0.134015 -0.112334 -0.198069 -0.064605 0.052248 0.005720 -0.050971 -0.024596 -0.038071 -0.131494 -0.096156 -0.063844 -0.049541 -0.241276 0.069968 0.051445 -0.053562 -0.124870 0.006625 0.118745 -0.173139 -0.145545 -0.052756 -0.042195 -0.062071 -0.073246 0.008096 0.108898 -0.039818 -0.028994 -0.024532 0.142100 -0.117651 -0.031914 0.022458 -0.184391 -0.043215 -0.119015 0.053834 -0.157850 -0.024077 0.087647 -0.163569 -0.191846 -0.144392 -0.006739 0.074244 -0.033450 -0.127271 -0.082327 -0.230588 0.075478 -0.032394 0.020975 0.100725 -0.101334 -0.034269 0.061490 -0.053871 -0.000522 0.125066 -0.200551 0.096454 -0.004544 0.180938 0.070931 0.029775 -0.161149 -0.159872 0.021048 0.037678 0.052305 0.022744 -0.127671 -0.061675 -0.162987 0.001336 -0.019043 -0.006796 0.006135 0.062253 -0.094911 0.021195 -0.135810 -0.010772 0.041912 0.019598 -0.246418 -0.013904
-0.111979 0.058312 -0.144367 -0.163033 -0.048668 0.152855 -0.102013 -0.074328 0.057406 0.026065 -0.025411 -0.022104 -0.050359 0.077035 0.070484 0.187421 0.031471 -0.077927 0.003066 -0.003898 -0.117905 0.055834 0.059823 -0.114306 -0.228146 0.094093 0.041868 -0.024559 -0.115011 0.054889 -0.120031 -0.091964 0.027823 -0.235487 0.095878 0.075302 0.104675 -0.082231 0.130647 -0.018604 -0.125066 0.042757 -0.008470 -0.125221 -0.048645 -0.118019 0.017308 -0.019881 -0.075662 0.021287 -0.110151 0.093454 0.027456 0.109405 -0.103578 -0.083183 -0.046983 -0.124742 -0.014224 0.049919 -0.100541 0.053850 0.038021 0.052928 -0.038521 0.189624 -0.032118 0.036007 0.188714 0.039279 -0.043627 -0.061831 0.075039 -0.058657 0.013910 -0.018092 -0.049833 -0.026906 -0.048408 0.018521 -0.149283 0.099766 0.069429 0.043739 -0.038843 -0.137137 0.026410 -0.116135 0.155050 -0.032802 0.022136 0.189599 -0.106453 0.293769 0.026110 0.045093 0.097015 -0.184090 -0.096473 0.122263
-0.043888 -0.029548 0.036445 -0.173654 -0.028197 -0.118310 -0.063935 -0.030982 0.138088 0.076165 0.054318 -0.126880 0.062370 0.012236 -0.022324 -0.050525 0.072376 -0.060464 -0.030124 -0.110212 0.017504 -0.137132 0.062891 -0.020610 0.002978 -0.192397 -0.059951 0.015964 0.077046 -0.080504 0.164744 -0.116984 0.029297 -0.162912 0.038175 -0.043002 -0.007944 -0.100983 -0.150644 -0.085599 -0.129619 -0.176377 -0.174434 -0.120140 -0.099149 -0.176567 0.011171 0.051415 -0.143029 0.061778 -0.067908 0.017117 -0.000515 0.127167 -0.054167 -0.124776 -0.011574 -0.079223 0.079696 -0.110150 0.119437 0.021597 -0.142516 0.088727 0.117467 -0.037211 -0.049245 0.000961 -0.008168 0.103151 -0.226108 -0.007398 -0.155479 0.031429 -0.069521 0.058195 -0.012828 0.023036 -0.061635 0.081813 -0.040029 0.131727 0.123584 0.125471 0.124609 0.000653 0.106817 0.112773 0.109421 0.141541 -0.089130 0.107365 -0.130120 -0.110392 0.109576 0.049918 -0.063096 0.170167 -0.051224 -0.085568
-0.071278 0.003439 -0.049624 -0.074706 0.003386 0.251901 -0.108176 0.139223 -0.124240 0.041262 -0.118640 -0.079178 -0.008686 -0.070719 -0.110057 -0.055745 -0.078729 -0.034036 0.000182 -0.105711 -0.055423 -0.146196 -0.118435 -0.042815 0.053651 0.035775 -0.088479 -0.138024 0.097330 0.137388 0.115462 -0.057219 -0.067781 -0.082633 0.051960 -0.137455 0.136773 -0.196803 0.097003 -0.211877 -0.047925 -0.167697 0.188865 -0.056063 0.088226 0.035482 -0.067703 -0.121177 -0.007312 0.037732 -0.058070 0.043859 -0.074538 -0.141546 -0.054983 -0.069681 -0.090666 -0.015952 -0.075067 0.136467 -0.073620 -0.086137 -0.096336 -0.141307 0.050790 0.008173 -0.269373 -0.077565 -0.064147 0.045713 0.142244 0.113484 -0.190523 -0.004924 -0.108072 0.112777 -0.094660 -0.008941 -0.122615 -0.040901 0.011437 -0.117895 -0.157524 -0.026859 0.148242 -0.114646 -0.186337 0.068742 -0.133537 0.064974 -0.043658 -0.069452 0.015960 0.164066 0.022480 0.061245 0.011302 0.046633 -0.141719 -0.039852
0.032610 -0.092891 -0.016506 -0.139596 -0.094470 -0.027428 -0.030657 -0.147635 0.062200 -0.081346 -0.087152 0.045371 -0.074771 0.126196 -0.054763 0.062931 0.051159 0.002084 0.019356 0.002001 -0.040945 -0.090814 -0.050981 0.024442 0.104785 0.025844 -0.160083 0.010408 -0.124310 -0.041228 -0.056634 0.007661 -0.253784 -0.039598 -0.055181 -0.145999 0.085844 0.091575 -0.106718 -0.074742 -0.040032 0.145545 -0.131798 -0.008886 0.013141 -0.025524 -0.209921 -0.168255 -0.169448 0.036819 -0.100483 -0.106889 0.101269 -0.177594 -0.056628 -0.049825 0.019347 -0.010016 -0.098057 -0.255147 -0.021250 0.033558 0.114188 0.039062 -0.010729 0.046568 -0.076930 -0.190996 0.029604 -0.043339 0.067637 0.073917 -0.068022 -0.000010 -0.100648 -0.052004 -0.106662 0.008451 -0.116296 -0.152626 0.026412 0.015400 -0.087826 -0.173822 0.064917 0.076079 -0.181413 -0.171477 -0.170833 0.038592 -0.015501 0.056655 -0.032805 0.030166 -0.010061 -0.050350 -0.075350 -0.108105 -0.124258 -0.015476
-0.046524 -0.155985 0.020362 -0.013648 -0.101632 -0.063272 0.076923 0.034951 -0.010061 0.016388 0.033760 0.029424 0.140630 -0.034862 -0.033129 -0.091505 -0.125768 0.149328 -0.012461 -0.031087 -0.258123 -0.238046 0.126856 0.041404 0.008753 -0.009018 0.104726 -0.006138 -0.093584 -0.131837 -0.098695 0.070236 -0.061936 0.079915 -0.077784 0.025977 -0.011612 0.058653 0.000513 0.009797 0.123633 -0.050976 0.120914 -0.040856 -0.058109 0.096797 0.162862 0.121620 -0.147484 -0.015325 -0.107664 0.015727 0.036627 0.173941 0.074672 -0.000158 -0.054253 -0.074155 0.183696 -0.022282 -0.027665 -0.128957 -0.234030 -0.086025 -0.081571 -0.022732 -0.023013 0.087741 -0.120359 0.013023 0.030566 -0.152526 0.097794 -0.065885 0.027480 0.157426 -0.028348 -0.017189 0.020934 -0.005677 -0.074963 0.145242 -0.014980 -0.098137 -0.162491 -0.039690 0.079915 -0.114613 -0.004760 -0.039139 -0.122910 -0.060180 0.204056 -0.049179 -0.083607 -0.045501 0.022456 0.089012 0.115843 0.056844
-0.005623 0.108631 0.126920 -0.024239 -0.098163 -0.002946 -0.039520 -0.156422 -0.118799 0.049370 0.026187 -0.089643 -0.181529 -0.177131 -0.127187 0.037883 -0.072699 0.035751 0.031951 0.048505 -0.044169 -0.095377 -0.032656 0.135294 -0.097802 0.008271 -0.028463 -0.095902 0.039454 0.059879 0.016118 0.015936 0.133955 -0.183351 0.076377 -0.067147 0.005638 0.020708 -0.032788 0.025713 -0.050965 0.021551 -0.064447 0.076784 0.057440 -0.031330 0.102689 0.111358 -0.165708 -0.167814 0.041028 -0.218736 -0.176335 0.040303 -0.110892 -0.024843 0.047793 0.050576 -0.174152 -0.244929 -0.113875 0.058058 -0.016098 -0.100951 0.010833 -0.033061 -0.031805 0.042489 0.084985 -0.039632 -0.132698 0.010388 -0.079848 -0.118979 -0.053969 -0.120653 -0.010876 -0.053078 -0.182982 0.077198 -0.038798 -0.103122 0.049086 -0.165143 0.028238 -0.130173 0.060412 0.018988 -0.128760 0.029960 0.016498 -0.069358 -0.159932 -0.147163 -0.083153 -0.081756 -0.069016 -0.050211 -0.023809 0.024192
-0.099226 0.135873 -0.021111 0.086298 -0.338538 -0.144061 -0.064353 0.053886 0.062856 -0.118788 0.117714 0.032296 -0.075615 -0.175099 0.037266 -0.063771 -0.236693 -0.037106 -0.089812 -0.032207 -0.146048 0.050951 -0.151090 0.093783 -0.058071 -0.089637 -0.098232 -0.037607 -0.021832 0.035472 0.108496 0.039056 0.045647 0.054327 -0.179342 -0.188099 -0.018973 -0.029125 0.014598 -0.131701 -0.098609 -0.006950 0.029285 -0.099065 -0.129678 -0.121068 -0.097166 0.023221 -0.086659 -0.055799 -0.097083 -0.181942 -0.314760 -0.003052 -0.026148 0.023055 -0.201826 0.057374 -0.023862 -0.142309 -0.090189 -0.036428 -0.038647 -0.105020 -0.199746 -0.181166 -0.110983 -0.200983 0.077441 -0.034473 0.077581 0.102919 0.123482 0.071355 -0.142194 -0.045563 -0.167576 -0.060110 -0.171246 -0.074608 -0.170250 -0.096232 0.066490 0.101449 -0.007581 0.031358 0.082484 0.033264 -0.016078 0.052669 -0.039982 -0.068260 -0.187835 0.036703 -0.050325 -0.017542 0.002875 -0.226480 -0.056470 -0.180320
0.110613 0.081706 -0.042032 0.111423 -0.094078 -0.016208 0.097537 0.025208 0.042369 0.007058 0.052836 -0.030956 -0.148550 0.035911 -0.036915 0.182464 0.109291 0.103885 0.012956 -0.064050 0.127453 -0.219792 0.029846 -0.188932 -0.010815 -0.107764 0.075939 -0.028949 0.074846 -0.070714 0.148069 -0.108638 -0.009075 0.049184 0.058344 0.026748 -0.086778 -0.006858 0.044637 -0.042804 -0.134007 -0.155536 0.021676 -0.094638 -0.025523 -0.247103 -0.014627 0.002253 -0.123859 -0.107788 0.005418 -0.115417 0.075747 0.026167 -0.151887 -0.194461 -0.149517 0.112675 -0.049829 -0.092119 -0.117894 -0.118992 -0.023295 -0.003670 -0.025264 -0.064429 -0.049960 -0.065777 0.152320 0.010834 -0.001333 -0.047878 -0.111401 0.058230 -0.096942 -0.101843 -0.106179 -0.121895 -0.061085 0.068228 -0.060503 0.004315 -0.044684 0.059450 0.143936 -0.001073 -0.042546 -0.123074 -0.079361 -0.080367 0.021604 0.032426 -0.012683 -0.146021 0.009499 0.007540 0.190832 -0.015785 -0.115890 0.154478
-0.153188 0.041002 0.116644 0.138814 0.009318 0.019484 0.015795 0.115572 0.019623 -0.119146 -0.218083 -0.068904 0.039937 -0.063505 -0.110838 0.062493 -0.106358 -0.106185 -0.200640 -0.090813 -0.120081 -0.037299 -0.134100 -0.088488 -0.088745 -0.013809 -0.118892 -0.049383 0.024517 -0.035696 0.050587 0.097819 -0.180363 0.083600 0.102467 -0.033374 -0.071576 -0.070749 -0.069058 0.026145 0.038348 -0.188831 -0.013621 -0.146750 -0.051727 -0.013459 -0.046346 -0.181713 0.209366 -0.068513 -0.106265 -0.223069 -0.111601 -0.195093 0.014354 -0.042973 -0.058292 0.106703 -0.096870 0.145140 -0.029512 0.110570 0.145086 0.064615 -0.125669 0.025449 0.121098 -0.065532 -0.188773 -0.107030 -0.129257 0.156326 -0.138076 -0.196577 0.006354 -0.077701 -0.124495 -0.071848 -0.096451 0.063486 -0.127138 -0.049227 0.024657 0.070310 0.035430 0.049780 0.066342 -0.101833 0.030537 -0.067135 -0.227344 0.047340 -0.026157 -0.158584 -0.017127 0.017725 -0.157940 -0.155303 0.055057 -0.032114
