-0.123745 -0.095194 -0.018797 0.000197 0.042299 0.033450 -0.060094 0.115212 0.022165 -0.074772 -0.137000 0.020944 -0.191396 -0.118002 -0.014071 0.058014 0.041857 -0.050125 -0.283686 0.102050 0.079149 0.072865 0.133890 -0.252974 -0.002973 0.011385 0.159405 -0.188258 0.131682 -0.048543 0.165853 0.100606 -0.123489 -0.090992 0.074831 -0.050463 0.101546 0.013622 0.199120 0.011441 0.161672 0.026371 0.005827 -0.188903 0.020971 0.005964 0.266922 0.095632 -0.156070 -0.367324 -0.047394 0.137661 0.026113 -0.031662 0.291547 -0.151092 -0.171589 -0.218566 -0.110601 -0.321043 -0.065195 -0.043223 -0.287305 -0.435598 -0.061797 -0.096331 0.008878 0.042627 0.153532 0.145586 -0.092769 0.083481 -0.003627 0.240445 -0.095126 -0.038624 -0.363147 -0.111896 -0.004038 0.076900 -0.087289 -0.034404 0.105799 -0.122690 -0.126410 0.013209 0.110648 -0.020820 0.036944 -0.194813 -0.218227 -0.071949 -0.195394 -0.138393 -0.030115 0.095085 0.038030 -0.002263 -0.010795 -0.062991
-0.091696 0.066691 -0.068853 -0.096244 -0.163945 -0.186601 -0.245224 0.022265 0.014781 -0.213630 0.037466 -0.313437 -0.107861 0.119917 -0.234006 0.083548 -0.176451 0.025432 -0.105831 -0.066908 -0.193688 -0.013126 0.013554 -0.183912 0.097139 -0.033642 -0.084722 0.160100 -0.125598 0.002429 -0.068432 -0.144769 -0.066429 -0.091291 -0.077370 0.071057 -0.016230 -0.253536 -0.237866 -0.021904 -0.127523 0.072171 -0.220401 -0.078109 -0.023057 0.094490 -0.111177 -0.022087 -0.203852 0.007553 -0.217231 0.017585 -0.187858 0.021004 0.024696 -0.045917 -0.030835 0.117133 0.040436 -0.129010 -0.060861 0.109865 0.049677 -0.028609 0.075544 -0.109032 -0.159700 -0.084176 -0.121889 -0.134181 0.006290 0.121951 -0.058461 0.099957 0.052472 -0.165399 0.019209 0.123302 0.132315 -0.144489 -0.098329 -0.175221 -0.257926 0.065149 0.150151 -0.194896 -0.000158 -0.096024 0.044495 -0.063499 -0.288827 0.021359 0.029493 0.045768 -0.254099 -0.080586 -0.090500 -0.080872 -0.203472 -0.050254
0.081026 -0.017589 -0.087645 -0.073195 -0.061990 0.203881 -0.080928 -0.070403 -0.018372 0.142244 0.104848 0.012606 -0.329603 0.004364 0.261162 0.065717 -0.079336 -0.063828 0.032983 -0.249912 0.000386 -0.061332 -0.018819 0.028187 0.141072 0.179974 -0.030182 -0.065865 0.109813 -0.356221 0.101508 0.046111 -0.078879 -0.095874 -0.017329 0.060758 -0.083546 -0.101419 -0.173195 -0.035689 -0.217855 -0.018107 0.137483 -0.009274 0.086754 0.029010 -0.122268 -0.030225 0.144278 0.063561 -0.137102 -0.227781 -0.128249 -0.003165 0.111147 -0.043557 -0.038221 -0.258019 -0.222565 0.017316 -0.141556 0.016352 -0.132656 0.001622 -0.072823 -0.063011 -0.101884 0.002168 -0.204021 -0.068719 0.082886 0.021107 -0.215504 0.125777 -0.038842 -0.018229 0.129428 -0.140460 0.067073 0.032470 -0.183631 -0.077964 0.050667 -0.041919 0.128544 -0.173569 -0.007091 -0.100625 -0.100806 0.124876 0.039522 -0.054369 -0.127786 0.107266 0.107644 -0.338090 0.044521 -0.075581 -0.147272 -0.017196
0.059015 0.054713 -0.134869 -0.002220 -0.046069 0.141783 0.191702 -0.215727 0.009305 -0.188834 -0.149212 -0.178369 0.081932 0.048539 -0.160234 -0.179277 0.008105 -0.267058 0.090410 -0.289858 -0.146896 -0.177195 -0.035568 0.027720 -0.100380 0.020619 0.183586 0.207365 0.139435 -0.046050 -0.206468 -0.104819 -0.159477 -0.204688 0.143668 -0.169720 0.263268 -0.066037 -0.040677 -0.100413 -0.286944 0.142038 -0.016257 -0.052520 -0.356028 -0.206805 -0.271359 -0.147013 0.048431 -0.116495 0.092127 -0.042761 -0.072924 0.019661 0.041415 -0.126368 0.115835 0.016400 0.249960 0.165966 0.087572 -0.071287 0.224497 -0.229163 0.333015 0.150279 0.172153 -0.034900 0.133293 -0.163723 -0.085358 -0.007571 0.028092 0.130911 0.163865 -0.043825 0.092714 -0.081415 0.120944 -0.209504 -0.110513 0.077034 -0.000526 -0.099872 -0.116535 0.044565 0.037305 -0.056821 0.169598 -0.055469 0.093983 0.009369 0.180006 -0.087107 0.041454 0.282027 0.064918 -0.050914 -0.134970 0.036117
-0.150106 0.054866 -0.077982 0.006599 -0.009101 0.009317 -0.154268 -0.186669 0.223517 0.132918 -0.058508 -0.206553 0.046549 -0.093068 0.064198 0.303648 0.027665 -0.214150 -0.064870 0.215028 -0.165189 0.099892 0.014503 0.086670 0.060185 -0.057049 -0.013863 -0.069578 0.178893 -0.138225 -0.063603 -0.079376 0.121390 -0.063934 0.099642 -0.022653 -0.030853 0.311358 0.119196 0.064123 0.101827 0.057376 -0.099379 0.081946 -0.084706 0.159782 0.001881 0.009462 0.179687 0.066941 -0.074473 -0.027153 0.116480 -0.021868 0.013782 -0.145866 -0.003799 -0.266410 -0.128372 -0.100250 0.119352 0.074314 -0.209374 -0.031922 0.037674 -0.076631 -0.041653 -0.001960 -0.426091 0.063201 -0.031183 0.057661 0.045710 0.164988 -0.077891 0.077136 -0.097381 0.082595 0.086669 -0.092520 -0.147530 -0.041400 -0.019732 -0.091501 0.015921 0.286995 0.139379 -0.110407 -0.146226 0.068773 -0.188554 -0.034033 -0.078267 0.160579 0.038358 -0.019908 -0.161751 -0.002100 -0.216728 0.000849
-0.278379 0.177922 -0.015238 -0.079497 -0.191944 0.109087 -0.252463 -0.204715 -0.293191 0.119699 -0.049020 0.235072 0.259799 0.047931 0.162586 0.057834 0.016467 -0.112050 0.176500 0.172215 -0.068452 0.179990 -0.061935 -0.088790 0.199473 -0.237908 -0.180254 0.156816 -0.038226 -0.107637 0.240471 -0.228965 -0.035971 0.000228 -0.044939 0.252419 0.120980 0.145406 -0.248506 -0.105029 0.149369 -0.553362 -0.059574 -0.164468 0.074884 -0.032073 0.040779 -0.028124 0.244815 -0.059797 -0.019884 0.181960 -0.117174 0.079699 -0.014311 -0.096126 -0.062167 0.273982 -0.167330 -0.060088 -0.032188 -0.040372 -0.003664 0.119325 -0.196648 0.215517 -0.136949 -0.003438 -0.118861 0.051232 -0.230933 0.203511 0.273927 -0.122749 -0.093757 0.119554 -0.158140 -0.029936 0.175330 0.055248 -0.101461 -0.031538 0.160475 0.039877 -0.263595 -0.161659 -0.193509 0.014993 -0.077037 -0.086886 0.082005 -0.306135 -0.011741 0.069709 0.066605 -0.155729 0.120656 -0.124585 -0.079901 -0.004241
-0.082724 -0.186899 0.118666 -0.006775 -0.091791 0.054477 -0.255538 0.153532 -0.010598 -0.045217 0.222363 0.194279 -0.199545 0.011814 -0.014962 -0.146887 -0.204829 0.131189 -0.125594 -0.000687 -0.260045 0.150535 -0.060682 0.190257 0.055944 -0.078279 0.177595 -0.082565 -0.102184 0.063441 0.043813 0.197965 -0.055142 0.095207 -0.157446 -0.202573 0.032629 -0.006924 0.072290 0.101954 -0.100657 -0.028962 -0.101638 -0.099480 0.246041 0.043779 0.344465 0.302602 -0.233305 0.097480 -0.081580 -0.037467 -0.108319 0.002107 0.232488 0.044882 -0.086128 -0.221890 -0.245698 0.097746 0.005987 -0.057350 -0.016223 0.067948 0.025238 -0.225533 0.137536 0.058925 -0.070593 -0.114979 -0.024622 0.280402 0.032551 -0.079903 0.159594 0.087683 0.102130 -0.178035 0.106693 -0.034213 0.425199 -0.071674 -0.028811 -0.099384 -0.058980 -0.248762 0.111727 0.072504 -0.107326 0.145636 0.223577 -0.051700 -0.004764 -0.053611 0.085650 0.219024 0.022145 0.001638 -0.133186 0.014439
0.144878 -0.024812 -0.071290 -0.017762 -0.027684 -0.122133 0.021182 0.011507 0.049722 -0.247351 -0.104764 -0.190357 0.044866 0.175155 -0.010117 -0.057480 -0.151807 -0.215372 0.110598 0.146119 0.089148 -0.066398 -0.145405 0.036467 0.022616 0.091283 -0.038456 -0.202808 0.006016 0.002241 -0.081980 0.063910 0.033049 -0.035563 -0.061810 -0.036983 -0.144272 -0.334622 -0.026689 -0.120075 -0.197353 0.192380 -0.267498 0.073147 0.058717 0.109182 -0.159718 0.102695 -0.076375 -0.059710 0.127305 0.196329 -0.068258 -0.024624 -0.060182 0.248262 -0.103840 0.042641 0.109787 0.071259 -0.037783 0.111029 0.061579 -0.050604 -0.223055 -0.075900 0.106117 0.071576 -0.053664 -0.093516 0.097189 -0.131007 0.093450 0.232773 0.028644 0.021873 -0.190517 0.035822 0.070571 -0.220418 0.134400 -0.002182 -0.192155 -0.145808 0.096259 -0.041319 -0.247616 0.012049 0.010523 -0.011033 -0.136450 0.040698 -0.151563 0.030519 -0.091280 -0.067172 -0.104763 0.034257 0.219585 -0.042012
0.163358 0.166726 0.070225 -0.021526 -0.062116 0.009455 -0.045184 0.003471 -0.012745 0.067894 -0.058819 0.124922 0.128598 -0.104289 -0.032399 0.165400 0.028748 0.002651 -0.397782 -0.160423 -0.258850 0.015637 0.003174 -0.225411 0.033262 -0.377502 -0.488995 -0.039200 -0.253112 0.049488 0.015416 0.136348 -0.144523 -0.225961 -0.147796 0.140774 -0.171847 -0.042715 -0.200791 0.065692 0.062842 -0.360061 -0.095907 -0.301967 -0.058030 0.040292 0.010229 -0.202446 -0.372724 -0.187419 -0.070988 -0.018048 -0.074287 -0.055819 -0.062247 -0.144584 -0.218573 0.253034 -0.241686 -0.023417 -0.038456 -0.032351 0.078523 -0.035320 -0.255363 0.202817 -0.030561 0.026937 0.011383 0.138744 -0.158283 -0.052574 -0.112294 -0.094201 0.074610 0.168158 -0.306284 -0.351843 -0.031085 -0.301083 -0.053593 0.151777 0.126496 -0.098774 0.009069 -0.076374 -0.030885 -0.232503 -0.141729 0.117257 0.202526 -0.119170 0.056487 -0.355069 -0.203825 0.009962 -0.043656 -0.085497 0.097493 -0.006390
-0.087006 -0.202880 -0.241677 -0.186770 -0.099564 -0.220186 0.183541 0.012732 0.361734 -0.244649 0.235373 0.108651 -0.255188 -0.247670 -0.092798 0.041532 -0.113804 0.074853 -0.247580 0.017716 -0.143469 0.004673 -0.166388 -0.091694 -0.092680 0.110765 -0.220708 0.051825 0.030839 -0.226836 0.297002 -0.183503 0.047890 -0.097971 -0.229440 -0.006077 -0.092148 -0.227502 0.276340 0.056994 0.184649 -0.002601 -0.050911 -0.034425 -0.269909 -0.232088 -0.105123 -0.083035 -0.132107 0.217566 -0.234625 -0.274652 -0.060302 -0.017437 -0.034849 -0.128135 -0.134832 -0.003268 -0.444831 -0.265712 -0.143040 -0.154633 0.139747 0.072848 -0.021949 0.013699 0.121154 -0.093680 -0.031828 -0.051541 -0.038959 0.090904 -0.180557 0.174507 0.178958 -0.106517 -0.194267 -0.315580 -0.047420 -0.031070 -0.212931 -0.129146 -0.145781 0.057979 -0.058001 -0.138818 0.036877 0.080821 -0.121099 0.282761 0.017260 -0.060252 0.040129 0.081173 0.108615 0.030363 -0.031865 -0.055368 0.001169 0.000837
-0.020440 0.082004 -0.199886 -0.207001 -0.108395 -0.000105 0.045294 0.002751 0.122363 -0.325404 -0.203351 0.078807 0.018317 0.117604 -0.096033 0.085811 -0.249591 -0.081625 0.059811 0.088433 -0.110044 -0.192633 -0.047194 0.002909 0.048113 -0.038755 0.021030 0.065032 -0.058744 -0.106508 -0.117303 0.205132 -0.044876 0.113722 -0.060526 -0.314447 -0.086502 -0.021806 -0.019048 -0.142340 -0.214021 0.067030 0.076870 0.118908 0.053734 0.059702 -0.030678 -0.242334 -0.049225 0.263311 -0.142829 0.051666 0.087936 -0.000048 -0.106350 -0.015286 -0.207486 -0.038319 -0.021415 -0.030750 0.127699 -0.218554 0.066945 -0.063469 0.167680 -0.190384 -0.134385 -0.114312 0.138174 0.009200 -0.027332 -0.063971 -0.007262 -0.069589 -0.045650 -0.037101 0.196174 -0.100423 0.033537 -0.132632 -0.237459 -0.051052 0.266527 0.117498 0.045059 0.199473 0.164892 0.010185 -0.108140 -0.147247 -0.006403 -0.101247 -0.209090 -0.020893 0.018722 -0.088234 0.089856 -0.001638 0.096507 -0.147047
0.018951 0.219129 -0.092040 -0.023295 0.113183 0.008738 0.291099 0.068232 0.108504 -0.172732 0.150365 0.106583 -0.098499 0.036147 -0.189182 0.238628 0.202601 -0.245630 -0.122110 -0.148259 -0.155843 0.060037 -0.028980 0.111945 -0.024668 0.045847 0.016639 0.220680 -0.027353 -0.139306 0.138830 -0.185382 0.293285 -0.091012 0.049655 0.109546 -0.214821 -0.028239 -0.007095 0.137331 0.167175 -0.072171 -0.061944 -0.037297 -0.066974 0.088160 0.143251 0.045371 0.015949 0.033842 -0.025203 -0.056201 0.027916 -0.000000 -0.046141 0.109940 0.017816 -0.042203 0.061843 0.023986 0.030883 0.061560 -0.015553 -0.100587 -0.108931 0.288027 0.008735 -0.007045 0.018220 0.104730 -0.068081 -0.172100 -0.258907 0.074886 -0.126699 0.248250 -0.004147 -0.084070 0.000397 0.245074 0.076750 -0.360769 0.014523 -0.028580 -0.129847 0.073890 -0.118783 -0.090588 0.071633 0.048003 -0.267499 0.350389 -0.066114 -0.200495 0.000318 0.060725 0.019274 -0.011603 0.234327 -0.000886
-0.007171 -0.052787 -0.140265 0.063274 0.002746 -0.162211 -0.094010 -0.009694 0.097690 -0.092619 0.097897 -0.227494 -0.022587 0.069770 0.014463 -0.064316 -0.250577 0.062323 -0.185424 0.018696 -0.106280 0.074829 -0.064743 -0.118904 -0.009523 -0.051632 -0.059927 -0.119154 0.045419 -0.102535 -0.019532 -0.071201 0.110286 -0.141118 0.071634 -0.053942 -0.116494 -0.184070 0.105800 -0.127369 -0.163035 -0.019593 -0.286895 -0.144712 -0.004558 -0.012822 -0.277471 -0.162934 0.115448 -0.093662 -0.068638 0.145634 0.010713 -0.006280 0.011918 0.009719 0.067864 0.216017 -0.057704 -0.006393 -0.048157 -0.167364 0.073911 -0.046843 -0.183111 0.114683 0.151539 0.026983 -0.019093 0.125016 0.110791 -0.033215 -0.184546 0.054345 -0.064724 0.025126 -0.087876 -0.003409 -0.070952 -0.018777 0.030674 0.096782 -0.140745 0.272468 0.109322 -0.072953 0.038245 -0.219356 0.059132 0.032533 -0.238327 -0.006783 0.024550 -0.211040 0.018345 -0.329127 -0.211128 0.038171 -0.032726 0.055771
-0.080422 -0.173600 -0.009836 -0.015442 -0.075907 0.033562 -0.000196 0.000943 0.127197 0.034484 -0.056859 0.114370 0.065394 -0.238174 -0.120903 -0.165323 -0.134353 -0.003834 0.083693 -0.121581 0.020605 0.012861 -0.090971 -0.134232 -0.329420 0.029448 -0.064294 -0.017118 -0.091667 0.089606 0.103259 0.188044 0.004517 -0.000387 0.060646 0.087925 -0.028634 -0.055910 -0.121428 -0.008101 0.202914 0.045635 -0.021435 0.014482 -0.089971 -0.022600 0.052998 -0.036229 0.071028 -0.068700 0.094313 0.123962 -0.074886 -0.000015 -0.173836 -0.035445 0.000077 -0.038044 0.284863 -0.097854 0.000000 0.128212 -0.003601 0.021759 -0.138679 0.032710 0.023683 0.046330 0.046044 -0.011292 -0.186436 -0.037266 0.131635 0.095271 0.127628 0.052256 0.093651 0.038114 0.102219 0.073491 0.003611 -0.077286 0.013517 -0.130832 -0.051142 -0.060835 -0.031656 0.001169 0.046216 0.079957 -0.064404 -0.073675 0.111374 -0.000023 0.013721 -0.024008 0.077560 0.027260 -0.234542 0.000733
0.235002 0.090920 -0.090181 -0.034362 -0.010430 0.129437 0.171561 0.106327 0.010477 -0.220275 -0.078382 0.059224 0.235713 -0.287390 0.042672 0.047642 0.068751 0.028571 0.099309 0.010100 -0.142474 0.034566 -0.091575 -0.020901 -0.046274 0.087398 -0.152404 -0.088770 -0.090464 0.106629 -0.135213 0.108742 -0.096582 -0.055737 -0.016142 -0.107895 0.211749 0.052569 0.030347 0.078597 0.019062 0.073247 -0.084021 0.044049 0.080364 -0.090609 0.083740 -0.000902 0.069070 -0.090122 -0.039627 0.197869 0.033163 -0.062295 -0.170278 -0.102788 -0.018808 0.108384 0.075967 0.145723 -0.049344 0.101753 -0.077275 -0.060193 -0.119598 -0.180408 0.005223 0.152425 0.107338 0.117503 -0.049067 0.060811 0.112100 0.111405 0.070500 -0.298643 -0.132138 -0.305601 0.013606 -0.217349 -0.091271 -0.164604 0.032119 -0.027089 0.101953 0.062768 0.204435 -0.013055 -0.024819 -0.131009 0.094355 -0.053067 -0.179851 -0.160635 -0.070705 -0.121119 0.081099 -0.085781 -0.021184 -0.093602
-0.002803 -0.110464 0.063576 -0.024726 0.022154 0.132743 0.118869 -0.077025 0.037082 -0.078441 -0.152048 0.041616 -0.164460 -0.168598 -0.098165 0.106181 0.089466 -0.025163 0.059161 -0.003585 -0.177574 0.090861 -0.083715 -0.104569 -0.005783 0.257246 0.190119 -0.071290 -0.102725 -0.141355 -0.277440 -0.059849 -0.154508 -0.018159 -0.089014 0.197560 -0.043740 -0.167031 0.115032 0.039587 -0.115024 0.006829 -0.055993 -0.147765 -0.102797 0.100371 0.143866 -0.237641 -0.074870 0.166957 -0.086405 0.047486 0.035812 -0.003686 0.026910 0.060569 0.235887 0.098222 -0.161581 -0.125130 -0.145871 -0.132468 -0.046749 -0.024039 0.243920 0.032716 0.019479 -0.014885 0.067840 -0.075366 0.086316 -0.009489 0.064475 -0.020822 -0.009340 -0.024890 -0.186330 0.162523 0.117354 -0.253172 0.030174 0.008297 0.114506 -0.117550 -0.047328 -0.013147 0.012392 -0.027619 0.026761 0.019019 -0.021700 -0.082247 0.264725 -0.122630 -0.009719 0.229160 -0.023743 -0.002773 -0.094580 -0.066343
-0.145676 -0.296195 -0.012908 -0.116659 -0.083796 -0.028544 -0.404142 0.082927 0.023176 0.111090 -0.032522 -0.056724 0.055881 0.106784 0.111861 0.012082 0.072950 0.111782 -0.096038 -0.176356 -0.154248 0.164584 -0.171291 0.067933 0.013383 -0.262367 0.159586 0.039090 -0.093861 -0.265838 0.232033 -0.008982 0.081060 -0.018835 0.014032 -0.323762 0.025108 0.060192 -0.107002 0.228680 0.025030 -0.338046 0.156682 -0.076470 0.231834 -0.140409 -0.095934 0.093863 -0.013073 0.100608 -0.047241 -0.091562 -0.026824 0.000797 0.377843 0.018171 -0.009607 -0.046794 -0.227892 -0.132111 0.131546 0.092882 -0.148007 0.014172 -0.147069 -0.033254 -0.015171 0.142240 -0.056303 -0.144730 -0.361086 -0.105097 -0.262853 0.141930 -0.050800 -0.059562 -0.094559 0.103662 0.086678 -0.089649 -0.192930 -0.056845 -0.091113 0.102322 0.129800 -0.079391 -0.081046 0.047857 0.000126 -0.193083 -0.170069 0.005741 -0.043368 -0.017565 -0.193046 0.035940 0.006518 0.033625 0.009108 0.005071
0.050229 -0.067983 -0.150616 -0.028870 -0.190957 0.026233 0.119661 -0.218416 -0.047888 0.102336 0.128982 -0.108065 0.018003 0.186636 0.048542 -0.063055 -0.186783 -0.074754 -0.109190 -0.210991 -0.040547 -0.101527 0.097456 0.024789 0.049305 -0.158044 -0.139737 -0.095843 -0.171028 -0.087800 -0.032066 -0.027869 0.129078 -0.008472 -0.199854 0.006962 -0.212384 -0.016408 0.099395 -0.232729 -0.136981 0.034378 -0.145731 0.050702 -0.012222 0.028809 0.049239 -0.169173 -0.245008 -0.014436 0.039493 -0.035288 -0.063041 -0.041755 0.030733 -0.014140 -0.085075 0.009339 -0.060056 -0.068572 -0.205155 -0.055966 0.089120 -0.129786 -0.148204 0.099675 0.226421 0.035845 -0.004091 0.191994 0.044693 -0.157535 -0.224212 0.082739 -0.047480 0.114431 -0.212808 -0.006870 -0.159573 -0.218941 -0.021269 0.075750 0.002653 -0.048417 -0.069496 0.005146 -0.067808 -0.033105 -0.089378 -0.037340 0.020966 -0.063381 -0.160725 0.022391 0.181515 -0.122627 -0.179832 -0.008600 -0.040158 -0.010680
0.082607 0.114891 -0.093502 0.047909 -0.220462 -0.075902 -0.077712 -0.137645 0.083703 -0.201802 0.036122 -0.180007 0.065566 0.132321 0.217700 -0.061560 -0.045246 -0.190531 0.189003 -0.062406 -0.017937 0.058412 0.005336 0.032036 0.040864 0.171056 0.011224 -0.056147 0.129457 -0.187341 -0.035267 -0.228638 -0.057151 0.030915 0.120075 -0.050365 -0.024175 -0.147851 0.066567 0.122852 -0.232168 -0.073349 -0.026192 -0.087968 0.039893 -0.052026 -0.098424 -0.025967 -0.201024 -0.024617 0.190160 0.051274 -0.055696 0.057546 0.159654 0.143001 -0.185030 -0.032310 -0.206352 0.116703 -0.192614 0.052990 -0.203587 -0.002049 -0.258617 -0.017410 0.119546 0.029416 -0.260293 -0.098517 -0.015118 -0.117550 -0.018523 0.139585 -0.210863 0.012277 -0.084940 -0.149605 -0.100517 0.011634 -0.165267 0.220942 0.088346 -0.018791 -0.178702 -0.042951 0.111683 0.101929 -0.161223 0.058792 0.105356 0.079974 0.091002 -0.063790 -0.060632 0.126367 0.037939 0.003169 -0.122923 0.017849
0.142561 -0.120173 0.076950 0.014412 -0.152679 0.036631 0.174211 0.085119 -0.026625 -0.044772 0.138933 -0.086044 0.049738 -0.032312 0.166252 0.031552 0.065859 0.084983 -0.059139 -0.235294 -0.359229 0.081183 -0.001824 0.113414 0.052829 -0.088430 -0.130249 -0.156288 -0.331282 -0.255834 0.026307 0.090599 -0.011449 -0.100722 -0.073708 0.099776 0.170490 -0.123101 0.035208 -0.131309 -0.199357 -0.016818 -0.026160 -0.116318 -0.177360 0.078833 -0.004359 0.014919 0.045678 -0.094587 -0.145366 0.062776 0.015943 -0.121829 0.024188 0.050464 -0.097758 0.200449 -0.198226 -0.129414 -0.104896 0.058197 0.133655 0.040428 0.103184 0.180523 -0.073843 0.029659 0.133512 0.043525 -0.123054 0.009084 -0.108120 0.028059 0.049106 0.009683 -0.232420 0.109064 -0.128495 -0.054817 -0.054540 -0.002543 -0.004782 0.064354 -0.197380 -0.007473 -0.205881 -0.097548 -0.064342 0.055359 0.039582 -0.346609 -0.253981 -0.208381 0.010954 0.211907 -0.007681 -0.080308 -0.175727 -0.011086
-0.060204 -0.206798 0.083009 0.084250 -0.019674 -0.100552 -0.215725 0.121234 0.102405 0.025589 -0.099666 0.013147 -0.094680 -0.008552 0.064053 -0.084646 0.064131 0.045521 0.068515 -0.156842 0.096096 -0.204292 -0.065343 0.217328 0.247156 0.034944 -0.004126 -0.191361 0.181618 0.194005 -0.191301 0.109339 -0.167081 0.099140 0.183894 -0.287421 0.354347 0.197149 0.053936 0.038649 -0.016239 0.014325 -0.207278 0.028392 -0.203923 0.375209 -0.240218 -0.260377 0.196610 -0.111552 0.209502 -0.215762 -0.065455 0.000000 0.150023 -0.081375 -0.136421 -0.032618 0.049617 -0.049775 0.020511 0.008795 0.067308 -0.059797 0.170111 0.166040 -0.180634 -0.062173 -0.520157 0.005361 0.200752 -0.114837 -0.218694 0.024788 -0.180703 -0.245506 -0.141748 0.021019 0.007036 0.250921 0.002926 -0.013926 -0.086851 0.260124 0.103818 -0.027752 -0.083848 -0.080657 0.240043 -0.052298 -0.268356 -0.028505 0.132380 -0.237636 0.062120 0.019147 0.119729 -0.021224 -0.024892 -0.000000
0.016214 0.026763 -0.114536 -0.024649 0.006929 0.000834 0.083111 0.020174 0.112570 -0.025894 0.189770 0.119119 0.007819 -0.002839 0.014476 -0.154304 0.001412 -0.013785 0.102649 0.108221 -0.042491 0.036727 -0.006712 -0.020454 -0.157434 0.122080 0.207987 -0.000000 -0.048311 -0.000001 -0.158087 -0.124143 -0.000257 -0.067228 0.060582 0.000858 -0.122216 -0.000518 -0.136099 -0.038841 0.000003 -0.064765 0.003989 0.059550 0.040699 -0.100463 0.059692 0.001379 0.084944 0.089436 0.007709 0.024619 -0.030163 0.000107 0.113245 0.031053 -0.002209 -0.159103 -0.052996 -0.036727 -0.001018 -0.189680 0.185476 -0.060343 0.166097 -0.037155 0.000040 -0.008308 0.033743 0.015912 -0.040902 -0.022504 0.135999 -0.055442 0.058873 0.203145 -0.000081 0.005007 0.000177 -0.000010 -0.000007 -0.054371 0.131015 -0.114359 -0.153534 -0.000000 0.023350 0.030185 -0.029754 -0.009020 0.126585 0.016304 0.217323 -0.105950 0.112491 0.033075 0.068464 -0.031001 -0.040726 -0.001035
0.203386 0.063979 -0.057572 0.236769 -0.036073 -0.100739 -0.196085 0.053148 -0.031655 0.073862 -0.014870 0.103310 -0.168636 0.044279 -0.087043 -0.015723 -0.086304 -0.076949 0.067371 -0.076708 -0.044034 0.203921 0.026777 -0.050956 0.243007 -0.073515 0.028080 0.073061 0.002453 -0.206435 0.164107 0.049185 -0.195966 0.024085 -0.112102 0.319494 -0.080619 0.101372 0.005136 0.172961 0.098233 -0.096938 0.032454 0.112375 -0.031569 0.061658 -0.010692 0.217452 -0.105910 -0.043195 -0.012974 0.023225 -0.080627 -0.001231 -0.090189 -0.108730 -0.063697 0.052083 -0.000313 -0.134271 -0.011553 0.076313 -0.153081 0.046221 -0.045685 0.221035 -0.106494 0.015204 0.042990 0.154072 0.024145 0.098760 -0.079852 0.157153 -0.103545 -0.010504 -0.037468 0.078196 -0.005324 0.098104 -0.000018 -0.076976 0.140403 0.071964 0.025674 0.047742 -0.042289 -0.028157 -0.080154 -0.063714 -0.091598 -0.193967 0.061087 -0.327615 -0.014163 0.136390 -0.096179 0.008104 0.216685 -0.016062
-0.095629 -0.036007 -0.028553 -0.065072 -0.031997 0.025435 0.111619 0.008371 0.079456 0.063726 0.074455 -0.009676 0.176847 -0.044459 0.116296 -0.170491 -0.015128 -0.033072 0.199816 0.026159 0.129996 0.083708 -0.130044 0.026623 -0.208148 0.082916 0.124745 -0.141931 0.016449 -0.110020 -0.044048 -0.127875 0.007405 0.035902 0.129102 -0.246635 -0.077524 -0.018752 0.086446 -0.001924 -0.112110 0.065337 -0.044184 -0.184276 -0.055140 -0.221981 0.004120 -0.005617 0.203537 0.104671 0.173905 -0.063729 0.112102 0.005622 0.172357 -0.163912 -0.033589 -0.126322 -0.345810 0.119818 -0.173633 0.001529 0.075024 0.041917 0.244145 -0.272431 0.062315 0.039405 -0.262233 -0.027828 0.011587 0.165759 0.094360 -0.022912 0.120284 0.062171 0.029364 0.066463 0.097647 -0.071907 -0.107534 -0.246896 0.261453 0.072679 -0.078264 0.161674 0.167347 -0.030802 0.092798 0.135419 -0.126866 -0.190023 0.025071 0.026450 0.312362 0.168691 0.092549 -0.065019 0.010404 0.070019
-0.182698 -0.090028 0.073268 -0.208751 -0.042923 -0.125134 -0.300469 0.018970 0.003148 -0.013693 0.104910 -0.217163 -0.040155 -0.073810 -0.112926 0.012366 0.037269 0.024406 -0.118295 0.027979 -0.178079 -0.002453 -0.127466 -0.004329 0.198808 -0.191739 -0.018556 0.085086 -0.137197 -0.156566 0.016550 -0.173159 0.064148 0.044462 -0.179580 -0.046866 -0.144122 0.035011 -0.038794 -0.259401 -0.243676 -0.015276 0.025795 -0.005591 0.018482 0.186630 -0.212437 -0.049334 -0.058321 0.117440 0.219289 0.031044 -0.067926 -0.041636 0.061122 0.047772 -0.024673 -0.058232 -0.032815 -0.191105 -0.024825 -0.092694 0.088970 0.078524 -0.116267 0.081937 -0.074982 0.005581 0.040833 -0.225459 -0.005901 0.000901 0.108054 0.093245 -0.042530 -0.121334 -0.017701 -0.088181 0.033384 0.041624 0.210908 -0.027811 -0.203427 -0.297684 -0.082213 -0.192956 0.024899 -0.137860 -0.033767 -0.126394 -0.296283 0.107681 -0.059901 0.253984 -0.130391 -0.133101 0.036003 0.013712 -0.104780 0.017036
-0.092242 0.089159 0.059731 -0.037063 0.049236 -0.033938 0.086885 0.027933 0.139247 0.048897 0.105799 0.127091 -0.077620 0.075656 0.152620 0.023645 0.132579 0.065474 0.008689 0.077775 0.052964 0.180025 0.073954 -0.091145 0.017285 0.152180 -0.126216 -0.042139 -0.062607 0.045290 0.260075 0.042731 0.046666 0.061747 0.135180 -0.127894 -0.023339 -0.011318 0.038655 0.039164 -0.086366 -0.009066 0.099287 -0.053283 -0.033050 -0.032224 0.174214 -0.018020 0.209988 -0.009919 -0.130443 0.076273 -0.015228 -0.000000 -0.222830 0.191814 0.008080 -0.041781 0.213056 -0.052724 0.009031 -0.078470 -0.094714 0.084955 -0.008005 0.151439 0.079450 0.003296 0.100015 -0.184860 -0.016425 -0.096887 0.044661 0.036435 0.134340 0.014588 -0.044165 0.028971 0.018130 0.053735 0.062464 0.053583 -0.013215 -0.152159 -0.005672 -0.056392 -0.056916 -0.006693 0.244696 0.113841 0.139497 -0.024778 0.072080 -0.070670 -0.021296 -0.060114 -0.033482 -0.000002 0.015329 -0.000000
-0.430241 0.050545 -0.033532 -0.021015 -0.181662 -0.203511 0.044131 -0.029666 0.158009 -0.187116 0.243721 -0.024244 0.081207 0.120262 -0.083168 0.070256 0.054668 -0.183673 0.074469 -0.390878 -0.147284 0.146579 0.109089 -0.112938 0.102612 -0.238099 -0.079923 -0.088308 -0.257504 0.133824 -0.113413 -0.002471 -0.204693 0.052108 -0.047385 -0.123536 0.037205 -0.143046 -0.364522 0.103918 -0.093182 -0.051655 -0.141082 -0.170820 -0.085264 -0.060275 0.046161 -0.044540 -0.077249 0.111134 0.024931 -0.054258 -0.069299 -0.045585 0.116477 -0.179059 -0.051279 -0.064643 0.206919 -0.126759 -0.098495 0.137484 0.008195 0.076918 0.062570 -0.106427 -0.225221 0.021887 0.088355 0.113242 0.021391 -0.118997 0.175280 -0.039877 0.125972 0.135155 -0.083346 -0.265481 -0.271773 -0.172861 0.102522 -0.406089 0.130587 -0.235576 -0.008243 -0.092554 -0.018172 0.054849 0.037439 -0.262116 0.106577 0.117008 -0.127656 0.253004 -0.093628 -0.198253 -0.102371 -0.024748 0.124929 -0.085306
0.133920 -0.052092 -0.121530 0.065434 -0.135782 -0.214466 -0.398088 -0.086043 -0.168059 0.090082 0.046230 -0.146592 -0.137860 0.161535 0.110376 0.090432 0.126033 0.092001 -0.050466 0.183106 0.277220 -0.094637 0.128180 -0.098553 0.112527 0.109506 0.000644 -0.160354 -0.078927 -0.209749 -0.190333 -0.181995 -0.132537 0.003608 -0.291606 -0.085895 -0.193604 0.106378 -0.070599 -0.303470 -0.130059 -0.242655 -0.134312 0.074957 0.044140 -0.080238 -0.096349 -0.208054 0.133176 -0.041785 -0.051862 -0.177263 -0.548390 -0.007202 0.018833 -0.225829 -0.178162 0.482689 0.228873 -0.146139 -0.018807 -0.008406 0.125804 -0.079972 -0.246886 0.099324 -0.079875 -0.174842 0.201562 -0.003730 -0.137273 -0.284051 0.249594 -0.222711 -0.067429 0.142523 -0.302049 -0.127289 0.025174 -0.081865 0.031305 0.225710 -0.055488 0.159084 -0.102979 -0.059145 -0.074934 -0.175831 0.003183 0.152841 0.130611 0.297389 0.112708 -0.166840 -0.190976 -0.098928 -0.098928 0.013300 -0.097033 0.020646
0.067516 0.152156 -0.000171 0.000000 0.009177 0.000681 -0.070911 -0.142217 0.110326 0.014251 -0.056481 0.125401 0.077303 -0.105404 -0.093253 -0.206365 -0.028560 0.110368 0.134468 0.156086 0.119309 0.005486 -0.030681 0.001006 -0.123869 -0.040154 -0.156326 0.017616 -0.160627 -0.170257 0.015615 -0.186043 0.013716 -0.000120 -0.054784 0.075039 -0.183965 0.049413 0.055979 -0.005903 -0.153397 0.005396 -0.000016 -0.024061 -0.040960 -0.096060 -0.006082 -0.010852 -0.086923 0.004132 0.072609 0.096844 0.012410 -0.000000 0.109784 -0.049724 -0.057039 0.066225 0.091390 -0.161511 -0.002563 -0.115796 0.004600 0.001692 -0.201728 0.096524 -0.100929 0.019986 0.044479 -0.052372 0.140509 -0.069621 0.092391 -0.077380 -0.034644 0.011005 -0.030465 -0.013892 0.060649 -0.031253 0.000000 0.019878 -0.011541 0.111148 0.018043 0.009973 -0.031069 -0.000027 0.100234 0.056824 0.185886 0.077875 0.110988 -0.002169 0.029952 -0.106629 -0.001888 0.003833 0.087006 -0.004886
0.313825 0.026048 0.071031 0.076658 -0.069669 -0.117244 -0.048382 -0.139844 0.033998 0.059924 -0.093465 -0.078769 -0.074686 0.025498 0.031595 0.402889 0.024864 -0.030993 -0.080156 0.170459 -0.278616 0.063427 -0.002543 0.025812 0.110420 0.162646 -0.112720 -0.044701 -0.281472 -0.136216 -0.301220 -0.277023 -0.002036 -0.017812 -0.071460 -0.086062 0.018456 0.105900 0.172801 -0.226064 0.016034 -0.069303 0.158011 0.047336 -0.046416 0.304933 -0.000432 0.126997 0.022546 -0.149857 0.042872 0.327824 0.139430 0.045752 0.045341 0.127974 -0.000022 -0.148189 -0.183126 0.025393 0.040701 -0.167767 -0.235362 0.058344 0.051301 0.154800 0.049052 -0.117662 -0.038610 0.270848 -0.308139 0.011284 0.336834 -0.167174 -0.017255 -0.041550 -0.304022 -0.077908 0.034551 -0.001996 -0.143670 0.399614 -0.328784 0.049310 -0.137242 -0.163687 0.102646 0.097302 -0.308952 -0.184052 0.168609 0.037364 -0.179883 0.319196 -0.145138 0.220655 0.123434 0.006927 0.063020 -0.000000
-0.098470 0.019494 -0.071533 -0.080359 -0.038970 -0.091444 -0.272326 0.034543 -0.306092 -0.074311 -0.017428 0.028746 0.023701 0.074897 0.031586 -0.008270 -0.139427 -0.037958 0.091166 0.304211 0.121847 -0.154607 -0.088634 0.002519 -0.095738 -0.423668 0.177539 0.143810 0.143375 -0.277400 -0.154900 0.140393 -0.071753 0.082006 0.073529 -0.221143 -0.007140 0.232030 -0.044574 -0.074080 0.074047 -0.257272 -0.383530 -0.081470 0.272183 0.048294 -0.249896 0.221771 0.067834 0.026281 0.009094 0.170655 -0.188355 0.004659 0.156255 -0.085224 -0.012873 -0.043666 -0.000355 -0.363105 -0.012422 -0.195945 0.015370 -0.093589 0.083775 -0.341755 0.001621 -0.140095 0.185146 -0.216138 0.045209 -0.161813 0.129849 0.051968 0.070858 -0.312790 0.262512 0.197102 0.085303 0.105046 0.110225 -0.237591 0.066687 -0.169559 0.154523 0.009455 -0.044764 0.001727 -0.071884 -0.016540 0.099029 0.023359 0.035796 0.026259 -0.262435 0.109859 -0.331630 -0.020224 -0.024953 0.007711
0.054663 0.000720 0.020698 0.146677 0.063888 0.124086 -0.068663 0.013215 -0.067813 -0.025372 0.111796 0.073320 -0.086758 0.072693 -0.040870 0.088161 0.000680 -0.134869 0.100198 -0.077829 -0.004288 -0.085665 0.080738 -0.043953 0.094689 0.090956 -0.098262 -0.000359 -0.061457 0.000289 0.113398 0.050832 -0.031369 0.001950 0.003534 0.007769 -0.107880 0.099492 0.026846 0.037751 0.000000 0.042172 -0.016005 -0.006416 0.263074 0.114531 -0.052039 -0.060037 -0.043781 0.086053 -0.044669 -0.040879 0.084749 -0.000003 0.281214 -0.204038 -0.030759 -0.013033 -0.022824 -0.161899 0.000039 -0.012011 -0.121256 -0.002517 0.147242 0.155331 -0.118803 -0.000002 -0.097688 0.012348 -0.145831 0.013526 -0.112958 -0.075667 -0.190267 -0.000894 -0.138956 0.125909 -0.018360 0.146579 -0.000354 -0.112578 -0.060045 0.153408 -0.073115 0.000046 -0.070784 -0.003031 0.076761 -0.062865 -0.226245 0.148381 -0.086355 -0.106048 -0.035897 0.023079 0.063773 -0.002137 -0.084601 0.002308
0.075978 -0.168355 -0.167366 -0.016771 0.033923 0.093992 0.187646 -0.142724 -0.041853 -0.098083 -0.196845 0.232442 -0.170907 0.027023 -0.150036 0.014470 -0.038383 0.259980 0.053601 0.077349 0.007614 -0.031248 0.057043 0.041629 0.057960 -0.095829 -0.184612 -0.139588 0.145068 -0.098925 0.017602 -0.120360 0.004540 0.026374 0.280203 0.076751 -0.057952 0.135392 0.061748 -0.078183 -0.117641 -0.004127 -0.120633 -0.116620 -0.129194 0.214624 0.118168 0.041386 0.012625 0.030183 0.049444 -0.009931 0.240138 -0.009099 -0.451989 0.178517 -0.147734 0.102561 -0.284584 -0.073330 0.072753 0.079759 0.131465 0.105615 -0.094681 0.096449 0.073618 -0.087091 -0.122830 0.078454 0.029180 0.162797 -0.114853 -0.122916 -0.182493 -0.182410 -0.067795 0.118224 0.214498 -0.124735 -0.007533 -0.027108 -0.168459 -0.027051 -0.187236 -0.135181 0.163013 -0.219036 0.043283 0.365799 -0.285674 -0.087292 -0.063050 0.082350 -0.098454 0.142055 0.023674 -0.003662 0.283159 -0.000033
-0.035376 0.091173 0.035941 -0.193755 0.011532 -0.215383 -0.106044 0.087750 0.069345 0.181388 -0.078490 -0.095022 -0.018555 0.165326 0.222803 0.060101 -0.107154 -0.123650 -0.138768 0.039985 0.033833 0.061741 0.019437 0.013290 0.083772 -0.259129 -0.102461 0.149663 -0.155712 0.099858 -0.114968 0.105388 -0.066775 -0.052043 -0.074143 -0.021853 0.022778 -0.090853 -0.100985 -0.061243 -0.076342 0.040985 0.153935 -0.219638 -0.072952 0.197615 -0.019163 0.158856 0.031703 0.048397 0.032175 0.013249 -0.150472 0.015312 -0.091280 0.053290 -0.149077 0.012200 0.200938 -0.298460 -0.060076 0.160566 -0.067649 -0.011964 -0.107386 0.101247 -0.127295 -0.168453 -0.088878 0.052230 -0.100093 -0.000063 -0.053591 -0.030033 0.015995 -0.150738 -0.042746 -0.208784 0.004028 0.118687 -0.025338 0.202135 -0.050657 -0.174190 -0.104810 0.078536 0.123405 0.050035 0.126691 0.018918 0.096629 0.110083 0.031564 -0.025686 0.153065 -0.079522 -0.045666 -0.096148 -0.102513 -0.009452
0.029014 -0.075953 -0.230806 0.008206 -0.073821 -0.060061 -0.009332 -0.027129 -0.054342 -0.252174 -0.178733 -0.088549 -0.050337 0.085315 -0.007005 -0.109556 -0.168340 -0.176634 -0.183475 0.009503 0.110232 0.192484 -0.002751 -0.015251 -0.026491 0.030203 -0.113705 -0.273338 0.063214 -0.074245 0.040736 0.047033 -0.058854 -0.288971 0.075919 -0.131411 0.000606 -0.160479 -0.005652 -0.307466 -0.270491 -0.166635 -0.221620 0.011638 0.038337 -0.080851 -0.218997 0.003247 -0.254342 -0.200562 0.044627 0.121136 0.096968 -0.060050 0.029286 -0.050993 -0.136435 0.065360 -0.152926 0.090711 -0.035178 -0.050031 0.112173 -0.178523 -0.039264 -0.002718 -0.196868 -0.277523 -0.128925 0.094540 0.085323 -0.224017 -0.061204 0.147304 -0.024169 -0.199242 -0.123705 -0.021816 -0.108313 -0.059361 0.053321 -0.022426 -0.255336 -0.097432 0.120656 -0.068204 0.059067 -0.101465 0.049211 -0.041741 -0.113110 -0.028677 0.080423 0.095103 -0.150226 -0.071803 -0.075516 0.077664 -0.146276 -0.095087
-0.141694 -0.154418 0.056724 0.061850 -0.005344 -0.097211 -0.092785 0.119761 -0.254493 0.110629 0.058309 0.101159 0.071857 -0.101607 -0.152266 -0.092598 -0.144707 0.271785 0.093853 -0.158080 0.072331 0.039877 -0.064620 -0.055141 0.043262 -0.159758 -0.072213 0.190188 0.167413 -0.035379 0.036682 0.192280 -0.061146 -0.041863 0.046588 -0.041523 0.070660 -0.066058 -0.135945 -0.161232 -0.108095 0.047140 0.048544 -0.159555 0.046118 0.097838 -0.030771 -0.047223 0.094497 0.146728 0.039853 0.261324 -0.174814 -0.000322 0.037002 -0.188439 -0.014805 -0.162359 -0.023113 0.033977 -0.038054 -0.229741 -0.019372 0.084518 0.003223 0.174781 -0.194873 -0.050069 -0.141029 -0.133072 0.146002 0.023789 0.107689 0.020896 -0.125636 -0.076619 -0.114190 0.094411 0.197520 -0.080993 -0.089970 -0.090768 -0.113744 0.227525 0.007019 -0.115338 -0.003223 -0.037230 0.013470 0.167968 0.089963 -0.042055 0.046616 -0.003877 -0.040644 0.009879 0.187479 0.062799 0.098079 -0.020109
-0.043727 -0.085443 0.188055 -0.065686 0.075758 -0.012561 0.100107 -0.099946 0.111452 -0.098517 0.135449 0.054086 0.033039 -0.040054 0.075407 -0.060856 -0.209051 0.048670 0.006045 0.005917 -0.213615 -0.080667 -0.086397 -0.058815 -0.177526 -0.034860 0.049299 0.229105 -0.166562 -0.178916 -0.384329 -0.109361 -0.063147 -0.102257 0.041619 -0.079740 -0.052245 0.270243 0.017918 -0.202031 -0.051095 0.127282 -0.021296 -0.185548 -0.178506 0.062801 -0.054102 0.102002 0.117531 0.143924 -0.106109 -0.026361 -0.138352 -0.001035 -0.136934 0.028418 -0.100716 0.066142 0.118653 0.145684 -0.017772 0.125462 0.175249 0.090236 -0.163536 -0.018266 -0.033869 0.013403 0.118892 -0.253486 -0.043440 0.065010 0.001526 -0.086784 0.103541 -0.135584 0.020107 0.088430 0.050556 -0.094070 -0.004450 0.011867 0.009887 -0.035444 -0.033575 -0.174181 -0.378191 0.029984 -0.084703 0.031196 -0.170613 -0.119721 0.056300 -0.238991 -0.122229 -0.017278 -0.018651 0.044256 0.037737 -0.004994
0.065947 0.042526 -0.048504 0.155586 0.098614 -0.246571 -0.284858 -0.163996 0.035521 -0.048083 -0.064443 0.028748 -0.110908 0.091089 0.011283 0.137262 0.097707 -0.068800 -0.287951 -0.178004 -0.049640 0.047288 -0.111594 -0.235837 0.109179 -0.162681 0.090730 0.019179 -0.090949 -0.185726 0.053361 0.117355 -0.069664 -0.022992 -0.222731 0.162406 0.036767 -0.089338 0.024158 0.081538 -0.053504 0.061086 0.168379 -0.081207 0.028725 0.117205 -0.112050 0.147990 -0.205869 -0.020079 0.133926 -0.096733 0.072127 -0.037549 0.115293 -0.008979 -0.163190 -0.117018 -0.128884 -0.157838 -0.189090 0.078775 -0.046678 0.028030 -0.078116 0.099475 -0.169440 -0.142174 -0.105912 0.188115 -0.031823 -0.208768 -0.051651 0.064095 0.083123 -0.000292 -0.206396 -0.236699 0.029831 -0.086558 -0.093716 -0.021175 -0.077188 0.053508 -0.026944 -0.171748 -0.247033 -0.080384 0.122046 -0.083462 -0.061021 0.084293 -0.014896 -0.179482 0.056553 0.076180 0.026200 -0.047728 0.105224 -0.089059
0.112699 0.061398 -0.054406 -0.102294 0.066379 0.015186 -0.132968 -0.224832 -0.030425 -0.174141 0.080342 0.134527 -0.145451 -0.040883 0.083645 -0.270687 -0.084594 0.085129 -0.040573 -0.330528 0.170002 -0.199963 -0.057857 0.014088 -0.100431 0.268306 0.008018 -0.158583 -0.181356 0.066716 0.011454 -0.032681 -0.103133 0.174859 -0.020016 0.086141 0.161078 0.035923 0.119228 -0.200964 -0.089595 0.289146 -0.090761 -0.265410 -0.009946 -0.227290 -0.035892 -0.096301 -0.183549 -0.165638 -0.212293 -0.159722 0.068437 0.000042 -0.013747 -0.075941 0.063657 0.085452 0.150203 0.002419 0.040338 -0.027342 0.311680 0.069250 0.186987 0.019839 0.022471 0.173736 0.051063 0.123776 -0.076334 -0.085124 0.063963 0.021580 0.271389 0.020478 -0.003176 -0.208352 0.032016 -0.269356 -0.203380 -0.072485 -0.335344 0.040224 0.036533 -0.028652 -0.025850 0.042041 0.034334 -0.155249 -0.230508 0.060062 0.391137 -0.280928 -0.012784 0.008380 0.019889 0.051537 0.173727 -0.032476
-0.099018 -0.008883 -0.000970 0.074239 0.053328 0.022969 0.140090 0.000739 0.140318 0.059339 0.040777 -0.166998 -0.023479 0.004945 0.090581 0.006716 -0.003020 0.022166 0.113563 -0.110029 -0.174011 0.041515 0.002658 -0.089103 0.157840 0.094544 -0.082359 0.000083 -0.098392 -0.032836 -0.059919 0.035091 0.001869 0.006246 0.000184 -0.017840 -0.046816 -0.012240 -0.172127 0.000000 -0.000000 -0.018730 -0.053593 0.010837 -0.157376 -0.072418 -0.170802 0.125790 0.011401 0.206268 -0.013741 0.025370 0.065592 -0.000000 -0.012474 0.259575 -0.022471 -0.212570 0.188034 -0.007145 0.032502 -0.054585 0.086810 -0.016241 0.401077 -0.144763 -0.017827 -0.000418 -0.076926 0.027369 -0.034291 -0.070449 0.075219 0.197685 -0.044393 -0.016836 0.023580 0.073993 0.007994 -0.096812 0.000000 0.012838 0.149186 0.017106 -0.039383 -0.174576 0.129786 0.012780 -0.044861 -0.082657 -0.198658 0.016972 0.305977 -0.094553 -0.241623 -0.060475 0.011184 0.006525 0.144722 -0.000340
-0.022208 -0.069360 0.015387 -0.113495 -0.111686 -0.165203 -0.110833 -0.108697 -0.019383 -0.026445 0.061341 -0.231656 0.118232 -0.051377 -0.092513 0.018521 0.014010 -0.064984 -0.272578 0.164871 -0.109135 0.041000 -0.028505 0.088589 -0.086455 -0.123709 -0.148882 0.056508 0.123860 0.100489 -0.155801 -0.149516 -0.069120 -0.134237 -0.227868 -0.026629 -0.103610 0.069607 -0.147726 -0.159302 0.001342 -0.023237 0.064216 -0.058711 0.017393 0.013873 -0.070796 -0.261685 -0.190666 -0.208504 -0.129260 0.037403 0.080301 -0.010501 0.010734 0.128151 -0.118760 -0.063856 0.053770 -0.085240 0.012100 -0.226617 0.123693 -0.038954 -0.092775 0.080488 -0.109147 -0.044198 0.055471 -0.058212 0.160668 -0.066011 -0.197123 -0.006051 0.124554 -0.046738 0.035638 0.087804 -0.059681 0.018957 0.196663 0.193823 -0.376656 -0.172055 0.002888 0.110802 -0.171235 -0.074508 0.138322 0.008819 -0.086351 0.088127 -0.093436 0.028561 -0.229028 -0.200727 0.068375 -0.069297 0.037366 -0.002846
0.052313 0.102623 0.031685 0.046246 -0.036568 -0.137428 0.020659 -0.046325 0.074526 -0.168438 0.015499 -0.215078 -0.228714 -0.019403 -0.003904 -0.101134 -0.232242 -0.154471 0.102433 0.092271 0.031320 0.016909 0.098158 -0.298269 0.123351 0.153753 -0.270520 -0.243346 -0.104660 -0.194360 0.002896 -0.036280 0.049338 -0.104589 -0.006079 0.110626 0.146774 -0.130628 0.046012 -0.077831 -0.075336 -0.276908 0.036578 -0.131208 -0.057488 -0.143871 -0.106734 -0.391655 -0.107413 -0.294587 -0.039739 -0.068150 -0.016027 0.011576 0.009587 -0.039305 0.211664 0.165314 0.025723 0.043290 -0.144605 -0.138580 0.103343 -0.019426 0.103859 -0.092278 -0.147913 0.136268 0.042593 -0.059135 -0.031604 -0.077938 0.078490 0.044789 0.076130 0.006296 -0.083422 0.162104 -0.105108 -0.131006 -0.090977 0.025577 -0.058219 -0.086574 -0.053073 -0.321007 0.002486 -0.121986 -0.034557 -0.117721 0.003640 -0.178030 -0.124257 -0.015398 0.070132 -0.264013 -0.050843 0.013223 -0.143605 -0.028928
0.091303 -0.123394 -0.069582 -0.065487 0.062420 0.093023 -0.114743 -0.002954 -0.044276 -0.199063 0.021220 -0.131303 -0.042438 0.171383 0.030466 -0.230869 -0.200990 -0.105133 0.076458 0.015558 -0.012867 -0.202382 0.057435 0.109287 -0.056078 -0.101175 0.135520 0.418572 -0.090017 -0.013147 -0.178099 -0.235250 -0.137637 -0.000289 -0.030850 0.044206 -0.208354 0.170508 -0.152335 -0.112935 -0.010583 -0.097042 -0.136866 -0.020703 -0.096102 -0.070123 0.086729 0.107744 0.003169 -0.006639 -0.010636 -0.251178 -0.118752 0.000000 -0.018998 -0.169373 0.138913 0.035387 0.137846 -0.104604 -0.000002 -0.027225 0.246780 0.043663 0.295465 0.205594 0.338416 -0.088194 0.053712 0.036987 -0.245431 0.160455 -0.060987 0.116890 0.044627 -0.063522 0.050373 -0.139261 -0.083876 0.066969 0.029854 -0.033438 -0.270249 -0.121577 0.128714 -0.021231 -0.015335 0.017925 0.012932 -0.047704 -0.259699 -0.096818 0.110445 -0.013790 0.040074 0.320134 -0.037230 0.011177 0.102779 -0.002508
0.138265 0.094866 0.028082 -0.029371 0.030492 0.066542 0.016176 -0.235637 0.088500 -0.198457 0.136376 0.027329 0.097829 0.030957 0.025679 -0.130684 -0.121699 -0.213281 0.019753 -0.018057 -0.054235 -0.018421 -0.006149 -0.037551 -0.076091 0.098544 0.013161 -0.150385 -0.126689 -0.162315 -0.145255 -0.030936 -0.197524 -0.203466 -0.132102 -0.123159 -0.008354 0.059836 0.064609 0.004808 -0.165071 -0.087459 0.130402 -0.148039 -0.029836 -0.155843 -0.016312 -0.122279 -0.381954 -0.224070 -0.223989 -0.376794 0.062395 0.004712 -0.114207 0.026957 0.181142 0.149596 -0.269909 -0.045287 -0.087469 -0.186954 0.082457 -0.071459 0.138750 -0.160428 -0.064173 0.080656 0.066669 0.001408 0.015158 0.186919 0.005827 -0.046182 0.017523 -0.071336 -0.064017 0.025913 -0.014863 0.072190 0.008135 -0.222175 -0.154969 -0.158245 -0.046619 -0.285341 -0.016073 -0.087315 -0.016557 -0.018824 0.113483 0.010711 0.186748 -0.320899 -0.145337 0.021016 0.070638 -0.162793 -0.338361 0.002167
-0.063881 -0.016365 0.017411 0.024361 0.068767 0.023067 -0.087978 -0.088555 0.051488 0.129863 0.069439 -0.110056 -0.221343 0.083558 -0.016271 0.059435 0.051487 -0.110950 -0.134448 0.026736 0.025277 -0.169463 0.028612 -0.107573 0.053987 -0.029611 -0.120210 -0.136345 -0.072643 0.106373 -0.149477 -0.123592 -0.045249 0.077344 0.054857 -0.052161 0.240218 -0.180962 0.052743 -0.097360 -0.093454 0.115412 -0.090597 -0.132571 -0.252449 0.056654 -0.023276 0.076473 0.086904 0.035834 0.072391 -0.035802 -0.143781 0.011918 -0.148709 -0.074955 -0.000009 0.048066 0.230622 0.256520 -0.000063 0.053740 0.071476 -0.049243 -0.074724 0.100462 0.150890 0.280645 -0.176828 -0.048592 -0.089311 0.014757 -0.195683 0.016067 -0.074927 0.203310 -0.180202 0.051020 0.079247 0.053668 -0.002384 -0.088013 -0.161845 0.034950 0.171962 -0.062364 0.218946 -0.023629 0.068155 0.128808 0.094514 0.020343 0.066484 -0.225730 0.061985 0.037240 -0.038824 0.076863 0.065243 -0.027787
-0.088200 -0.112834 0.028143 0.210450 -0.031583 0.000064 0.078478 0.078260 0.272801 0.211909 -0.290475 -0.044552 -0.016889 -0.107268 0.008846 0.067905 0.028150 -0.056966 0.067412 -0.078513 0.090746 0.066752 0.057186 -0.153813 0.066530 0.076605 0.005522 0.091419 -0.197950 -0.118715 0.022315 -0.041412 -0.063314 -0.074350 0.067742 -0.034505 0.003350 -0.047416 0.113761 0.284672 -0.090086 0.061149 0.076401 0.051948 0.046788 -0.163323 0.190424 -0.020116 0.081755 -0.006828 -0.040922 -0.044736 0.117851 0.002563 0.066653 -0.167197 0.001322 -0.004989 -0.067607 -0.095765 0.014774 -0.247331 -0.391296 0.175099 -0.079416 -0.125708 -0.084123 0.135056 0.082990 -0.053614 -0.182350 0.079904 0.084144 0.147698 -0.025173 0.183464 -0.001867 0.032108 -0.168811 -0.147541 0.041568 0.059175 0.080366 0.081897 -0.199733 -0.067002 -0.148816 -0.059151 -0.130667 -0.177682 0.003387 -0.304288 -0.145490 0.280453 -0.014926 0.007288 0.149442 0.005803 -0.088692 0.014877
-0.077484 -0.083598 0.100245 -0.148673 -0.079163 -0.128352 -0.103390 0.014371 -0.015982 0.084095 -0.140726 0.022407 0.128274 0.020861 0.062455 0.122954 -0.032884 0.010957 -0.078328 0.097087 -0.131990 -0.237688 -0.003252 -0.205264 -0.073513 0.102928 -0.065052 0.189737 -0.153337 -0.224619 -0.033979 -0.095446 -0.065343 0.030551 -0.097251 -0.093555 -0.028363 -0.062654 -0.069910 -0.153455 0.045259 0.081039 0.036815 0.006103 -0.002086 0.143965 -0.140451 -0.116071 -0.125990 0.018157 -0.046431 -0.362212 0.145466 -0.002346 0.080222 -0.344722 -0.055746 -0.016299 -0.129790 -0.281736 -0.121579 -0.116727 -0.024155 0.106633 -0.204182 -0.045408 -0.112904 -0.114468 0.038124 0.003720 -0.071387 -0.033868 0.047918 -0.008981 0.062335 -0.090232 0.032858 -0.181438 -0.025549 -0.074603 0.022810 -0.001252 -0.243117 -0.191339 -0.083042 -0.056162 0.056058 -0.096263 -0.118755 0.087214 -0.023111 -0.000976 -0.073306 0.141648 -0.130389 -0.212456 -0.040479 -0.008003 -0.084247 0.027488
-0.098718 0.073306 -0.061135 -0.118820 -0.058350 0.189785 0.095724 -0.043549 0.184620 -0.078020 0.154951 -0.167073 0.038705 -0.085578 -0.049744 0.009252 -0.006633 0.087025 0.087445 0.007104 -0.002523 0.034404 -0.014762 0.040646 -0.070217 -0.029948 -0.095056 0.057343 0.029986 0.040604 0.042159 -0.170378 -0.076790 -0.112297 -0.016396 -0.053162 0.112321 0.247666 -0.080240 -0.101706 -0.001528 0.145995 0.081088 -0.054056 0.159090 0.085496 0.000000 -0.037247 0.105758 0.100717 0.023271 -0.053112 -0.060875 -0.000000 0.168673 -0.028316 0.074425 -0.079217 -0.212792 -0.008028 -0.000000 -0.104338 0.086472 -0.018130 -0.099789 0.133302 0.315601 -0.011467 -0.035800 -0.031551 -0.030914 0.002163 0.153084 -0.081505 0.088447 -0.029607 -0.144197 -0.079789 0.014031 0.031144 -0.128257 0.046787 -0.196870 -0.024182 0.026612 0.027424 -0.065822 -0.000001 0.067690 -0.104532 -0.037577 -0.044391 0.032840 -0.150108 0.074680 0.112859 0.082446 0.016140 -0.083691 0.001640
-0.292329 -0.160360 0.041059 -0.029568 0.045922 0.106718 -0.170826 -0.136821 -0.274951 -0.098347 0.050710 -0.230576 -0.090040 0.030914 -0.092420 -0.019790 0.007251 -0.038042 0.188349 -0.025017 -0.149797 0.132618 0.019033 0.042707 0.018441 -0.022311 0.290215 0.024373 0.068878 -0.335425 0.078042 0.164064 -0.090323 0.063998 0.082660 -0.099404 0.176060 -0.001046 -0.189668 0.272805 0.072116 -0.348800 -0.099132 -0.180829 0.465653 0.014387 0.009059 -0.019530 -0.122855 0.004685 0.179549 0.214834 -0.132244 -0.000002 0.499959 -0.325581 0.181929 -0.034795 -0.288089 -0.002876 -0.105643 -0.092965 -0.360542 -0.140923 0.102169 0.109589 -0.149678 -0.053072 -0.065154 -0.398316 -0.228523 0.071693 -0.090419 -0.008584 -0.097448 0.196255 0.262420 -0.007515 0.025237 0.070316 -0.147279 -0.486771 -0.027087 -0.015133 0.124970 0.146137 -0.211889 -0.033627 -0.184806 0.117459 -0.015190 0.142368 -0.187578 -0.038824 0.050657 0.093447 -0.169970 0.047482 -0.201394 -0.002823
0.080395 0.033146 -0.169198 0.054483 -0.262780 0.088303 -0.118710 -0.018036 -0.142148 -0.052760 0.099917 0.077467 -0.070701 -0.190113 0.029825 -0.101655 -0.211544 -0.278395 0.203787 -0.138971 0.086760 0.274713 0.017819 -0.017935 0.093567 -0.243788 0.054997 -0.137515 -0.075607 -0.196568 0.065764 0.094148 -0.119831 -0.275183 -0.135002 -0.097976 -0.087508 -0.011750 -0.016190 0.060929 0.090013 -0.178996 -0.177632 -0.098007 0.083157 0.063190 -0.171659 0.096393 -0.262177 -0.160468 0.072691 -0.427988 -0.188154 -0.003962 0.044728 -0.108035 -0.173528 0.002607 -0.016091 -0.001441 -0.046091 -0.121139 -0.207851 -0.100900 -0.107421 -0.124163 -0.180560 0.146586 0.149297 -0.087758 0.113772 -0.156647 0.224837 0.020713 0.167817 0.142646 0.112812 0.004736 -0.128041 -0.022202 -0.205240 -0.268823 -0.101368 -0.159895 0.123009 -0.088980 -0.031518 0.100446 -0.070428 0.029359 0.224467 -0.276237 -0.176006 -0.112599 -0.111837 -0.049574 -0.087385 0.042224 -0.231930 -0.046920
0.119765 -0.005119 -0.157069 0.055138 0.127191 -0.113640 0.025358 0.007117 0.044342 0.108928 -0.056542 -0.090618 0.120054 0.164634 -0.051376 -0.209009 -0.014323 0.014338 0.085895 -0.031860 -0.077077 0.116732 0.037651 0.086677 0.100044 0.035954 -0.041257 -0.092120 0.034751 -0.090128 -0.114509 0.066927 -0.166317 -0.160270 0.014147 0.137799 -0.032641 -0.158496 0.069673 0.001050 0.077327 0.116382 0.094258 0.070946 -0.004499 -0.072402 -0.215323 0.101591 -0.039085 -0.117028 -0.081617 0.092374 0.043296 -0.086125 -0.114721 0.073117 -0.220742 -0.086194 -0.203058 -0.113217 -0.045961 -0.096657 0.119998 -0.318456 -0.084909 -0.059899 -0.181941 -0.182264 0.057913 0.176198 0.003721 -0.125876 0.037204 0.138791 0.089287 -0.069783 -0.221740 0.012759 -0.279255 -0.080551 -0.140034 -0.017451 -0.148289 -0.011480 0.056694 -0.135900 -0.042903 -0.018747 -0.026494 -0.035739 0.142579 -0.127370 -0.199811 -0.098761 -0.107308 0.013905 -0.334445 -0.104135 0.012329 -0.099522
-0.304386 -0.048067 0.006255 -0.021350 -0.033361 -0.177771 0.007307 -0.119109 0.118069 -0.156105 0.070932 0.165513 -0.302386 -0.182299 -0.258861 -0.063805 -0.266458 0.022499 0.136641 -0.069746 -0.218749 0.161001 -0.089764 0.062933 0.083606 0.037671 0.061743 -0.206326 0.197923 -0.267212 0.131951 -0.030926 0.037159 -0.200096 0.175217 -0.038202 0.264906 0.085441 -0.087719 0.140485 -0.044291 -0.022761 -0.188994 -0.112495 -0.371453 -0.239460 0.145058 -0.053622 -0.221865 0.152259 0.007185 -0.307420 -0.022710 0.000000 -0.143915 -0.097354 -0.036703 -0.227669 0.002683 0.144481 -0.111713 0.155039 -0.063461 -0.182649 0.082489 -0.004081 0.247607 0.050278 0.115091 0.190040 0.257421 0.124189 -0.014161 -0.072543 0.101749 -0.026039 -0.199205 -0.064133 -0.299197 -0.109278 -0.047653 -0.293718 0.031776 -0.080501 -0.217229 0.158454 0.145081 -0.133340 -0.018773 -0.227374 0.126042 -0.118293 0.422835 -0.124741 0.073786 0.104469 0.072551 -0.001069 -0.043600 -0.173506
0.014963 -0.060761 -0.064505 0.029045 -0.041339 -0.047705 -0.400216 -0.045098 -0.117990 -0.003568 -0.046732 -0.084086 -0.201714 -0.016444 -0.050944 -0.010601 -0.124245 -0.010706 -0.258960 0.108936 -0.082889 -0.025131 0.098201 -0.106888 0.003726 0.100397 0.009818 0.050332 -0.187825 -0.171225 0.106833 -0.023757 0.116087 -0.224845 -0.108195 -0.027068 0.090148 -0.091994 -0.451986 -0.148313 -0.093241 -0.202437 0.053467 -0.250517 -0.007797 -0.007730 -0.202051 0.144069 -0.021795 -0.053405 -0.006881 0.194927 -0.334728 0.003210 0.131264 0.044045 -0.121943 0.057151 -0.371432 -0.315034 -0.206132 -0.046269 -0.142148 -0.059945 -0.185476 0.313412 0.037553 -0.101698 -0.050735 -0.094183 -0.131066 -0.053976 0.036726 0.225950 -0.128057 0.015997 -0.164452 -0.081627 0.073812 0.043551 -0.286069 -0.139478 -0.199730 0.025955 -0.220082 -0.045791 0.027488 0.042519 -0.461533 0.131786 -0.110855 -0.403176 -0.011755 -0.048299 -0.175148 0.006163 0.141876 -0.076764 0.199526 -0.004468
-0.323887 0.124231 -0.007084 -0.018754 -0.090582 -0.012970 -0.126160 0.003435 -0.249466 0.007233 -0.182408 0.202158 -0.319336 0.065685 -0.216984 0.001454 -0.153242 0.062295 0.034934 -0.106123 0.046903 0.093590 -0.074059 0.074990 0.033443 -0.280123 0.314994 0.027575 -0.043040 -0.225063 -0.051103 0.136604 0.011996 -0.183489 -0.052159 -0.009400 0.112268 -0.014776 -0.167348 0.101084 0.052809 -0.277289 -0.065409 -0.123664 0.187183 -0.214271 0.175234 -0.297137 -0.197740 -0.033795 -0.029056 -0.264566 -0.219410 0.000787 0.372888 -0.410872 0.187440 -0.004198 -0.011936 -0.228172 0.045874 -0.093880 -0.183117 0.034054 -0.090049 -0.114097 0.080902 -0.031538 -0.210489 0.048044 0.029768 0.020231 0.301681 -0.032709 -0.088231 -0.046784 -0.144132 -0.076989 -0.052069 0.138200 0.009853 -0.108146 0.126572 0.053892 0.101887 0.053216 -0.064449 0.017867 -0.114590 -0.047587 0.125938 0.020953 -0.114264 -0.062386 0.274026 0.186499 -0.027243 -0.012261 -0.073049 -0.048448
-0.136080 0.039617 -0.111141 -0.057115 -0.115720 -0.131400 -0.076129 0.005420 0.200974 0.113383 0.118292 -0.350818 -0.096635 0.134300 -0.125671 -0.050770 0.022270 -0.126129 0.029023 0.113363 -0.273185 -0.021521 0.086453 0.000094 0.117053 -0.214798 0.084476 -0.163691 0.043485 0.077106 -0.022520 -0.028254 -0.057859 0.225259 -0.125672 -0.370280 0.035564 -0.211075 -0.259133 0.101998 -0.018006 -0.157239 -0.033714 -0.039166 -0.177960 -0.029858 -0.060316 -0.000015 -0.001068 -0.132013 0.148111 -0.105243 0.168993 -0.002558 0.211485 0.102937 -0.226595 0.024111 0.012763 -0.047313 0.016676 -0.030460 0.098203 -0.116304 -0.055070 -0.085327 0.065590 -0.027501 -0.035218 -0.072470 0.007426 0.170541 0.027409 0.050227 -0.153078 -0.132040 -0.370203 -0.005915 -0.047297 -0.042485 0.259350 0.120059 -0.045697 0.048784 -0.120695 -0.090520 0.057685 0.044041 -0.080385 -0.076939 -0.209432 0.129486 -0.156878 0.059494 -0.277614 0.113793 -0.128697 -0.101767 0.123366 0.012434
-0.123672 0.157538 -0.030489 -0.080826 -0.087075 -0.065284 -0.142990 0.152331 -0.108809 -0.234800 0.170167 -0.377986 0.075860 -0.138824 -0.204674 -0.192294 -0.114085 0.183400 -0.116948 0.230572 -0.071833 -0.162143 0.051343 -0.077362 -0.210764 0.028831 0.165911 -0.163558 -0.060990 -0.209957 0.086846 -0.002562 -0.293865 0.067081 0.004667 0.248645 -0.222096 0.053739 -0.106505 -0.073092 0.104174 -0.182709 0.005686 0.021977 0.090033 -0.208342 0.075604 -0.388374 -0.154463 -0.117623 0.021859 0.155297 -0.107623 -0.027789 0.006974 0.029942 -0.069899 -0.043241 0.013951 0.132216 -0.047350 0.013534 0.105307 -0.026750 0.227257 -0.139547 -0.118893 -0.327403 0.165719 -0.203762 -0.133036 0.052730 0.185462 0.046413 0.002931 -0.095190 -0.080087 -0.166643 -0.030515 0.124005 -0.089122 0.028619 -0.243960 0.005192 0.018703 -0.054052 -0.179017 -0.062411 -0.129617 -0.332936 0.010066 0.008210 0.002822 -0.164876 0.026591 -0.006829 -0.142385 -0.012207 0.028762 -0.012854
-0.279422 -0.246103 -0.017306 -0.048750 -0.088724 0.060851 -0.025757 0.036968 0.271804 0.177153 0.051532 0.140907 0.218462 -0.177615 -0.083780 0.022720 0.108674 0.050613 0.005395 0.111634 -0.154037 0.076982 0.166484 0.018464 0.059365 -0.209162 0.073586 0.049744 -0.082500 0.012017 -0.098114 0.012192 0.165953 -0.042178 -0.134310 0.187505 0.125144 0.131433 0.080608 -0.058599 0.109668 -0.066541 -0.049393 0.182780 -0.034468 -0.098179 0.011420 0.046063 -0.004352 0.034441 -0.210599 0.037952 -0.201862 0.000836 0.238675 -0.218154 0.058980 -0.009179 0.013369 0.089022 0.034018 -0.004191 -0.339392 -0.023405 0.038702 -0.020155 -0.096690 -0.224387 0.102348 0.032979 -0.003309 0.237668 -0.047838 0.197770 -0.070637 -0.107307 0.166961 -0.188899 -0.222520 0.109721 -0.157865 0.048130 0.012861 -0.251705 -0.184193 0.063351 -0.118412 0.044079 -0.102484 0.013075 -0.066720 0.033864 -0.074077 -0.095918 -0.126110 -0.057082 -0.238097 -0.001246 -0.043425 -0.002493
-0.004159 0.090114 0.065292 -0.082806 -0.071279 0.103184 0.020865 -0.030495 -0.029821 0.140180 -0.065287 -0.009037 0.031677 -0.026522 -0.136935 0.034806 -0.118624 -0.127433 0.106227 -0.124453 -0.221475 -0.244037 0.043990 0.047273 0.025546 -0.188697 0.104648 0.120474 -0.153502 -0.210466 -0.094773 -0.297946 0.067808 -0.158368 0.043118 -0.117640 -0.014557 0.055441 0.114386 0.002898 -0.193195 0.060173 0.047445 -0.341772 -0.147149 0.057104 0.086529 -0.022866 -0.143556 -0.158221 -0.150097 0.044831 -0.273078 -0.000102 0.066757 0.130647 -0.031253 -0.025667 -0.313938 0.064175 -0.084575 0.121712 0.109824 -0.023959 -0.101550 0.174538 0.154129 0.333252 -0.106768 -0.197872 0.028562 -0.058046 -0.014300 0.013585 -0.024100 -0.062257 0.061314 0.193075 -0.084635 0.245913 -0.070578 0.173053 0.021258 0.044630 0.071240 -0.104771 -0.008362 0.018974 0.023005 0.027729 -0.347786 -0.058206 0.036106 0.060680 0.095801 -0.085606 -0.044651 0.018044 0.009874 -0.019658
0.029969 -0.292935 -0.009824 0.122080 0.028120 -0.030608 -0.196937 -0.278879 0.028969 -0.049792 0.076718 -0.168451 -0.119989 -0.050529 0.088898 0.005862 0.066642 -0.023375 -0.014415 -0.289326 0.125306 -0.056383 0.175485 -0.252269 -0.017933 0.203017 -0.116510 -0.018047 0.295016 -0.333869 0.082825 -0.051513 0.040821 -0.072451 0.250012 0.061969 0.113155 -0.092377 0.160099 0.060267 0.200867 0.107809 0.122815 -0.202488 0.141723 -0.099412 0.070750 0.021151 -0.208641 -0.018527 -0.293352 -0.223760 -0.054526 0.000002 0.018661 -0.037837 0.045786 0.335945 -0.340747 0.240584 0.057759 0.234319 0.063550 0.016127 -0.062466 0.080996 0.382087 0.301609 -0.096205 -0.175249 -0.100731 -0.095265 -0.326074 0.196490 0.053866 0.215818 0.160846 0.292644 -0.150651 0.292238 0.014235 -0.063844 0.427968 -0.016548 0.272287 -0.093872 -0.046461 -0.012480 0.108524 -0.183310 -0.236620 -0.261502 0.127274 0.061522 -0.018498 -0.065373 -0.077520 -0.025318 0.025864 -0.000000
-0.203172 -0.019782 0.025775 -0.164927 -0.018318 0.190366 0.111226 0.049355 -0.058309 0.058383 0.001410 0.020794 -0.032141 -0.055879 -0.197810 -0.027393 0.148280 0.063988 -0.087821 0.087955 0.064681 -0.510310 -0.137392 0.036558 0.019063 0.043901 -0.206166 -0.065755 -0.002350 0.028179 0.023761 0.195035 -0.079925 0.031315 0.138628 -0.070377 -0.179145 -0.036257 -0.062113 -0.114232 0.010048 -0.138519 0.010955 -0.054547 0.229440 0.228389 0.265314 -0.168804 -0.051401 -0.112606 -0.010327 -0.106789 -0.097226 0.010717 0.120818 -0.127579 -0.237890 0.142385 0.129391 -0.236340 -0.134002 0.067293 0.257296 0.015647 -0.003558 -0.008740 -0.040965 -0.094217 -0.069946 0.042090 -0.193855 -0.015244 0.046201 -0.141027 0.015025 0.108416 -0.003859 -0.052830 -0.104551 -0.141504 0.007252 0.010795 -0.113458 -0.199464 -0.269567 -0.048262 -0.042153 -0.191404 0.210081 -0.052692 -0.208504 0.005722 0.101655 0.112716 0.059078 0.143782 0.077907 0.072801 0.171146 0.044079
-0.128374 -0.240177 -0.147464 -0.078391 -0.061414 -0.136507 0.079511 -0.299067 -0.033608 -0.272980 -0.130992 -0.006593 -0.160555 -0.106018 -0.342503 0.302061 -0.056387 0.076132 -0.193010 0.088472 0.059365 0.106456 -0.207101 -0.265153 -0.192262 0.206568 0.078786 -0.207143 -0.292670 0.049629 -0.097819 0.204711 -0.070397 -0.166683 -0.223011 -0.002753 -0.024555 -0.060068 -0.076998 -0.104863 -0.175744 -0.267557 -0.158392 -0.039270 0.116705 0.186067 -0.011068 -0.028130 -0.278088 0.139198 -0.301933 0.135614 -0.119368 -0.002140 0.164454 0.141932 0.160918 0.003877 -0.160584 0.104779 0.084386 -0.082259 -0.167504 0.133642 0.221679 0.060693 -0.014640 -0.183209 -0.002468 0.026916 -0.319374 -0.235749 -0.103611 0.021340 0.160880 -0.074704 -0.164199 -0.040203 -0.141500 0.070289 -0.224316 -0.006584 -0.247538 0.023127 -0.073330 -0.053922 -0.003100 -0.170616 -0.211998 -0.113288 0.010336 -0.053540 0.073967 0.070248 -0.048028 -0.183866 0.092119 -0.038217 -0.083426 -0.025734
0.154200 -0.073288 -0.220973 0.011002 -0.010844 -0.282682 -0.197682 -0.367742 -0.149862 -0.083471 -0.095090 -0.113213 0.041383 0.093025 -0.003535 0.056411 -0.126441 -0.119103 -0.020662 0.101187 -0.094822 0.031619 -0.087228 -0.045695 0.180936 0.035676 0.060370 -0.340718 -0.105124 -0.050780 -0.234643 0.106516 0.069017 -0.189069 -0.025014 -0.156690 0.034875 -0.122747 -0.119492 0.157744 -0.080140 -0.068527 0.172016 0.022068 -0.074695 0.132538 -0.248725 -0.223551 0.004275 -0.018243 0.144657 0.129123 0.032213 -0.030015 0.065212 0.109443 0.032149 0.030999 0.085021 -0.100034 0.013402 0.015124 0.050009 -0.229446 -0.015537 0.029323 -0.049867 0.177194 -0.077034 0.066082 0.144693 -0.396568 -0.034856 -0.146891 -0.047895 -0.164495 -0.011300 0.122436 -0.097666 -0.147358 -0.233748 0.001623 -0.203989 -0.023165 0.137770 0.110651 -0.102941 -0.009964 0.034179 -0.202036 0.114102 -0.080534 0.103595 -0.282275 -0.005516 -0.158655 -0.163672 -0.018901 0.059609 -0.023358
0.018513 -0.188294 -0.162222 -0.175601 -0.081595 0.078523 0.099242 -0.143176 -0.012484 -0.004984 -0.036110 -0.227164 -0.179657 0.137806 -0.105974 -0.010714 -0.054715 0.102161 0.069756 -0.070257 -0.291723 -0.096337 0.100233 -0.171025 -0.029458 0.101545 0.227148 -0.040386 0.081953 -0.012227 -0.150512 0.041674 0.194867 -0.095240 -0.114542 -0.369439 0.153706 -0.023973 0.154863 -0.246712 -0.101171 -0.047329 0.065942 -0.120034 -0.078514 0.015642 -0.283590 0.104128 -0.021289 0.099593 -0.168970 -0.173469 -0.090423 -0.012804 0.043675 -0.048832 -0.070951 -0.020776 0.195686 0.018622 -0.218875 0.113606 0.017403 -0.259286 0.079006 -0.009035 0.129665 -0.063360 -0.358018 0.024684 0.004853 0.092224 -0.381205 0.283667 0.031258 -0.160976 -0.076866 -0.006371 0.086932 -0.087719 0.195597 0.301062 -0.027691 0.008836 -0.136318 -0.070415 0.186695 -0.047490 0.075977 -0.030660 0.015700 0.051759 0.096853 0.086102 -0.137643 0.082988 0.054480 -0.017011 -0.123731 -0.026297
-0.067033 0.000365 -0.145883 -0.160203 -0.098731 0.098836 0.086569 -0.016834 -0.006303 -0.203430 0.033707 0.059221 0.083839 0.027858 -0.144075 0.140996 -0.049487 -0.028989 0.168172 -0.129629 -0.277601 -0.017871 -0.240974 0.003251 -0.000276 0.030143 0.079803 -0.138444 -0.280178 -0.160640 -0.052184 0.036180 -0.195947 -0.131441 -0.145947 0.187677 -0.100820 -0.138493 0.112765 -0.191198 -0.197762 -0.126545 -0.265490 0.086673 0.039539 -0.154690 -0.283305 -0.131476 -0.076250 -0.047115 -0.116781 0.126076 -0.065847 -0.052702 -0.185458 0.155678 -0.029529 -0.028913 0.022464 0.020299 -0.029949 -0.164995 0.072218 -0.121272 0.082152 0.122208 -0.106410 0.036944 -0.103471 -0.242783 -0.132676 0.044769 0.026839 -0.078308 -0.031760 -0.019801 0.021327 -0.107801 0.039236 -0.015029 -0.114822 -0.209612 -0.006486 -0.144095 -0.000412 -0.306343 -0.092189 0.012088 -0.035360 -0.041733 -0.008214 -0.145090 -0.140072 0.043585 -0.084881 -0.111465 -0.241983 0.128793 -0.086581 0.031991
-0.007215 -0.219664 0.032837 0.049183 0.039498 -0.043905 0.082580 -0.102921 0.047162 0.146118 -0.093843 -0.188681 -0.076063 0.015821 -0.206670 0.070058 0.017777 -0.032363 -0.162587 0.137209 -0.057483 0.032260 0.167464 -0.094022 0.053328 0.233500 0.100513 -0.039017 0.072050 -0.025154 0.068390 -0.220774 0.110840 0.089297 -0.003433 -0.030241 0.038466 0.070063 0.178639 0.107026 0.146013 0.039647 -0.067769 0.015852 -0.064471 0.179875 -0.019315 -0.023077 0.242183 0.080875 -0.021041 -0.128336 -0.235899 -0.000003 0.157918 -0.083261 -0.086320 -0.214905 -0.342468 -0.178015 -0.001597 0.152392 0.025307 -0.060053 0.141437 0.062734 -0.268811 0.017071 -0.019509 -0.144339 -0.123829 0.058347 -0.047111 0.231368 -0.060116 -0.123070 -0.170662 -0.089402 0.086625 -0.002459 -0.008582 -0.013030 -0.198129 0.205344 0.128929 0.009244 -0.160910 -0.005330 0.006324 -0.191488 -0.063375 -0.088365 -0.067778 -0.138068 0.050171 -0.020757 0.030373 0.035582 0.126874 0.055157
-0.085365 0.073831 -0.053153 -0.223154 -0.032642 -0.151447 -0.141616 0.071253 0.181903 0.071045 -0.151849 -0.162302 0.025835 0.004412 -0.106264 0.103216 0.131815 -0.053330 -0.081474 -0.133747 0.057913 -0.037224 -0.107021 -0.237129 0.124585 -0.208070 -0.184913 -0.042797 -0.156271 -0.046845 -0.170055 0.021928 -0.095033 0.031046 -0.098268 0.196617 -0.204892 0.035438 -0.241508 0.167118 -0.112438 -0.162350 -0.228216 0.074260 -0.136785 -0.060106 -0.084814 -0.072199 0.050633 -0.182554 0.056083 -0.004886 -0.042848 -0.170404 -0.023187 0.111111 0.059328 0.135766 0.117345 0.029180 -0.154988 -0.230484 0.106841 -0.157971 0.200327 0.031907 0.124263 0.024092 -0.041093 -0.093928 -0.105977 -0.085090 -0.256293 -0.013330 -0.097477 -0.154108 -0.047544 -0.012259 0.000861 -0.018900 -0.210833 0.003479 0.091652 0.181545 0.010923 -0.093811 -0.349723 -0.023735 0.039220 -0.158634 -0.164943 -0.064506 0.152322 -0.103051 -0.064110 -0.021163 -0.102981 0.061119 -0.149068 -0.067753
0.300631 0.028010 0.181564 -0.105106 0.001683 -0.044200 0.154153 -0.015138 -0.070124 -0.086545 -0.045918 0.058273 0.121700 0.082588 0.003475 0.059100 0.130447 -0.124068 0.016749 -0.072859 -0.004041 -0.133349 -0.171440 -0.006716 -0.099802 0.030802 -0.090784 -0.150374 0.053932 -0.125493 -0.261656 -0.016009 0.043090 -0.067452 0.093477 0.043297 0.004512 0.039759 -0.121197 0.135664 -0.000694 -0.122798 -0.024872 -0.166356 0.070088 -0.290642 -0.073849 -0.149246 -0.152690 0.021431 0.055324 -0.122705 0.077676 -0.000124 -0.167329 0.004540 0.139192 0.192659 0.061580 -0.065660 -0.001776 -0.200081 0.144238 -0.093985 0.014196 -0.155283 0.176094 -0.004017 0.016883 -0.313250 -0.098351 0.213029 -0.191673 -0.164356 -0.014806 0.001962 -0.073963 0.173554 -0.039770 -0.130770 0.036172 -0.148599 0.113836 0.110024 -0.046004 -0.018871 -0.001884 -0.006519 -0.051351 0.121247 -0.197720 -0.074676 -0.111701 -0.090530 -0.047288 0.032788 0.016147 -0.021296 0.219320 0.003797
0.075445 0.141152 -0.171294 -0.255752 0.004028 -0.089104 -0.124108 -0.196855 -0.065396 -0.050138 -0.185168 0.057407 0.294285 0.100705 0.236523 0.199857 -0.078364 -0.129091 0.126013 0.074252 -0.012210 -0.065960 0.021018 0.010030 -0.095182 -0.446622 -0.471239 0.015584 -0.069607 0.164202 -0.328515 -0.045323 0.084518 -0.169503 -0.084510 0.134215 -0.062712 -0.131337 -0.032917 -0.078950 -0.056188 -0.299208 -0.184967 -0.081746 0.126906 0.123727 0.319279 0.019808 -0.171333 0.014246 0.000241 0.099743 0.168149 -0.005724 0.138695 0.044322 -0.056833 0.317734 0.133209 -0.366780 -0.054982 -0.130938 0.037489 -0.183401 -0.293335 0.110560 0.024442 0.010607 0.079950 0.222880 -0.204544 -0.208319 -0.102455 -0.110890 -0.187464 -0.054209 -0.037413 -0.456282 0.108138 -0.082327 -0.068718 0.231745 -0.010545 -0.075629 -0.190313 0.230089 0.122235 0.013493 -0.285194 0.111342 0.137853 0.234580 -0.055893 -0.183099 -0.290306 -0.390772 -0.032622 -0.075620 -0.122822 0.021724
-0.148706 0.109080 0.005264 -0.098327 -0.060768 -0.202884 0.091439 0.053268 0.023905 -0.011303 -0.137636 0.139803 -0.002602 0.142992 -0.162807 0.129340 -0.086473 0.055277 0.045336 0.095882 0.107768 -0.161053 -0.137274 0.013753 -0.023623 0.119385 0.097224 -0.246630 -0.023594 -0.215511 -0.125388 -0.014596 -0.035687 0.127715 0.007655 -0.091124 -0.205821 -0.015325 0.103563 -0.042458 -0.267728 -0.005064 -0.129538 -0.192131 -0.131709 0.120395 -0.088454 -0.200427 0.058635 0.166981 -0.058988 -0.303046 0.063575 -0.001909 -0.041140 -0.160789 -0.149474 0.117894 -0.103445 -0.179667 -0.241817 0.023069 -0.016616 0.001146 -0.265215 -0.058912 -0.042469 0.029831 0.125906 -0.144295 -0.049742 0.149383 0.057409 0.027115 0.047601 0.003124 0.151997 0.016994 -0.092681 -0.100315 -0.016293 -0.331739 0.076670 -0.202515 -0.109411 0.204335 -0.225897 -0.055697 -0.090838 0.113684 -0.079363 -0.075367 -0.031332 0.235716 0.133415 0.006457 0.082054 0.041270 -0.096013 -0.065816
-0.063090 0.048533 -0.023594 0.055970 -0.150710 -0.097795 -0.066431 0.029241 -0.086931 -0.018397 -0.062640 -0.196597 -0.209896 0.244298 0.065680 -0.042899 0.039519 0.088202 -0.160287 -0.159981 0.151772 -0.199137 -0.055527 0.001523 0.068514 -0.095487 -0.092385 -0.192379 0.050463 0.011751 0.059573 0.093004 0.114561 0.102915 0.004684 0.125855 -0.214973 0.075976 0.047271 0.002674 -0.008374 -0.024901 -0.056217 0.006690 -0.183536 0.215848 -0.133609 0.018219 -0.015634 0.000298 -0.056697 0.113232 -0.052659 0.035040 -0.027133 0.023108 -0.081265 -0.016266 -0.119892 -0.077665 -0.111879 0.091430 0.168286 -0.043341 -0.451933 0.066068 -0.093159 0.070520 -0.007136 -0.134384 0.211512 0.115599 0.134800 0.108008 -0.185485 -0.151097 -0.056128 0.153791 -0.107057 0.155854 0.023784 -0.092269 -0.008409 -0.217143 0.127193 0.084155 0.129830 -0.081695 0.196576 -0.053944 -0.084299 -0.176221 0.046742 -0.082335 -0.042673 -0.189316 -0.096501 -0.058019 0.075706 -0.001157
-0.287607 -0.035855 -0.148338 0.016209 -0.009971 -0.133300 -0.167281 -0.112471 0.048935 0.258979 0.217488 0.133890 -0.000859 -0.187128 0.118554 -0.150836 -0.030303 0.140100 0.053069 0.061207 -0.087361 0.166342 0.110592 -0.054008 0.214089 -0.105078 -0.061090 0.107221 -0.038440 0.058806 0.014339 -0.197533 0.093645 -0.117065 0.024694 -0.232616 -0.197929 0.014931 -0.176776 -0.290594 -0.024433 -0.325639 -0.182723 -0.046629 0.201716 -0.009195 -0.160709 -0.120242 0.029305 -0.132780 0.006020 -0.075549 -0.256284 -0.006687 0.058467 -0.041547 -0.267191 -0.058518 -0.212196 0.053607 -0.111673 -0.068557 -0.142862 -0.039987 0.128020 0.037398 -0.119557 0.073407 0.047240 0.258402 -0.152132 0.053551 -0.178834 -0.040017 0.006191 0.086728 0.033662 0.003313 0.145271 -0.040269 -0.070495 0.176856 0.027183 -0.024827 -0.065124 -0.112826 0.052561 -0.223418 0.018594 -0.066039 0.210827 -0.098590 0.097684 -0.083648 0.008427 0.095866 -0.249747 -0.056132 0.176436 -0.007362
0.186640 -0.073508 -0.308482 0.103375 0.081166 0.086005 0.084030 -0.020143 -0.116193 -0.015290 0.172627 0.083082 -0.070064 -0.118521 -0.067577 -0.016148 -0.212634 0.201922 -0.056351 -0.240822 -0.004843 -0.260983 0.079230 0.107529 -0.152351 0.142212 0.112594 -0.215285 0.027315 -0.209307 -0.316544 0.279199 -0.136596 0.040580 -0.011321 0.006353 -0.151000 0.018669 0.029828 -0.279469 -0.022722 -0.058255 -0.007895 -0.018254 -0.090746 0.095450 -0.082191 -0.243402 0.068576 -0.178092 0.149530 -0.063216 0.087112 0.000044 -0.136751 0.139442 -0.009664 0.019808 -0.466992 -0.250405 -0.135696 -0.037836 0.073005 -0.058352 0.139631 -0.128963 0.213007 -0.067319 -0.027822 -0.115719 -0.119576 0.191053 -0.113941 0.140980 0.133710 -0.213452 -0.084577 -0.282211 -0.110879 0.037647 -0.088806 -0.093443 -0.106812 0.061223 -0.220827 -0.087491 -0.009262 0.018777 0.056856 -0.105857 -0.068538 0.046128 -0.124767 -0.143764 0.223467 0.293472 -0.106216 -0.065859 0.243520 -0.037217
0.111455 -0.103953 0.028091 0.097770 -0.077482 0.047540 -0.130184 0.002126 -0.068153 -0.074039 -0.082842 0.054906 0.102972 -0.024127 0.003815 -0.080851 -0.065957 0.174198 0.043938 -0.140237 -0.178002 0.132185 -0.077204 0.016663 0.071808 0.025350 0.014937 0.064454 0.036740 -0.073025 0.118372 0.035881 0.094922 -0.225884 -0.158236 0.042133 -0.050477 0.127538 -0.088425 0.116545 -0.054491 -0.138144 -0.092622 0.039238 0.163646 -0.134350 0.015328 0.015694 -0.087498 0.013130 0.090624 0.220973 0.085679 -0.000073 0.234902 0.049611 -0.137812 -0.092253 -0.056884 -0.146158 -0.000001 -0.015665 -0.335438 0.013410 -0.009524 -0.179814 -0.062771 -0.050468 -0.031551 -0.142434 -0.087489 0.175490 0.008112 0.130900 -0.051235 0.046078 0.055316 0.160297 -0.014448 0.075366 0.030433 -0.096673 0.011565 -0.043140 0.171640 -0.001123 0.092151 0.029941 -0.152297 -0.216974 -0.042340 0.011168 0.201839 -0.054388 -0.053972 -0.115455 -0.064463 0.061257 -0.130007 -0.004742
-0.053140 -0.062548 -0.105706 -0.016974 -0.012946 0.001355 -0.048836 0.101041 0.036002 0.148691 0.090361 0.149366 -0.064268 -0.110510 0.083811 -0.047250 0.168460 0.006671 0.082714 -0.032372 -0.069122 -0.181363 0.045594 0.167395 0.216056 -0.112891 -0.085040 -0.286033 0.237600 -0.111984 0.010133 0.156147 0.043887 -0.119438 -0.158633 0.024784 -0.127915 0.119465 -0.087603 -0.103933 -0.032688 -0.011567 -0.077282 -0.061148 0.033920 -0.026576 -0.022255 -0.119509 0.108291 -0.116783 0.096282 -0.020994 0.031054 -0.000004 -0.064789 -0.112886 -0.001576 -0.118062 -0.072363 0.020858 -0.089895 0.161289 -0.041784 -0.067983 -0.298409 0.097040 -0.077193 0.116735 -0.016672 0.148377 0.083711 -0.117001 0.030702 0.123976 -0.158963 0.038684 0.025516 0.042339 0.013317 -0.081920 -0.098561 -0.011363 0.100713 0.053829 0.050257 0.049497 -0.131554 -0.141721 -0.078744 -0.405101 0.311473 -0.038706 -0.330101 -0.403536 0.148330 0.104063 -0.129190 -0.066260 -0.034662 0.011151
-0.085670 0.088099 -0.023996 -0.166837 0.093224 -0.036227 -0.127243 -0.130647 -0.145370 -0.189113 -0.086445 -0.117880 -0.241239 -0.227771 0.229787 0.038731 -0.079079 0.136689 0.044043 0.082290 -0.018896 0.058837 0.097347 0.186407 -0.013284 -0.182607 0.070954 -0.268053 0.134516 0.048661 0.040804 0.117147 0.046681 0.047007 -0.154773 -0.161767 -0.193632 -0.004464 -0.116491 0.133877 0.028302 -0.009249 0.142991 -0.097686 0.052957 -0.011818 -0.103808 0.061836 -0.029195 0.105773 0.136159 -0.100335 -0.108601 -0.002608 0.079157 -0.111181 -0.069497 0.154540 -0.292747 0.159158 0.014287 -0.303883 -0.039995 -0.196896 -0.204483 0.104455 -0.146524 0.167613 -0.010779 0.104680 0.193887 -0.157753 -0.227062 0.010138 0.019550 0.120165 -0.056891 0.084893 -0.189446 0.020304 -0.068889 0.117808 0.020085 -0.185159 0.083766 -0.168873 -0.196994 -0.144692 -0.021988 0.200320 0.261713 -0.018274 -0.048613 -0.178153 -0.261162 -0.180823 -0.158324 -0.077075 0.052631 -0.005975
0.044864 -0.138983 -0.211055 0.052058 -0.134828 -0.078264 -0.084079 -0.057388 0.098012 0.040658 0.007023 0.070618 -0.254561 -0.006925 -0.136690 0.094411 0.084124 -0.064490 0.012668 -0.084348 -0.177567 -0.110040 -0.117979 -0.029458 0.055285 -0.228867 0.046090 -0.000179 -0.284614 -0.125296 -0.060470 0.015151 -0.017812 -0.130732 0.111460 0.015400 -0.364412 -0.138442 -0.108095 0.005185 -0.163288 -0.132787 0.170186 0.175595 0.159136 0.140694 -0.251652 0.189136 -0.031259 0.226422 -0.066313 0.039297 0.012473 0.002937 0.101739 0.133055 0.199902 -0.158230 -0.033222 -0.172671 0.078966 0.277803 -0.084449 0.091095 -0.213802 -0.003338 -0.070428 -0.041094 -0.079804 -0.093609 0.023263 0.110828 -0.107331 0.221304 0.045536 -0.081852 -0.138478 -0.043430 0.153979 -0.079638 -0.031667 0.035319 -0.006831 -0.068587 0.001789 0.006320 -0.028258 -0.127166 0.025241 -0.049877 0.047538 -0.110911 -0.081360 -0.065462 -0.074689 -0.102657 0.114350 -0.088721 0.027625 0.002741
0.115434 0.107023 -0.148052 0.029582 0.045280 -0.054762 -0.063338 0.127658 -0.043764 -0.119497 -0.053281 0.226736 -0.013842 -0.343245 0.158075 -0.046964 0.075538 -0.013871 -0.125833 0.196307 0.158150 -0.016369 -0.005989 0.185085 -0.133469 0.162320 0.112854 -0.147159 0.090164 -0.153373 -0.117626 0.304949 -0.024937 -0.072363 -0.034399 -0.121014 -0.160956 -0.123629 0.112720 -0.069649 0.111825 0.190305 -0.190776 -0.056472 0.281229 -0.113859 0.127266 0.124898 0.089334 0.020832 0.030505 0.019285 0.116827 -0.001138 -0.031318 0.004495 -0.062582 -0.152944 -0.189723 -0.137595 0.033503 -0.146693 -0.076354 -0.080846 -0.086570 -0.173310 -0.272009 -0.025356 0.209437 0.174425 0.171293 -0.070992 -0.037574 0.085807 0.215019 -0.013443 0.030099 -0.157408 0.149403 -0.032511 -0.028000 -0.063931 0.074793 -0.147692 -0.042615 0.058953 -0.009699 -0.151517 -0.313814 -0.244669 0.179407 -0.119490 0.094506 -0.282872 0.037902 -0.037296 -0.298229 -0.050045 0.056763 0.018052
0.056062 0.059086 0.032896 0.161221 0.110826 0.036061 0.098357 -0.104547 0.031129 0.099734 0.133025 -0.025232 -0.109217 0.162473 0.128031 -0.121858 -0.119817 -0.067743 -0.220087 0.117923 0.031020 0.162836 0.020404 0.068452 0.032398 0.026214 -0.124461 0.094846 -0.081012 -0.162908 0.124465 -0.021817 0.037181 -0.096383 0.261573 0.028149 0.055556 -0.013069 0.172443 0.008308 0.296306 0.059197 0.038221 0.041118 -0.203688 -0.012486 -0.018410 0.059556 0.186404 0.114359 -0.092903 -0.218657 -0.125080 -0.000000 0.139850 -0.052514 -0.045558 -0.041111 -0.085165 -0.004034 0.011008 0.258804 -0.045470 0.009994 -0.000224 0.189036 -0.205922 0.085256 -0.059553 0.184280 -0.025462 -0.043622 0.044788 0.050604 0.090705 -0.018289 0.007521 -0.138221 -0.105302 0.037254 -0.045950 -0.016952 0.040697 -0.055100 -0.150012 -0.097532 0.228561 -0.107792 -0.150335 -0.103062 -0.156179 0.057761 0.127949 0.018994 -0.078039 -0.120082 -0.019486 0.025406 0.081977 0.012835
-0.218457 0.302162 -0.004775 -0.020260 0.080864 -0.037095 -0.026882 -0.049225 0.215791 -0.000722 0.086181 0.237058 0.075581 -0.344924 0.126729 0.027452 -0.027309 -0.105900 -0.071304 -0.194802 0.178236 0.018880 -0.227748 0.138877 -0.015724 0.214280 0.142897 -0.028905 -0.190580 0.161746 -0.187437 0.240428 0.025847 -0.111770 0.011146 -0.033668 -0.079717 -0.179584 0.080443 -0.158432 0.057437 0.151949 -0.102146 -0.049945 -0.143886 -0.281129 0.155625 0.014754 0.039159 -0.159877 0.123689 0.068833 0.065436 0.064895 -0.044455 -0.430412 -0.011747 0.034573 -0.101808 0.066076 0.024377 -0.214418 0.022310 -0.103986 0.111879 -0.128075 -0.032726 -0.095919 0.086667 -0.020088 -0.222594 0.079150 0.043176 0.021008 0.095195 -0.139985 -0.093652 0.031072 0.010588 0.060269 0.020640 0.135948 -0.088135 0.006483 0.179023 0.252907 0.116712 0.125448 0.005658 -0.239273 0.134543 0.062934 0.247992 -0.133650 0.157756 0.075825 0.016558 -0.003723 0.027000 -0.001052
0.129834 0.002022 -0.295034 -0.174485 0.023132 -0.104135 0.150988 -0.103963 -0.082206 -0.209535 -0.063844 -0.051356 0.000918 0.104866 -0.065898 -0.102335 0.082966 0.026580 -0.069173 0.110479 0.007687 0.019190 -0.204891 -0.193205 -0.138779 -0.054789 -0.117126 0.222069 -0.346540 -0.098525 -0.113497 0.096173 -0.028920 0.069683 0.061967 0.017649 -0.053098 -0.143378 0.060956 0.072799 -0.124184 0.138073 0.153205 0.065077 0.122320 0.035625 -0.161929 -0.294951 0.058717 0.011908 -0.110984 0.110528 0.050017 -0.023461 0.133283 0.150854 -0.067589 0.020855 -0.227902 -0.103855 0.018056 0.021469 -0.146385 -0.191046 0.123747 0.158358 -0.137166 -0.157344 -0.078758 -0.123965 -0.030300 0.003966 -0.156914 0.027635 0.009706 0.067102 0.176090 -0.300824 0.017803 0.031244 -0.039045 -0.173068 -0.110251 -0.078662 -0.110793 -0.237927 -0.279542 -0.047712 -0.022291 0.025124 -0.021685 0.207131 0.047377 -0.096315 -0.051518 -0.053884 -0.068459 -0.070420 -0.108548 -0.033139
-0.045637 0.119709 -0.120475 0.080418 -0.000766 0.030394 0.022013 0.040372 -0.012962 0.071047 -0.062820 0.365213 -0.189692 0.105194 0.058288 -0.148814 0.063006 0.042035 0.054991 0.010444 0.000541 0.357203 -0.022343 0.014082 -0.011630 -0.044176 -0.183132 0.005553 0.002989 -0.013332 0.168005 0.264910 0.015506 -0.055412 0.072106 0.084763 -0.055944 0.021092 -0.057374 0.097766 0.001886 -0.163822 0.002714 -0.020384 -0.203388 -0.109867 0.160173 -0.028902 -0.069270 0.028958 0.007382 -0.025008 -0.025132 -0.000000 -0.094385 0.107806 -0.000003 -0.224285 -0.081726 0.000773 0.000000 0.007275 0.000994 0.056830 -0.099115 0.016098 -0.000133 -0.000029 0.097349 0.185089 0.299427 0.092545 0.007212 0.084885 0.174145 0.187817 -0.048545 -0.026167 0.026052 -0.005687 -0.002416 0.161639 0.084231 0.036225 -0.083901 -0.000978 -0.122597 -0.001442 -0.000000 0.078245 0.097898 0.001122 -0.081073 0.040145 0.089842 0.006267 -0.123241 0.000864 0.239137 0.000037
0.095290 0.037327 -0.289923 -0.002028 0.116405 0.109470 0.045121 -0.152348 0.133468 0.047836 -0.060206 0.214932 -0.153823 -0.304330 0.099400 0.038998 -0.020770 -0.179295 0.188608 0.025173 -0.070842 -0.132012 -0.081348 0.052015 0.019147 0.174360 0.071089 -0.065006 -0.243159 0.111924 -0.042240 0.268667 0.003439 -0.029974 0.024575 -0.000862 -0.123689 -0.012771 0.132539 -0.223290 0.107662 0.169081 0.252238 -0.174459 0.064274 -0.095298 0.090637 0.021924 0.099150 0.091342 -0.027087 -0.059351 0.243542 -0.020916 -0.008166 -0.028343 -0.148489 -0.166835 0.237525 -0.250944 -0.097671 0.015001 -0.201164 -0.054583 -0.182137 -0.320689 -0.336864 -0.179149 0.167366 0.129406 0.022130 0.226810 -0.020148 0.036423 0.213006 -0.120518 0.019462 -0.137125 0.129446 0.013985 -0.081756 0.072601 -0.093870 -0.167824 0.052391 0.071891 0.128309 -0.147320 -0.445103 -0.271158 0.188511 -0.109729 -0.366301 -0.106892 0.357855 0.058298 0.006416 -0.001278 0.091942 -0.000700
-0.039726 0.018702 0.031442 -0.168121 -0.251652 -0.036444 -0.105243 -0.199646 -0.170451 -0.123205 -0.017854 -0.056901 0.089996 0.109775 0.122028 -0.043070 0.043167 -0.150212 -0.034433 -0.012120 -0.078730 -0.214473 0.004644 0.010667 -0.100423 -0.096398 0.164240 -0.222012 -0.104139 -0.054417 -0.283889 -0.015620 0.157408 -0.238405 -0.015839 0.098765 0.091109 0.210168 -0.239962 -0.199963 -0.317989 0.032982 0.200136 0.112663 0.337542 -0.213814 -0.191157 0.042426 0.121847 -0.255110 0.056362 0.141445 -0.057448 -0.059187 0.190915 -0.124800 -0.067760 0.037893 0.193789 -0.314446 -0.187529 -0.053310 0.039095 -0.227106 -0.108043 -0.072254 -0.179708 0.008129 0.021757 0.172822 0.036543 -0.065072 0.040847 0.015603 0.026454 0.027717 0.183110 0.241548 0.011499 -0.202334 0.097541 0.018589 -0.016447 -0.004761 0.075871 0.176356 0.050048 0.018915 0.005804 -0.203444 -0.064514 -0.103617 -0.250843 -0.024281 0.068433 -0.033809 -0.284518 -0.064383 0.035575 -0.019026
-0.269339 0.258696 -0.308597 0.158690 0.075922 0.000173 -0.247041 -0.148827 -0.263557 -0.223217 -0.326914 -0.004901 0.070435 0.053572 -0.090325 0.165048 -0.035762 -0.067771 0.000261 -0.015044 0.157895 -0.161043 0.133074 -0.059802 -0.014821 -0.236391 0.303915 -0.109043 -0.160663 -0.045286 -0.164580 0.064406 0.016567 0.043658 -0.049838 -0.025833 0.193836 -0.043297 -0.083871 -0.102069 -0.420468 -0.187830 -0.025830 -0.228986 0.029448 0.222351 -0.133353 0.181427 0.080285 0.118474 -0.135369 -0.215633 -0.034955 0.000003 -0.027825 -0.106302 -0.167001 0.337729 0.043283 -0.117603 -0.000010 -0.151342 -0.025545 0.105119 -0.113869 -0.033907 0.106767 -0.078722 0.054527 -0.420264 -0.141974 0.041296 0.226215 -0.406830 0.000379 0.052927 -0.193625 -0.283152 0.116575 -0.097456 -0.043044 -0.081349 0.129045 0.152877 0.236083 -0.023190 -0.159174 -0.000171 -0.032567 0.028368 0.035196 -0.069287 -0.135888 0.198953 0.041442 -0.150264 0.174611 0.000148 -0.161666 -0.001056
-0.028665 0.027520 -0.016020 -0.000009 -0.017459 0.055788 -0.171709 -0.017419 -0.075587 0.073995 -0.037705 0.014571 -0.033537 0.053793 0.096625 -0.080385 0.031868 -0.109712 -0.016485 0.016171 0.048945 -0.098887 -0.065487 0.017019 0.072103 -0.108546 -0.065653 -0.129646 -0.021267 -0.025325 -0.036747 0.003493 0.002681 0.004428 -0.012655 -0.000590 -0.074619 0.048871 -0.050157 -0.012307 -0.009131 0.017695 -0.007286 0.123201 0.026609 0.059737 -0.036909 -0.020839 0.030677 0.069950 -0.064231 -0.005184 0.068685 0.001408 0.067506 0.104630 -0.020805 0.046455 0.004124 -0.017304 -0.010193 -0.052737 0.104365 -0.015912 -0.008095 0.032781 0.010318 0.075236 0.044062 0.091901 0.003129 -0.103503 -0.077282 -0.138482 0.143792 0.029971 0.049193 0.080757 0.000935 0.014975 -0.000352 0.021470 0.028275 -0.042488 0.121463 -0.005148 -0.024073 -0.005179 0.054245 -0.077211 0.067923 -0.038459 -0.019962 -0.078465 0.003015 0.039165 0.085010 0.025791 -0.012531 0.033585
0.067910 0.129965 -0.094447 0.113427 -0.010886 0.099196 0.009064 -0.051481 0.025365 -0.147727 0.212915 -0.122320 0.100578 -0.107341 0.133202 -0.080256 -0.169006 0.039425 0.141736 -0.068764 -0.004816 -0.006119 -0.093321 0.154804 -0.166606 -0.014905 0.072365 -0.145963 -0.117586 0.014409 0.095272 -0.127774 0.020113 -0.003368 0.008960 0.044740 -0.073502 -0.061279 0.173772 0.113662 -0.077660 -0.083183 0.014436 0.023956 0.094859 -0.118239 0.013299 0.024339 0.030211 0.027366 0.049132 -0.070085 -0.015598 -0.000000 -0.088223 -0.201248 0.027131 0.138457 -0.036318 0.030244 -0.000003 -0.077941 0.200325 0.033435 -0.047758 -0.166512 0.278000 -0.102212 -0.008097 -0.139126 -0.001540 -0.042306 -0.164505 0.044760 0.189246 0.079028 -0.145709 -0.026478 -0.116950 -0.076689 -0.139166 0.011893 -0.142374 0.030340 -0.020454 0.001230 -0.011013 -0.023694 0.028424 -0.153996 -0.297679 -0.017050 0.193348 -0.193589 -0.062451 0.046241 -0.042452 0.030740 0.045348 -0.024366
-0.054893 -0.091015 -0.004295 -0.033735 0.033799 -0.025051 -0.093008 0.037191 -0.293375 0.122214 0.141637 0.185879 0.003403 0.016609 0.173988 -0.048217 0.003099 -0.039547 0.109686 0.002450 -0.105361 -0.109076 -0.046734 0.081788 0.026058 -0.012833 0.293083 -0.038099 -0.002699 0.080296 -0.126543 0.012398 -0.000498 -0.108136 0.122962 -0.121229 -0.108716 0.032129 -0.236643 0.079680 0.004198 -0.109422 0.123050 -0.115568 0.112472 -0.048797 -0.103573 -0.061766 -0.040940 -0.038566 -0.049212 -0.066255 -0.211271 -0.000000 -0.028502 0.041450 -0.040120 0.018247 -0.274832 0.040912 -0.024366 -0.136877 -0.263631 0.070079 -0.156367 0.105951 -0.198360 0.147199 0.041294 0.202422 0.010537 -0.048979 -0.112515 -0.075166 0.088991 -0.078181 -0.029836 0.013970 0.107408 0.034935 0.032665 0.024285 0.197090 -0.126317 0.023878 0.014370 -0.138150 0.057544 -0.052970 -0.160023 0.110201 -0.163780 -0.256975 0.039086 -0.014766 -0.229587 0.278998 0.000068 0.054859 -0.000003
-0.262545 -0.071096 -0.103659 0.100069 -0.036327 -0.096248 -0.241775 -0.063362 0.185120 -0.246421 0.070763 0.001080 0.041802 -0.111250 -0.086983 -0.157267 -0.127434 0.152984 -0.061687 -0.069060 -0.251570 -0.156085 -0.044523 0.024288 0.005844 -0.021156 0.058023 -0.339159 -0.072416 0.019126 -0.085586 0.099703 0.182636 -0.161717 -0.088149 -0.070420 0.109163 0.060832 -0.091233 -0.358929 0.114577 0.106940 0.016501 -0.176294 -0.048668 -0.166532 -0.266579 -0.115762 -0.014954 -0.130796 0.038628 0.020296 -0.020138 -0.004724 -0.053828 -0.136791 -0.158552 0.054470 0.221349 -0.021890 -0.148337 -0.234331 0.198325 0.135868 -0.002161 0.000549 -0.159958 -0.073108 0.042358 -0.078374 -0.184331 -0.106332 0.002406 0.159778 0.101141 -0.197102 -0.087007 0.037180 -0.117761 0.069850 0.227011 0.035529 -0.175127 -0.025778 -0.044936 -0.098697 0.153617 -0.184118 -0.151057 -0.256806 0.184095 0.079247 -0.140231 0.188385 0.008548 0.035046 -0.008069 0.020154 0.173065 -0.012778
0.050304 0.175086 0.101689 0.003466 -0.078140 -0.030183 -0.339377 0.040470 -0.210583 0.057955 0.040089 0.100922 -0.014171 0.071002 -0.019756 0.087909 -0.215585 -0.189368 -0.019050 0.044293 -0.169707 -0.120000 -0.337448 0.077137 0.102507 -0.085542 -0.238313 0.137733 -0.010850 0.018836 -0.062591 -0.101925 -0.017373 -0.182079 -0.202349 0.235206 -0.158692 0.080522 0.037370 -0.143557 -0.260529 -0.041090 -0.036895 -0.033451 0.136095 0.045158 0.090592 0.091684 0.106522 -0.150600 -0.069139 0.040337 0.156774 -0.094086 -0.008110 0.051897 -0.013847 0.011610 -0.097708 -0.081604 0.013662 -0.134352 -0.147371 -0.131930 -0.012589 0.153094 0.198795 -0.100101 -0.071019 0.019581 -0.195166 -0.040839 -0.050498 0.033013 -0.046179 -0.463003 -0.025357 -0.241567 -0.040691 -0.008349 -0.071615 0.084713 -0.073298 0.017715 -0.253300 -0.120982 -0.068555 0.072786 -0.083028 0.050658 0.052205 -0.025325 0.115681 -0.232730 -0.034564 0.054353 -0.012276 0.010031 -0.193741 0.004147
-0.097113 -0.088575 -0.193542 -0.029049 -0.036173 0.031558 -0.261112 0.086905 -0.153407 0.069897 -0.058523 -0.152021 0.117942 -0.037979 -0.100865 0.111076 0.091122 -0.270845 0.081746 0.009753 -0.158082 0.024601 0.044422 0.001738 0.049573 -0.156580 -0.128894 0.051504 0.038400 0.035691 -0.054930 0.013387 0.058150 0.106625 0.080705 0.045392 -0.179885 0.041439 -0.315463 0.182562 -0.344937 -0.082816 0.040827 0.020212 0.056573 0.110060 -0.040928 -0.044802 0.000557 0.029459 -0.059829 -0.027547 -0.015803 -0.050512 -0.111290 0.016551 -0.200280 -0.015881 -0.009492 -0.212449 -0.000044 -0.136904 0.063156 -0.065191 -0.039738 -0.190474 -0.096149 -0.222635 -0.101850 -0.128764 -0.171616 -0.023244 -0.007327 -0.046453 -0.043849 -0.069016 -0.006368 -0.226724 0.072403 -0.217241 -0.084354 0.073872 -0.259382 -0.086216 -0.069416 0.004438 -0.032553 0.145130 -0.219740 0.116997 -0.334212 0.123260 -0.057981 0.009271 -0.343853 -0.079538 0.092498 0.011220 -0.095119 0.000588
0.028600 -0.125792 -0.182656 -0.051588 -0.100761 0.136403 -0.054476 -0.087799 0.046985 -0.058671 0.025366 0.100650 0.077280 -0.070739 -0.192436 -0.088538 -0.066272 -0.049454 -0.109016 -0.007280 -0.062170 -0.221670 -0.018993 0.125253 -0.044672 0.116395 0.056120 -0.017383 -0.178845 -0.175941 -0.059091 0.148466 -0.158965 -0.245559 -0.166436 -0.220719 -0.261315 -0.192164 0.183512 -0.352752 -0.160300 0.011611 -0.186640 -0.245961 -0.001828 -0.022791 -0.104570 0.060456 -0.086788 -0.026065 -0.124110 -0.372909 -0.004940 -0.009185 -0.027168 -0.084503 -0.141753 0.087221 -0.060821 -0.147489 -0.216481 -0.143489 0.241427 -0.062302 0.023602 0.217424 0.124228 -0.138803 -0.011544 -0.013823 0.007133 0.054714 -0.077309 0.126506 -0.020241 -0.105956 -0.068495 -0.187324 0.132195 -0.017161 0.097087 -0.152651 0.059116 -0.214506 0.073212 -0.062204 -0.046229 -0.000913 -0.024457 -0.214965 -0.132383 -0.137273 -0.061759 -0.104701 0.015522 -0.115407 -0.382842 -0.092000 -0.171569 0.005022
-0.102126 0.216923 -0.123054 -0.094673 -0.170092 -0.105364 0.129429 -0.067856 0.105036 -0.229387 0.158135 -0.145791 0.268307 -0.213267 -0.303028 0.044822 -0.040655 -0.094917 -0.109323 0.028748 -0.264748 -0.330963 -0.359416 -0.360051 -0.191643 0.213975 0.141446 0.027228 -0.268535 0.082820 -0.616177 0.143675 -0.238896 -0.084870 -0.145494 0.046976 -0.132312 -0.040736 0.223614 -0.015368 0.120234 -0.094931 -0.000712 0.153022 -0.035084 -0.299446 -0.239502 -0.047390 -0.150781 -0.178545 -0.256487 -0.239767 0.225119 -0.014598 -0.023172 -0.033007 -0.020068 -0.007405 0.097750 0.130514 -0.052701 0.026723 0.144367 -0.042691 -0.299760 -0.457967 0.094780 -0.018736 0.033950 -0.174978 -0.317579 0.216379 0.164343 -0.032979 0.360907 -0.000091 -0.091096 -0.274582 0.084728 -0.259053 -0.119074 -0.148014 -0.302560 -0.124322 -0.081228 -0.339171 -0.202701 -0.095032 -0.337556 -0.363774 -0.059634 0.174660 0.120833 -0.279748 -0.304228 -0.151414 -0.068012 -0.047233 -0.172112 -0.000978
0.003704 0.036818 -0.048578 -0.131175 0.038099 -0.138152 0.004583 -0.024366 0.063725 -0.010599 0.062162 -0.131177 -0.117356 -0.037969 -0.006631 -0.037881 0.075956 0.009330 -0.098893 -0.187184 -0.025347 0.139798 0.099544 -0.126282 0.067179 -0.065481 -0.052224 0.043174 -0.007957 -0.213871 0.141765 -0.020584 0.013351 -0.125289 -0.064713 -0.016889 -0.011272 0.027642 0.041354 0.000370 -0.106703 -0.059346 0.061055 -0.063137 -0.077432 0.078784 0.033196 -0.188746 -0.323509 -0.058475 0.100060 -0.097694 -0.206255 -0.007965 -0.031308 -0.024210 -0.143986 -0.115581 -0.175167 -0.144470 0.022994 0.074922 -0.078869 -0.028891 0.066454 -0.024434 -0.253056 -0.103593 -0.002017 -0.107362 -0.029840 0.017824 -0.110124 -0.080842 0.090322 -0.018579 0.018137 0.038070 -0.171660 -0.095900 -0.232529 -0.046995 -0.057689 -0.036861 0.015911 -0.176300 -0.128678 0.037863 -0.212799 0.106980 -0.106957 -0.293677 0.085898 -0.095489 -0.049970 -0.025076 -0.099262 0.037259 -0.326519 0.016911
-0.066917 0.026277 0.050034 0.002313 0.022186 -0.062612 -0.172558 0.075530 0.038666 -0.088990 -0.010878 0.073265 -0.048830 -0.195536 0.099414 0.005535 -0.058169 -0.136836 0.186918 -0.008789 0.049953 0.062377 -0.060850 -0.075063 0.237577 -0.244474 0.074101 0.041689 0.037594 -0.065201 0.313891 -0.117176 -0.054256 0.060873 -0.002122 -0.324659 0.115071 0.133070 -0.019432 0.128683 0.047867 -0.059275 -0.048582 -0.002271 -0.246882 0.022956 0.170845 0.193551 0.372326 0.008028 0.189470 -0.130658 -0.158889 0.000094 0.118744 -0.029942 0.002388 -0.053630 -0.177588 0.006306 0.017628 0.016905 -0.020267 0.005588 -0.162648 0.157628 -0.148668 0.065480 0.142877 -0.136840 0.115608 0.085758 0.202248 -0.143777 0.061884 -0.178659 -0.005251 0.021164 0.092047 0.078244 -0.089061 0.020988 -0.010233 -0.009779 0.141975 -0.155536 -0.022719 -0.169033 -0.008193 -0.102397 0.048170 0.234754 -0.082558 0.104314 -0.201887 -0.008313 0.088820 -0.017721 -0.016506 0.009142
0.038662 -0.168944 0.192804 -0.015419 -0.058800 0.007940 -0.388563 -0.221893 0.106985 0.074162 0.283827 -0.026760 -0.005700 -0.106982 0.174079 -0.043191 0.139718 -0.204888 -0.029749 -0.071889 -0.084355 -0.209954 -0.076682 0.027738 0.181004 -0.029480 0.072324 -0.045121 -0.040106 -0.244534 -0.068629 0.097424 0.174402 -0.002498 -0.144227 0.142559 -0.162961 -0.062279 -0.176120 -0.135283 0.116788 0.023970 0.094518 -0.012254 -0.125713 -0.083744 0.072181 0.038866 0.159786 0.110569 -0.098316 -0.139779 -0.023922 -0.000002 0.106449 -0.090746 -0.085711 0.031120 0.110083 -0.036583 -0.124461 -0.159238 -0.087607 -0.017016 -0.099999 -0.191833 -0.140683 -0.072084 -0.116926 0.018795 0.000249 0.253920 0.058987 -0.140062 -0.000695 0.078053 0.031799 -0.038693 -0.225858 -0.059249 -0.064881 -0.120214 0.029853 -0.079479 -0.192961 0.013215 0.091102 -0.095262 -0.026840 -0.215328 0.257310 -0.011883 -0.153011 0.052960 0.092987 -0.158579 0.106697 -0.057869 -0.178080 -0.008218
-0.087258 -0.162141 0.087427 -0.109860 -0.056553 0.227820 -0.202912 0.128591 0.213481 0.118106 0.089637 0.032065 0.055989 -0.080048 0.085668 0.061260 0.170563 0.139997 -0.177752 -0.186015 -0.124079 -0.086547 0.042070 -0.071866 -0.006607 -0.112312 0.085039 -0.285080 -0.238721 -0.411502 0.095549 -0.047158 0.083894 0.107369 -0.158670 0.086063 -0.072480 -0.025539 -0.085700 -0.063681 -0.137643 0.091251 -0.179022 -0.305463 -0.030681 0.042029 -0.111944 -0.158932 -0.014984 0.055832 -0.010059 -0.013845 -0.127412 -0.043953 0.079480 -0.135980 0.074501 -0.033370 0.045203 -0.051954 -0.005911 -0.113067 0.094198 0.140908 -0.297230 -0.107958 -0.012683 -0.077550 -0.003415 -0.157105 -0.014915 0.100525 0.072217 -0.053819 -0.048637 0.081992 -0.277432 0.109937 0.035895 -0.020651 -0.209531 -0.141668 -0.011225 -0.394193 0.017794 -0.184510 -0.329165 -0.136074 -0.190296 -0.219944 -0.140135 0.167620 -0.122046 0.145620 0.014827 -0.091640 -0.087606 0.096940 -0.102006 -0.023331
-0.155161 -0.126655 -0.218043 -0.007628 -0.185034 0.088598 -0.151174 -0.182775 -0.082203 0.009346 -0.103822 0.041402 -0.185595 0.016201 -0.111705 -0.091559 0.090880 0.083155 0.033107 -0.274885 -0.364893 -0.224913 -0.199628 0.080345 0.147435 -0.152349 0.120397 0.167327 0.051861 -0.282912 -0.035391 -0.012604 -0.123688 0.030640 -0.180854 -0.073119 0.058267 -0.097753 0.013134 0.097840 -0.271776 -0.027901 -0.086321 -0.196984 -0.181855 0.176859 -0.037342 -0.182258 -0.232439 0.047685 -0.246891 -0.066149 -0.308116 -0.031219 -0.094822 -0.129124 -0.135819 -0.025774 0.014635 -0.094760 -0.141345 0.165714 0.161239 -0.013233 0.240941 0.167143 -0.116161 0.031309 -0.192034 -0.055073 0.047586 0.044930 0.231039 -0.063525 -0.108215 -0.026106 -0.325158 0.011972 -0.131602 -0.188722 -0.052889 -0.141077 0.137552 -0.114517 0.175091 -0.071887 0.059893 -0.205832 -0.164693 -0.143212 0.048508 -0.366023 0.146850 -0.316659 0.012186 0.228465 -0.007681 -0.080032 -0.001639 -0.001355
0.108728 0.101252 0.011339 -0.038221 -0.017950 0.002376 0.081030 0.000000 -0.134797 -0.130967 -0.052403 0.023353 0.001025 0.054467 0.032016 -0.295297 0.005578 -0.026192 0.179115 -0.010702 -0.146564 -0.157572 -0.010578 0.035046 -0.369416 0.121463 0.223525 0.000000 -0.180934 0.012767 -0.176649 -0.065929 -0.048310 -0.072620 -0.058001 -0.107949 0.088449 -0.026242 -0.254846 0.149752 -0.067219 -0.220532 0.152598 0.019377 0.097381 -0.339457 0.028794 0.226946 0.106601 0.031410 0.159896 0.078703 -0.191665 0.000000 0.138877 -0.000867 -0.001822 -0.037686 -0.054347 -0.034555 -0.076673 -0.149922 -0.118226 -0.000833 0.358422 -0.023914 -0.076572 0.025461 0.238641 -0.097575 -0.155753 0.224667 -0.018351 0.253120 0.144789 -0.014584 0.069133 -0.095143 -0.002523 -0.062371 0.000000 0.077137 0.062119 0.109958 -0.035703 -0.122349 0.002755 -0.011516 -0.193696 -0.011235 -0.087478 0.139440 0.456735 -0.037259 0.042354 0.205750 0.039196 -0.020559 -0.069843 -0.000002
0.208133 -0.035727 0.183065 -0.108675 0.084133 -0.125725 0.225400 -0.145647 -0.049142 -0.228036 0.170160 0.003571 -0.080903 0.190140 -0.192816 0.104245 -0.004283 0.005563 -0.158742 -0.171186 -0.063076 -0.109353 -0.067498 -0.157680 -0.120691 -0.038565 -0.113672 0.180733 -0.218325 -0.109286 0.014134 -0.035953 -0.136316 0.175302 -0.099277 0.121541 -0.225653 -0.115939 -0.055231 -0.134596 -0.051498 -0.114773 -0.076722 -0.115573 0.041319 0.134429 -0.009306 -0.180026 0.057725 0.145247 -0.143918 0.001263 0.038699 0.084946 -0.000504 -0.186633 0.016299 -0.078258 -0.189770 -0.234066 -0.142120 -0.026884 -0.126107 -0.092035 0.070391 0.216600 0.040424 -0.109962 -0.039629 -0.065780 -0.109971 -0.115807 -0.085225 -0.022454 -0.149576 0.249429 -0.096925 -0.233205 0.208967 -0.072899 0.003466 0.066162 0.014862 -0.130714 -0.307351 -0.083948 0.184311 0.035891 -0.068510 0.121391 -0.055342 -0.208902 -0.103768 0.120172 -0.000555 -0.196281 -0.008700 0.006913 0.116184 -0.011673
-0.094599 0.051269 0.085333 -0.035561 -0.009761 0.141024 -0.090091 -0.040958 -0.038565 -0.034381 -0.161102 0.068713 0.133893 0.119909 0.035142 0.186066 -0.127868 0.019721 0.103932 -0.101847 0.070669 -0.013864 0.023830 0.005385 0.131297 -0.079462 0.147584 -0.048447 -0.107904 -0.014119 -0.178310 -0.052452 0.100031 0.070051 -0.120618 0.225399 -0.026553 0.186887 -0.014686 -0.090204 0.026208 -0.188574 -0.103803 0.232361 0.133965 0.039506 0.088356 -0.100469 -0.018278 -0.145400 0.054763 0.110197 -0.028406 -0.000000 0.246093 -0.084095 0.098110 -0.111312 -0.237336 0.085379 0.152019 -0.102981 -0.349806 -0.067090 0.064694 -0.031439 0.045946 0.017123 -0.194599 0.131355 0.117399 0.110220 -0.059381 0.305637 -0.126883 -0.059025 0.054710 0.049299 0.043388 0.018181 -0.009722 -0.125448 -0.006365 -0.123338 -0.041861 0.063836 -0.005270 -0.003769 0.005528 0.041361 0.241643 -0.033946 0.094988 0.108250 0.117060 -0.021589 0.069821 0.007721 0.074985 0.007773
0.150254 0.000756 0.143142 -0.001811 0.016155 -0.030077 -0.282319 0.222684 -0.053827 0.079559 0.013237 0.079729 -0.185216 -0.020186 0.139371 0.226439 -0.034272 -0.077271 -0.106613 -0.012477 -0.015153 -0.176892 -0.002019 0.049317 0.155973 -0.110893 -0.073902 0.030572 0.218225 -0.000983 -0.080480 0.078134 0.156506 0.226135 -0.111447 0.086512 -0.007924 0.051978 -0.209721 0.082262 0.052294 0.178571 -0.084760 -0.115965 -0.013399 0.213161 0.113688 -0.009544 0.152440 0.204089 0.034320 -0.141145 -0.032206 -0.009658 0.101168 0.021160 -0.026097 0.056516 0.003777 -0.182166 -0.003611 0.047983 -0.257111 -0.301084 0.155454 0.159715 -0.178707 0.053829 -0.080425 -0.223369 -0.133682 0.022731 0.029472 0.140957 -0.146768 0.085373 0.079722 0.118818 -0.276923 -0.141774 -0.027450 -0.086963 0.038905 -0.046281 -0.122524 0.046282 -0.228766 0.151768 0.035321 0.241324 0.015540 0.084900 -0.057784 0.137761 -0.059808 -0.024501 0.032404 0.000395 -0.052633 -0.002944
-0.140578 -0.070993 0.217338 0.009445 -0.043619 -0.013014 -0.070736 0.164400 -0.264432 0.078247 0.146821 0.228123 -0.013431 0.171805 0.018100 0.192665 -0.170702 0.053951 -0.032254 0.002237 -0.087164 -0.092272 0.163904 0.084871 -0.245344 0.176913 -0.065742 0.182053 0.030849 -0.194774 -0.380857 -0.130060 0.031516 -0.042747 0.076148 -0.009088 -0.039963 -0.018984 -0.257909 0.104916 -0.200262 -0.239473 0.022093 0.173195 -0.089924 0.100528 -0.186544 -0.120731 -0.034981 -0.272955 -0.256142 -0.167862 -0.064416 -0.007361 -0.080816 0.140447 0.020379 0.126312 0.199807 -0.105200 0.033259 0.037716 0.268134 -0.081964 -0.039896 0.100213 0.192081 -0.071559 0.233091 0.200962 -0.146702 0.031229 0.311153 -0.142231 0.078333 -0.090176 0.011683 0.121632 0.035295 0.085128 -0.186575 0.101348 -0.088039 -0.079011 0.163252 -0.027969 -0.013927 -0.043492 0.134919 0.047602 0.128074 0.070517 -0.058975 -0.015089 -0.098495 -0.047992 -0.014397 -0.033960 -0.044698 -0.031933
-0.006645 0.040269 -0.091927 0.000000 -0.000000 0.000000 -0.018927 -0.018772 -0.060636 -0.004887 -0.022744 0.084855 0.094023 -0.078477 0.000067 0.081722 -0.000398 -0.054620 -0.076128 0.107629 0.021100 0.038703 -0.000000 -0.055853 -0.043861 0.050918 -0.014071 -0.041330 0.192303 0.016796 0.028790 -0.061328 0.000011 0.082137 -0.007651 -0.043068 0.072728 0.041934 0.029301 0.234712 -0.000131 0.172996 0.204803 0.024697 0.047071 -0.060985 0.110221 -0.065823 0.048121 -0.007294 0.002843 0.029627 -0.108746 0.000000 0.125049 0.058498 -0.000000 -0.160263 0.030068 -0.000000 0.000000 0.018525 -0.141851 0.069577 -0.106237 -0.091581 -0.048604 -0.000000 0.054817 -0.006207 0.079025 0.103435 -0.059272 -0.085116 0.087577 -0.000000 0.001299 -0.043582 -0.024126 -0.000000 0.000008 0.004055 0.050496 0.010255 0.069874 -0.000000 0.048807 -0.000000 0.095396 -0.003120 0.046634 -0.085502 -0.136141 -0.034209 -0.099491 -0.056280 0.066638 -0.000016 -0.009192 -0.000000
0.059170 -0.263040 0.047706 -0.049339 -0.114234 -0.017672 0.069842 -0.134319 0.036281 0.070708 0.129071 0.147939 -0.148421 0.097882 0.135125 -0.056406 -0.061087 -0.116198 -0.206192 -0.137990 -0.076507 -0.222277 -0.022704 -0.108289 0.177723 -0.280102 -0.009178 -0.132959 -0.003727 -0.166811 -0.142419 0.013077 -0.182208 -0.138743 0.019208 0.033115 -0.030692 -0.006601 -0.062568 0.083657 0.103984 -0.159700 0.007467 -0.050291 0.069081 0.039714 -0.077205 -0.028754 -0.166077 -0.202313 -0.242026 -0.193584 0.016178 -0.009013 -0.067110 -0.112375 0.136875 0.042513 0.048009 -0.323355 0.065012 -0.012604 0.145600 -0.060275 -0.026144 0.197942 -0.087302 -0.062063 -0.165891 0.077492 0.290348 -0.006548 0.058944 0.323187 -0.205730 0.091435 0.031147 -0.217075 -0.000172 0.006183 0.055923 -0.028145 -0.137670 0.071023 0.121115 -0.091249 0.024870 -0.067883 0.104916 0.286891 0.022157 -0.204311 0.015325 0.089196 -0.072308 -0.071298 -0.024705 0.000832 -0.106750 0.046442
