-0.099982
0.065974
-0.019769
0.105693
-0.093312
0.050758
-0.070911
-0.124535
0.073256
0.088911
0.034163
0.034441
-0.039651
0.032674
-0.133397
-0.057542
-0.102218
-0.089822
-0.004071
-0.137305
-0.007335
-0.039565
-0.077778
-0.014792
-0.146488
-0.125447
-0.175386
-0.009514
-0.053168
-0.097949
0.028995
0.064388
0.007259
-0.192298
0.062046
0.063155
-0.056761
0.027865
0.108519
0.100691
-0.123396
-0.102183
0.060307
-0.060300
-0.078001
-0.118880
-0.029434
0.009150
0.005004
0.020265
-0.223398
0.087363
0.149957
0.021366
-0.068283
-0.017969
0.022509
0.001417
-0.013662
-0.037750
0.031024
-0.126947
0.061063
-0.099517
-0.035537
-0.041547
-0.076612
0.012729
-0.064553
0.050604
-0.212594
0.111585
0.101228
-0.076486
-0.112226
-0.065849
-0.005703
-0.036762
0.029441
-0.037230
-0.032555
0.068399
-0.121375
-0.108088
0.014182
0.046162
-0.091543
-0.173203
-0.012216
-0.162235
0.033796
-0.026131
-0.039931
-0.061146
-0.045696
-0.015975
0.113463
0.054715
-0.078172
0.030931
-0.000122
0.016730
0.005368
0.054817
-0.099316
-0.074292
0.037000
0.111462
-0.121921
0.030392
-0.059241
0.044232
0.066529
0.177264
-0.047119
-0.128342
-0.041461
-0.039413
-0.128139
-0.052386
0.012910
-0.158139
0.023650
0.013853
-0.015544
-0.041448
-0.104791
0.049832
-0.001451
-0.025871
0.048787
-0.075315
-0.023627
0.035872
-0.032336
0.093987
0.022341
-0.079226
-0.042458
-0.139826
0.017264
0.059425
0.038534
0.106739
-0.011873
0.129760
-0.044378
-0.195627
-0.026020
-0.122020
0.158707
-0.027461
-0.038500
-0.060542
-0.001954
-0.060287
-0.051193
0.132299
-0.041012
-0.173674
-0.054402
-0.022082
-0.011902
-0.014347
0.041129
-0.078716
-0.104696
-0.006738
-0.208600
0.137165
0.074213
-0.016237
0.065023
-0.054105
-0.027605
-0.164629
-0.057455
0.006169
-0.041089
0.053223
0.025138
-0.059101
-0.057955
-0.039284
0.013565
-0.053769
-0.046870
-0.049886
-0.033724
0.006506
-0.134458
-0.052061
0.110600
0.017600
-0.150637
-0.003668
-0.016939
-0.076313
0.085432
-0.030495
